<?xml version="1.0"?>
<opencv_storage>
<stage7>
  <maxWeakCount>100</maxWeakCount>
  <stageThreshold>-1.7684297561645508e+00</stageThreshold>
  <weakClassifiers>
    <_>
      <internalNodes>
        0 -1 13257 -4.5560938306152821e-03</internalNodes>
      <leafValues>
        1.3791295886039734e-01 -4.1032275557518005e-01</leafValues></_>
    <_>
      <internalNodes>
        0 -1 190462 2.5529513368383050e-04</internalNodes>
      <leafValues>
        -2.5744679570198059e-01 1.6670589148998260e-01</leafValues></_>
    <_>
      <internalNodes>
        0 -1 19257 -9.2005152255296707e-03</internalNodes>
      <leafValues>
        1.8321318924427032e-01 -1.5230968594551086e-01</leafValues></_>
    <_>
      <internalNodes>
        0 -1 171216 -2.9468793421983719e-02</internalNodes>
      <leafValues>
        9.4844058156013489e-02 -2.5639346241950989e-01</leafValues></_>
    <_>
      <internalNodes>
        0 -1 69692 -5.2075326442718506e-02</internalNodes>
      <leafValues>
        -4.0397757291793823e-01 9.9605366587638855e-02</leafValues></_>
    <_>
      <internalNodes>
        0 -1 18114 -6.0668019577860832e-03</internalNodes>
      <leafValues>
        2.1555989980697632e-01 -9.8305612802505493e-02</leafValues></_>
    <_>
      <internalNodes>
        0 -1 61075 -1.7384164035320282e-02</internalNodes>
      <leafValues>
        1.5475136041641235e-01 -1.2235236912965775e-01</leafValues></_>
    <_>
      <internalNodes>
        0 -1 69206 -4.3472073972225189e-02</internalNodes>
      <leafValues>
        2.0936615765094757e-01 -8.6767129600048065e-02</leafValues></_>
    <_>
      <internalNodes>
        0 -1 151423 -6.7400727421045303e-03</internalNodes>
      <leafValues>
        1.3868485391139984e-01 -1.2897324562072754e-01</leafValues></_>
    <_>
      <internalNodes>
        0 -1 130414 6.5959512721747160e-04</internalNodes>
      <leafValues>
        5.3026575595140457e-02 -4.4853985309600830e-01</leafValues></_>
    <_>
      <internalNodes>
        0 -1 23240 -1.0522246360778809e-02</internalNodes>
      <leafValues>
        2.1626780927181244e-01 -8.4398515522480011e-02</leafValues></_>
    <_>
      <internalNodes>
        0 -1 153513 2.1804900825372897e-05</internalNodes>
      <leafValues>
        -1.7320126295089722e-01 1.0164739191532135e-01</leafValues></_>
    <_>
      <internalNodes>
        0 -1 90502 -3.5889148712158203e-02</internalNodes>
      <leafValues>
        2.3946487903594971e-01 -7.6780922710895538e-02</leafValues></_>
    <_>
      <internalNodes>
        0 -1 130408 -2.2025848738849163e-04</internalNodes>
      <leafValues>
        -3.6108464002609253e-01 4.7948777675628662e-02</leafValues></_>
    <_>
      <internalNodes>
        0 -1 189092 -3.2872424926608801e-03</internalNodes>
      <leafValues>
        2.0954622328281403e-01 -9.2415571212768555e-02</leafValues></_>
    <_>
      <internalNodes>
        0 -1 2377 -2.3726521059870720e-02</internalNodes>
      <leafValues>
        3.5752603411674500e-01 -5.0196509808301926e-02</leafValues></_>
    <_>
      <internalNodes>
        0 -1 127811 -1.6286233440041542e-03</internalNodes>
      <leafValues>
        9.2030763626098633e-02 -2.1261171996593475e-01</leafValues></_>
    <_>
      <internalNodes>
        0 -1 112130 1.0205021826550364e-03</internalNodes>
      <leafValues>
        4.4595722109079361e-02 -3.0168089270591736e-01</leafValues></_>
    <_>
      <internalNodes>
        0 -1 183791 -4.4751219684258103e-04</internalNodes>
      <leafValues>
        1.8856818974018097e-01 -8.0919958651065826e-02</leafValues></_>
    <_>
      <internalNodes>
        0 -1 165691 4.2594678234308958e-04</internalNodes>
      <leafValues>
        6.1311684548854828e-02 -2.6282989978790283e-01</leafValues></_>
    <_>
      <internalNodes>
        0 -1 79941 -8.4848711267113686e-03</internalNodes>
      <leafValues>
        2.1285949647426605e-01 -7.8163184225559235e-02</leafValues></_>
    <_>
      <internalNodes>
        0 -1 9437 -8.4468652494251728e-04</internalNodes>
      <leafValues>
        1.7030008137226105e-01 -7.9369977116584778e-02</leafValues></_>
    <_>
      <internalNodes>
        0 -1 111355 -3.1119678169488907e-04</internalNodes>
      <leafValues>
        -3.1079873442649841e-01 4.0872290730476379e-02</leafValues></_>
    <_>
      <internalNodes>
        0 -1 91107 6.9467574357986450e-03</internalNodes>
      <leafValues>
        -6.6039077937602997e-02 2.3231035470962524e-01</leafValues></_>
    <_>
      <internalNodes>
        0 -1 165351 -3.8086524000391364e-04</internalNodes>
      <leafValues>
        1.1279019713401794e-01 -1.2654434144496918e-01</leafValues></_>
    <_>
      <internalNodes>
        0 -1 111355 1.7151377687696368e-04</internalNodes>
      <leafValues>
        5.5526055395603180e-02 -2.5781714916229248e-01</leafValues></_>
    <_>
      <internalNodes>
        0 -1 13615 -2.8535898309201002e-04</internalNodes>
      <leafValues>
        1.1701080203056335e-01 -1.3179720938205719e-01</leafValues></_>
    <_>
      <internalNodes>
        0 -1 183791 5.5642996449023485e-04</internalNodes>
      <leafValues>
        -6.9576188921928406e-02 2.1939806640148163e-01</leafValues></_>
    <_>
      <internalNodes>
        0 -1 51045 -5.6706508621573448e-03</internalNodes>
      <leafValues>
        1.9501020014286041e-01 -6.9655194878578186e-02</leafValues></_>
    <_>
      <internalNodes>
        0 -1 9435 1.1869475711137056e-03</internalNodes>
      <leafValues>
        -6.4441256225109100e-02 2.2558574378490448e-01</leafValues></_>
    <_>
      <internalNodes>
        0 -1 152153 4.6861963346600533e-04</internalNodes>
      <leafValues>
        6.0617472976446152e-02 -2.5188288092613220e-01</leafValues></_>
    <_>
      <internalNodes>
        0 -1 14760 -1.7445035337004811e-04</internalNodes>
      <leafValues>
        8.7838828563690186e-02 -1.4136968553066254e-01</leafValues></_>
    <_>
      <internalNodes>
        0 -1 152153 -9.4561080913990736e-04</internalNodes>
      <leafValues>
        -3.1016150116920471e-01 3.9038721472024918e-02</leafValues></_>
    <_>
      <internalNodes>
        0 -1 22249 7.6943449676036835e-02</internalNodes>
      <leafValues>
        -6.5430097281932831e-02 2.2378903627395630e-01</leafValues></_>
    <_>
      <internalNodes>
        0 -1 113339 3.3112183213233948e-02</internalNodes>
      <leafValues>
        -4.0019255131483078e-02 3.0907443165779114e-01</leafValues></_>
    <_>
      <internalNodes>
        0 -1 187709 -1.4047204749658704e-03</internalNodes>
      <leafValues>
        1.4608763158321381e-01 -8.4535323083400726e-02</leafValues></_>
    <_>
      <internalNodes>
        0 -1 159507 1.3371338718570769e-04</internalNodes>
      <leafValues>
        5.9006772935390472e-02 -2.2022952139377594e-01</leafValues></_>
    <_>
      <internalNodes>
        0 -1 146690 1.4986936934292316e-02</internalNodes>
      <leafValues>
        -2.7557888999581337e-02 5.0334119796752930e-01</leafValues></_>
    <_>
      <internalNodes>
        0 -1 111312 -6.1121741309762001e-03</internalNodes>
      <leafValues>
        1.7950636148452759e-01 -6.4425118267536163e-02</leafValues></_>
    <_>
      <internalNodes>
        0 -1 159507 -1.4950905460864305e-04</internalNodes>
      <leafValues>
        -2.2479902207851410e-01 5.4609894752502441e-02</leafValues></_>
    <_>
      <internalNodes>
        0 -1 19040 -8.7898527272045612e-04</internalNodes>
      <leafValues>
        1.5818996727466583e-01 -7.0925608277320862e-02</leafValues></_>
    <_>
      <internalNodes>
        0 -1 100787 -2.4849704932421446e-03</internalNodes>
      <leafValues>
        1.4799436926841736e-01 -7.2880938649177551e-02</leafValues></_>
    <_>
      <internalNodes>
        0 -1 54127 4.2940927669405937e-03</internalNodes>
      <leafValues>
        -6.8144224584102631e-02 1.8058127164840698e-01</leafValues></_>
    <_>
      <internalNodes>
        0 -1 137452 2.7195771690458059e-04</internalNodes>
      <leafValues>
        4.7935850918292999e-02 -2.7019625902175903e-01</leafValues></_>
    <_>
      <internalNodes>
        0 -1 137452 -1.9983018864877522e-04</internalNodes>
      <leafValues>
        -2.2276732325553894e-01 5.2257314324378967e-02</leafValues></_>
    <_>
      <internalNodes>
        0 -1 189319 -1.1300966143608093e-02</internalNodes>
      <leafValues>
        -3.7995988130569458e-01 2.8706474229693413e-02</leafValues></_>
    <_>
      <internalNodes>
        0 -1 134674 -1.4602730516344309e-03</internalNodes>
      <leafValues>
        1.1709102243185043e-01 -9.8374031484127045e-02</leafValues></_>
    <_>
      <internalNodes>
        0 -1 11369 -1.5902045415714383e-03</internalNodes>
      <leafValues>
        1.2453202903270721e-01 -8.5870854556560516e-02</leafValues></_>
    <_>
      <internalNodes>
        0 -1 13257 -4.5308382250368595e-03</internalNodes>
      <leafValues>
        -2.2994489967823029e-01 5.3649131208658218e-02</leafValues></_>
    <_>
      <internalNodes>
        0 -1 14553 -2.1438330804812722e-05</internalNodes>
      <leafValues>
        8.9019790291786194e-02 -1.2840518355369568e-01</leafValues></_>
    <_>
      <internalNodes>
        0 -1 104045 -4.1256649419665337e-03</internalNodes>
      <leafValues>
        -2.7685156464576721e-01 3.8387265056371689e-02</leafValues></_>
    <_>
      <internalNodes>
        0 -1 102912 8.7055573239922523e-03</internalNodes>
      <leafValues>
        -4.1190601885318756e-02 2.5760841369628906e-01</leafValues></_>
    <_>
      <internalNodes>
        0 -1 179870 -1.8315289169549942e-02</internalNodes>
      <leafValues>
        1.9098196923732758e-01 -5.3619347512722015e-02</leafValues></_>
    <_>
      <internalNodes>
        0 -1 62518 -1.5734436456114054e-03</internalNodes>
      <leafValues>
        1.0662936419248581e-01 -1.0594733804464340e-01</leafValues></_>
    <_>
      <internalNodes>
        0 -1 171248 -8.4285289049148560e-02</internalNodes>
      <leafValues>
        -3.0020236968994141e-01 3.6929942667484283e-02</leafValues></_>
    <_>
      <internalNodes>
        0 -1 67878 -6.5578357316553593e-03</internalNodes>
      <leafValues>
        1.4213453233242035e-01 -7.5066693127155304e-02</leafValues></_>
    <_>
      <internalNodes>
        0 -1 67262 -1.2541820760816336e-03</internalNodes>
      <leafValues>
        9.4900876283645630e-02 -1.1523413658142090e-01</leafValues></_>
    <_>
      <internalNodes>
        0 -1 129959 -1.1220762506127357e-02</internalNodes>
      <leafValues>
        3.0468660593032837e-01 -3.8717973977327347e-02</leafValues></_>
    <_>
      <internalNodes>
        0 -1 153458 -4.9332913476973772e-04</internalNodes>
      <leafValues>
        -3.3267492055892944e-01 3.5380497574806213e-02</leafValues></_>
    <_>
      <internalNodes>
        0 -1 139354 9.9930927157402039e-02</internalNodes>
      <leafValues>
        1.3467092998325825e-02 -6.6187804937362671e-01</leafValues></_>
    <_>
      <internalNodes>
        0 -1 190436 -1.7180850263684988e-03</internalNodes>
      <leafValues>
        -2.5717306137084961e-01 3.5465661436319351e-02</leafValues></_>
    <_>
      <internalNodes>
        0 -1 187684 -2.7137840515933931e-04</internalNodes>
      <leafValues>
        1.1123148351907730e-01 -1.0074903815984726e-01</leafValues></_>
    <_>
      <internalNodes>
        0 -1 170276 -2.9861557413823903e-04</internalNodes>
      <leafValues>
        9.2042721807956696e-02 -1.1838401854038239e-01</leafValues></_>
    <_>
      <internalNodes>
        0 -1 141956 -2.2101090289652348e-03</internalNodes>
      <leafValues>
        -4.2258232831954956e-01 2.2145727649331093e-02</leafValues></_>
    <_>
      <internalNodes>
        0 -1 105636 2.3601297289133072e-02</internalNodes>
      <leafValues>
        -2.1746128797531128e-02 4.6245697140693665e-01</leafValues></_>
    <_>
      <internalNodes>
        0 -1 1712 -5.5760677903890610e-02</internalNodes>
      <leafValues>
        -5.7055717706680298e-01 1.7720023170113564e-02</leafValues></_>
    <_>
      <internalNodes>
        0 -1 20674 -1.8332511186599731e-01</internalNodes>
      <leafValues>
        -5.3760200738906860e-01 1.4354176819324493e-02</leafValues></_>
    <_>
      <internalNodes>
        0 -1 29268 2.6301818434149027e-04</internalNodes>
      <leafValues>
        2.6562547311186790e-02 -3.1572115421295166e-01</leafValues></_>
    <_>
      <internalNodes>
        0 -1 9273 -8.7057650089263916e-02</internalNodes>
      <leafValues>
        -3.9484190940856934e-01 2.1057423204183578e-02</leafValues></_>
    <_>
      <internalNodes>
        0 -1 40041 -7.1389107033610344e-03</internalNodes>
      <leafValues>
        1.6762335598468781e-01 -5.6954499334096909e-02</leafValues></_>
    <_>
      <internalNodes>
        0 -1 25945 -1.8069709185510874e-03</internalNodes>
      <leafValues>
        -2.3582847416400909e-01 4.2224142700433731e-02</leafValues></_>
    <_>
      <internalNodes>
        0 -1 52323 -4.8713404685258865e-03</internalNodes>
      <leafValues>
        1.3252843916416168e-01 -6.9310672581195831e-02</leafValues></_>
    <_>
      <internalNodes>
        0 -1 99744 -5.0948234274983406e-03</internalNodes>
      <leafValues>
        1.5596832334995270e-01 -6.5456755459308624e-02</leafValues></_>
    <_>
      <internalNodes>
        0 -1 187177 -2.6318861171603203e-02</internalNodes>
      <leafValues>
        -2.9449027776718140e-01 3.3113863319158554e-02</leafValues></_>
    <_>
      <internalNodes>
        0 -1 65378 1.8078795075416565e-01</internalNodes>
      <leafValues>
        -2.1816717460751534e-02 5.7557773590087891e-01</leafValues></_>
    <_>
      <internalNodes>
        0 -1 137417 -1.3452367857098579e-03</internalNodes>
      <leafValues>
        1.2126329541206360e-01 -8.4179721772670746e-02</leafValues></_>
    <_>
      <internalNodes>
        0 -1 89614 -1.8524259212426841e-04</internalNodes>
      <leafValues>
        -1.9969068467617035e-01 4.7871448099613190e-02</leafValues></_>
    <_>
      <internalNodes>
        0 -1 9072 -2.0077310502529144e-02</internalNodes>
      <leafValues>
        1.2348552793264389e-01 -8.5045173764228821e-02</leafValues></_>
    <_>
      <internalNodes>
        0 -1 124150 -3.6923731677234173e-03</internalNodes>
      <leafValues>
        1.1365393549203873e-01 -9.4964429736137390e-02</leafValues></_>
    <_>
      <internalNodes>
        0 -1 29141 -4.7217989340424538e-03</internalNodes>
      <leafValues>
        9.8959185183048248e-02 -1.1948960274457932e-01</leafValues></_>
    <_>
      <internalNodes>
        0 -1 62500 1.2003636360168457e-01</internalNodes>
      <leafValues>
        1.1386532336473465e-02 -7.7154666185379028e-01</leafValues></_>
    <_>
      <internalNodes>
        0 -1 138138 -5.3838093299418688e-04</internalNodes>
      <leafValues>
        9.5101706683635712e-02 -9.5522508025169373e-02</leafValues></_>
    <_>
      <internalNodes>
        0 -1 67830 2.4454502854496241e-03</internalNodes>
      <leafValues>
        -6.6998831927776337e-02 1.6852399706840515e-01</leafValues></_>
    <_>
      <internalNodes>
        0 -1 89616 1.2238662748131901e-04</internalNodes>
      <leafValues>
        6.2261220067739487e-02 -1.5217374265193939e-01</leafValues></_>
    <_>
      <internalNodes>
        0 -1 186520 -1.0677633807063103e-02</internalNodes>
      <leafValues>
        2.0670078694820404e-01 -4.7554209828376770e-02</leafValues></_>
    <_>
      <internalNodes>
        0 -1 186904 2.5221619289368391e-03</internalNodes>
      <leafValues>
        -5.8556035161018372e-02 1.7362025380134583e-01</leafValues></_>
    <_>
      <internalNodes>
        0 -1 150932 3.6439613904803991e-04</internalNodes>
      <leafValues>
        4.1356734931468964e-02 -2.0646102726459503e-01</leafValues></_>
    <_>
      <internalNodes>
        0 -1 187017 -7.2753988206386566e-04</internalNodes>
      <leafValues>
        1.4567320048809052e-01 -6.5294504165649414e-02</leafValues></_>
    <_>
      <internalNodes>
        0 -1 190473 -6.0364664532244205e-03</internalNodes>
      <leafValues>
        -5.0206506252288818e-01 1.7093190923333168e-02</leafValues></_>
    <_>
      <internalNodes>
        0 -1 58363 -3.1486842036247253e-01</internalNodes>
      <leafValues>
        -6.5214681625366211e-01 1.1940909549593925e-02</leafValues></_>
    <_>
      <internalNodes>
        0 -1 178897 -2.9834290035068989e-04</internalNodes>
      <leafValues>
        -2.1613110601902008e-01 3.8667451590299606e-02</leafValues></_>
    <_>
      <internalNodes>
        0 -1 26960 -7.3201209306716919e-04</internalNodes>
      <leafValues>
        1.0486200451850891e-01 -8.5884928703308105e-02</leafValues></_>
    <_>
      <internalNodes>
        0 -1 10786 7.9043285222724080e-04</internalNodes>
      <leafValues>
        -5.3190279752016068e-02 1.7731608450412750e-01</leafValues></_>
    <_>
      <internalNodes>
        0 -1 126446 1.0145432315766811e-03</internalNodes>
      <leafValues>
        2.4662928655743599e-02 -3.6067035794258118e-01</leafValues></_>
    <_>
      <internalNodes>
        0 -1 7985 -8.3809078205376863e-04</internalNodes>
      <leafValues>
        9.8049946129322052e-02 -8.5928104817867279e-02</leafValues></_>
    <_>
      <internalNodes>
        0 -1 20897 9.2086405493319035e-04</internalNodes>
      <leafValues>
        -6.5215118229389191e-02 1.3709633052349091e-01</leafValues></_>
    <_>
      <internalNodes>
        0 -1 133241 -2.6492942124605179e-02</internalNodes>
      <leafValues>
        -3.5462546348571777e-01 2.3534236475825310e-02</leafValues></_>
    <_>
      <internalNodes>
        0 -1 130928 -2.1733748726546764e-03</internalNodes>
      <leafValues>
        9.4092421233654022e-02 -8.8617995381355286e-02</leafValues></_>
    <_>
      <internalNodes>
        0 -1 184975 -3.0126035213470459e-02</internalNodes>
      <leafValues>
        -7.0666259527206421e-01 1.1910192668437958e-02</leafValues></_>
    <_>
      <internalNodes>
        0 -1 190735 -2.4461629800498486e-04</internalNodes>
      <leafValues>
        -1.8620742857456207e-01 4.1726134717464447e-02</leafValues></_></weakClassifiers></stage7>
</opencv_storage>
