<?xml version="1.0"?>
<opencv_storage>
<stage14>
  <maxWeakCount>98</maxWeakCount>
  <stageThreshold>-1.5510753393173218e+00</stageThreshold>
  <weakClassifiers>
    <_>
      <internalNodes>
        0 -1 25 -10297869 1603516066 -1692749985 -705514878 -641007681
        -69788165 -538194433 2004350839</internalNodes>
      <leafValues>
        -4.0999832749366760e-01 -5.3016990423202515e-02</leafValues></_>
    <_>
      <internalNodes>
        0 -1 9979 -881349275 1348482097 2097132915 -855910673 -974657571
        -737233471 -723794724 -990906457</internalNodes>
      <leafValues>
        -1.6672061383724213e-01 1.9164261221885681e-01</leafValues></_>
    <_>
      <internalNodes>
        0 -1 1810 -181406814 90236834 -576912480 -641468478 82686372
        235667790 1409266656 1153692654</internalNodes>
      <leafValues>
        -1.9227753579616547e-01 1.4773924648761749e-01</leafValues></_>
    <_>
      <internalNodes>
        0 -1 594 -1854480545 -1217081473 -9148421 2100524561 -646646013
        1567776208 -294333404 -616305546</internalNodes>
      <leafValues>
        -1.3489907979965210e-01 1.9152675569057465e-01</leafValues></_>
    <_>
      <internalNodes>
        0 -1 2495 1540942558 -369299476 266679679 1069377694 1768950468
        1070268254 853215195 461872094</internalNodes>
      <leafValues>
        -1.3267564773559570e-01 1.9041474163532257e-01</leafValues></_>
    <_>
      <internalNodes>
        0 -1 9899 226983381 1064499377 -2132838189 543060601 802126845
        1599443043 803864826 1328741883</internalNodes>
      <leafValues>
        -2.2610522806644440e-01 1.1007350683212280e-01</leafValues></_>
    <_>
      <internalNodes>
        0 -1 2397 -8899152 -193680207 -1178228071 2101715231 -146426964
        -2050478678 1271667167 -825366193</internalNodes>
      <leafValues>
        -1.2939673662185669e-01 1.9146578013896942e-01</leafValues></_>
    <_>
      <internalNodes>
        0 -1 1536 1678306236 687132831 -783894439 -1115779077 1140934832
        -1113171724 560685817 -285211392</internalNodes>
      <leafValues>
        -2.1155773103237152e-01 9.2316307127475739e-02</leafValues></_>
    <_>
      <internalNodes>
        0 -1 9546 -621308790 827485853 1727676666 271837822 1835125312
        1869180685 1990721198 -532419873</internalNodes>
      <leafValues>
        -1.2689074873924255e-01 1.6402202844619751e-01</leafValues></_>
    <_>
      <internalNodes>
        0 -1 9499 -118292481 -1217396878 780111612 391617780 267896804
        97381916 -2015690244 -270534280</internalNodes>
      <leafValues>
        -1.1046066880226135e-01 2.0763549208641052e-01</leafValues></_>
    <_>
      <internalNodes>
        0 -1 945 -1043609232 -1401605022 686857554 1945901971 -865740327
        -1361065119 -578947624 -328506905</internalNodes>
      <leafValues>
        -1.0850708186626434e-01 1.8364241719245911e-01</leafValues></_>
    <_>
      <internalNodes>
        0 -1 5605 1648159237 -1508125387 -1849625669 897405241
        -1910250432 -86773513 533447596 -2078243068</internalNodes>
      <leafValues>
        -2.1316301822662354e-01 9.7182966768741608e-02</leafValues></_>
    <_>
      <internalNodes>
        0 -1 3374 1812850358 1880566975 710148464 889563127 659026644
        -1948294145 -204917273 2100250569</internalNodes>
      <leafValues>
        -1.4604683220386505e-01 1.4460311830043793e-01</leafValues></_>
    <_>
      <internalNodes>
        0 -1 4086 -127931766 1703718350 834729571 352854500 930303572
        -2151691 2146635311 2041549315</internalNodes>
      <leafValues>
        -1.3491523265838623e-01 1.4975172281265259e-01</leafValues></_>
    <_>
      <internalNodes>
        0 -1 7174 112998356 -879062724 -1744715809 408892241 477649510
        -1079447297 -1794852419 -2004875152</internalNodes>
      <leafValues>
        -3.1375509500503540e-01 5.3460020571947098e-02</leafValues></_>
    <_>
      <internalNodes>
        0 -1 6740 1342368692 -1832778219 1540884934 2105593518
        -2116711026 806415391 1796745450 162383499</internalNodes>
      <leafValues>
        -1.6174018383026123e-01 1.2620104849338531e-01</leafValues></_>
    <_>
      <internalNodes>
        0 -1 9082 -1165226940 530204997 -1371145122 308013109 146670062
        1069244901 600128079 268437516</internalNodes>
      <leafValues>
        -3.6157125234603882e-01 5.3899481892585754e-02</leafValues></_>
    <_>
      <internalNodes>
        0 -1 1531 543823196 -1122818807 -1878313927 289348603 1099686091
        -320071494 1652748985 1103922315</internalNodes>
      <leafValues>
        -1.6764174401760101e-01 1.1911568790674210e-01</leafValues></_>
    <_>
      <internalNodes>
        0 -1 784 -89686049 1055806335 -353018881 -1116072002 -228625283
        993467182 1341355876 -699938763</internalNodes>
      <leafValues>
        -1.6036443412303925e-01 1.4335823059082031e-01</leafValues></_>
    <_>
      <internalNodes>
        0 -1 5443 49433284 -731327529 -1371289003 -1911071569 -480809999
        2105606567 122624571 146568966</internalNodes>
      <leafValues>
        -1.9377551972866058e-01 1.0023082047700882e-01</leafValues></_>
    <_>
      <internalNodes>
        0 -1 8840 2020594909 -210965405 -273978226 -1310150997
        1560127692 -1352867986 -1192008146 -360710189</internalNodes>
      <leafValues>
        -8.9017517864704132e-02 2.1995252370834351e-01</leafValues></_>
    <_>
      <internalNodes>
        0 -1 1524 -44417293 -1792300902 68363734 1525658815 481500583
        -21348209 -1435509583 -171296800</internalNodes>
      <leafValues>
        -1.4077152311801910e-01 1.4280709624290466e-01</leafValues></_>
    <_>
      <internalNodes>
        0 -1 770 -1882798672 -1034629028 -1743738509 2052894147
        2090117284 -103743338 1023768255 329062183</internalNodes>
      <leafValues>
        -1.5747149288654327e-01 1.3140577077865601e-01</leafValues></_>
    <_>
      <internalNodes>
        0 -1 1048 -714408062 1137307042 -1158794689 1005658762
        2144866960 -1422877260 -959235109 -844902969</internalNodes>
      <leafValues>
        -1.2087196856737137e-01 1.6648040711879730e-01</leafValues></_>
    <_>
      <internalNodes>
        0 -1 6385 996030576 1770717893 4248788 -1072441242 1884918409
        -909474934 -271841199 1012272321</internalNodes>
      <leafValues>
        -2.4005858600139618e-01 8.1386655569076538e-02</leafValues></_>
    <_>
      <internalNodes>
        0 -1 377 -117440561 -175654787 2100690305 1895726267 -589848773
        -146281026 -1347163685 -4203029</internalNodes>
      <leafValues>
        -5.0044231116771698e-02 3.6786994338035583e-01</leafValues></_>
    <_>
      <internalNodes>
        0 -1 260 423249852 330171650 1347862749 1736446084 1422672108
        -1428275096 1069838800 25187328</internalNodes>
      <leafValues>
        -4.4265618920326233e-01 4.4869989156723022e-02</leafValues></_>
    <_>
      <internalNodes>
        0 -1 9445 716089225 -589240096 2081801595 -1969679254 1669228905
        -1204277021 1540109988 -1803374542</internalNodes>
      <leafValues>
        -1.7260518670082092e-01 1.1083424836397171e-01</leafValues></_>
    <_>
      <internalNodes>
        0 -1 485 -420286594 -571375954 -204006667 -574276060 1166280926
        -1201713320 1040066479 -37399201</internalNodes>
      <leafValues>
        -1.0498545318841934e-01 1.9189484417438507e-01</leafValues></_>
    <_>
      <internalNodes>
        0 -1 796 603684470 -406300454 1284468786 950375829 1318419040
        -1149093836 273316419 -161121482</internalNodes>
      <leafValues>
        -2.1788020431995392e-01 9.7145475447177887e-02</leafValues></_>
    <_>
      <internalNodes>
        0 -1 3259 -1417166941 -337451058 251103024 -1353342532
        -528351795 234405869 114807680 -2064815465</internalNodes>
      <leafValues>
        -1.3337270915508270e-01 1.4528341591358185e-01</leafValues></_>
    <_>
      <internalNodes>
        0 -1 32 -387008577 -1099378689 -1280148713 -1754950910 937326142
        -421339575 2004660029 1841255335</internalNodes>
      <leafValues>
        -1.1683394759893417e-01 1.6882434487342834e-01</leafValues></_>
    <_>
      <internalNodes>
        0 -1 6940 541863244 1486377461 322395196 -1123410573 2044787065
        -1326480218 -1957233351 151008068</internalNodes>
      <leafValues>
        -3.6716994643211365e-01 5.6298855692148209e-02</leafValues></_>
    <_>
      <internalNodes>
        0 -1 9673 -1528837600 539269409 407013484 95725445 -1321612881
        139598468 -469781408 613250367</internalNodes>
      <leafValues>
        -2.2167427837848663e-01 8.8771164417266846e-02</leafValues></_>
    <_>
      <internalNodes>
        0 -1 1170 -962279160 -1645784094 1174778280 1022421143 -58715742
        1816578788 -1930962424 68157498</internalNodes>
      <leafValues>
        -2.4630036950111389e-01 7.6759584248065948e-02</leafValues></_>
    <_>
      <internalNodes>
        0 -1 5200 -1828807051 -1634322679 -1527801925 -1578732370
        988278757 591521255 -1051323739 -1503173461</internalNodes>
      <leafValues>
        -1.3142292201519012e-01 1.4866460859775543e-01</leafValues></_>
    <_>
      <internalNodes>
        0 -1 604 -890241614 -1149503555 984755766 359250409 1584874464
        -730342057 -1271405818 -13507514</internalNodes>
      <leafValues>
        -1.2526091933250427e-01 1.5623773634433746e-01</leafValues></_>
    <_>
      <internalNodes>
        0 -1 9675 -293401525 1807633789 -556610420 2007474888 -739598113
        -1440493167 -132843267 1344313924</internalNodes>
      <leafValues>
        -1.6131018102169037e-01 1.2383422255516052e-01</leafValues></_>
    <_>
      <internalNodes>
        0 -1 779 217729474 -625188875 -1260555696 -448054374 1154769226
        1678846286 -990806984 1951665431</internalNodes>
      <leafValues>
        -2.4836434423923492e-01 8.0825358629226685e-02</leafValues></_>
    <_>
      <internalNodes>
        0 -1 1638 -756032861 -1141981593 -1175626559 -1644222849
        -83889357 -1394987314 -1498170765 -863532898</internalNodes>
      <leafValues>
        -7.9489789903163910e-02 2.6286214590072632e-01</leafValues></_>
    <_>
      <internalNodes>
        0 -1 11 35881728 -767972367 183245905 1791502338 1241291513
        1068238561 209273748 238622098</internalNodes>
      <leafValues>
        -2.1530129015445709e-01 9.4639763236045837e-02</leafValues></_>
    <_>
      <internalNodes>
        0 -1 9360 -17079293 1595856159 1648037556 -1325667025 1784073804
        789674817 -534505746 -77081593</internalNodes>
      <leafValues>
        -1.0991874337196350e-01 1.7817535996437073e-01</leafValues></_>
    <_>
      <internalNodes>
        0 -1 3818 -597658255 682146417 459251167 39689413 -571099419
        -145591077 -67170497 -305412412</internalNodes>
      <leafValues>
        -1.1489585787057877e-01 1.7193166911602020e-01</leafValues></_>
    <_>
      <internalNodes>
        0 -1 5325 2097021596 681978997 -1273335245 -1330086044 440306964
        113017745 2013142900 140516112</internalNodes>
      <leafValues>
        -3.5354736447334290e-01 5.6940909475088120e-02</leafValues></_>
    <_>
      <internalNodes>
        0 -1 3506 -964810304 404119060 -967412775 -1587926068 1939096197
        497062327 1450640164 1566771027</internalNodes>
      <leafValues>
        -1.9409161806106567e-01 1.0104454308748245e-01</leafValues></_>
    <_>
      <internalNodes>
        0 -1 7646 -1171079651 -566361864 1352370934 803772520
        -1150650055 -1145800982 -1058004503 225990999</internalNodes>
      <leafValues>
        -1.6670288145542145e-01 1.1614488065242767e-01</leafValues></_>
    <_>
      <internalNodes>
        0 -1 9937 -361061733 2098158131 -1594447293 -237997512
        1343710733 -1078005901 -741590089 -1143912586</internalNodes>
      <leafValues>
        -1.1099941283464432e-01 1.7273280024528503e-01</leafValues></_>
    <_>
      <internalNodes>
        0 -1 858 -490622045 -551944486 302587260 455270667 -1123712499
        1229566781 2021663244 486407823</internalNodes>
      <leafValues>
        -1.3625736534595490e-01 1.4281961321830750e-01</leafValues></_>
    <_>
      <internalNodes>
        0 -1 7168 -110253577 -90730529 -479471157 -551566082 488910628
        -1093132521 -1737254513 -519141888</internalNodes>
      <leafValues>
        -1.0309986025094986e-01 1.9272232055664062e-01</leafValues></_>
    <_>
      <internalNodes>
        0 -1 6733 1920153751 -159629771 837235652 430463055 -1078010683
        -40695900 -1510054249 -200106385</internalNodes>
      <leafValues>
        -1.1607133597135544e-01 1.6592457890510559e-01</leafValues></_>
    <_>
      <internalNodes>
        0 -1 6330 -194971851 1462169507 -1350880321 -1545544970
        -1839344129 -573059332 -983354131 -1903360001</internalNodes>
      <leafValues>
        -1.0652194917201996e-01 1.7963032424449921e-01</leafValues></_>
    <_>
      <internalNodes>
        0 -1 3357 203700252 -1070546086 1080822169 -1058735573
        1406778888 -100879284 383631304 226074754</internalNodes>
      <leafValues>
        -2.0710687339305878e-01 9.0788632631301880e-02</leafValues></_>
    <_>
      <internalNodes>
        0 -1 9316 -160036272 -1285188028 -459299951 1613426502
        -957555124 -30935184 -1562473547 -1286869825</internalNodes>
      <leafValues>
        -1.2413536012172699e-01 1.5708972513675690e-01</leafValues></_>
    <_>
      <internalNodes>
        0 -1 5875 -500916875 -882894143 1120256757 1488122964
        -1474512573 -13469655 -221043024 -394643147</internalNodes>
      <leafValues>
        -1.6239660978317261e-01 1.1958356946706772e-01</leafValues></_>
    <_>
      <internalNodes>
        0 -1 704 1710129037 -780681281 -1048709 -228868110 -131710879
        1576304471 -5467697 -176733025</internalNodes>
      <leafValues>
        -1.0332174599170685e-01 1.8497817218303680e-01</leafValues></_>
    <_>
      <internalNodes>
        0 -1 9276 1038642693 1184425821 -1227200998 -1470991514
        663937469 1055163321 2143269332 406875972</internalNodes>
      <leafValues>
        -2.9361402988433838e-01 6.6728845238685608e-02</leafValues></_>
    <_>
      <internalNodes>
        0 -1 9059 -108026705 -266381571 -1375785219 -604645893
        -1092886615 -566165753 -1490183203 -214198973</internalNodes>
      <leafValues>
        -7.1074798703193665e-02 2.7651759982109070e-01</leafValues></_>
    <_>
      <internalNodes>
        0 -1 9895 -2077593828 216713234 -1551115732 578973220 794166517
        535292279 983174628 2254384</internalNodes>
      <leafValues>
        -3.3606919646263123e-01 5.8330100029706955e-02</leafValues></_>
    <_>
      <internalNodes>
        0 -1 3024 -467125983 966333107 -547845080 771584288 107714128
        1903999977 -218325177 180168512</internalNodes>
      <leafValues>
        -1.8572424352169037e-01 1.0740191489458084e-01</leafValues></_>
    <_>
      <internalNodes>
        0 -1 9698 42094408 48020418 -2120604582 109711653 51254928
        1166826667 446367948 98710388</internalNodes>
      <leafValues>
        -3.5109362006187439e-01 5.5353924632072449e-02</leafValues></_>
    <_>
      <internalNodes>
        0 -1 3112 -257951605 -548736248 -1813007949 2138308514
        -632313366 -925925651 -462498861 -301992257</internalNodes>
      <leafValues>
        -6.9865159690380096e-02 2.8873383998870850e-01</leafValues></_>
    <_>
      <internalNodes>
        0 -1 2953 -4262977 -85786628 -167824527 1971273211 -1510092869
        -1965593249 -1258329381 -471220053</internalNodes>
      <leafValues>
        -7.1910142898559570e-02 2.7789682149887085e-01</leafValues></_>
    <_>
      <internalNodes>
        0 -1 2227 469763080 968562935 864373085 2101419158 1523834530
        1931218970 -951451845 1302336416</internalNodes>
      <leafValues>
        -2.8736829757690430e-01 7.3198869824409485e-02</leafValues></_>
    <_>
      <internalNodes>
        0 -1 9855 -654321217 1601877799 1605798268 954539708 888811708
        -543263659 -56300374 -1112286093</internalNodes>
      <leafValues>
        -9.4309851527214050e-02 2.1446114778518677e-01</leafValues></_>
    <_>
      <internalNodes>
        0 -1 4365 1383136085 -564226625 -1180189081 1036757233 -33681790
        -556269581 -612917265 1130564619</internalNodes>
      <leafValues>
        -1.1929506808519363e-01 1.6855180263519287e-01</leafValues></_>
    <_>
      <internalNodes>
        0 -1 8057 1548376974 -185575222 427667930 -2075889936 2099835564
        1881977849 -472467216 943943200</internalNodes>
      <leafValues>
        -2.2385066747665405e-01 9.1265670955181122e-02</leafValues></_>
    <_>
      <internalNodes>
        0 -1 2449 478537408 427227448 -1294288959 191394116 -3191365
        -41991369 -87855607 72164964</internalNodes>
      <leafValues>
        -2.0815359055995941e-01 9.5146209001541138e-02</leafValues></_>
    <_>
      <internalNodes>
        0 -1 3695 -795189321 1566762746 -537712975 870599538 -251839353
        -1253343371 1171536977 -391481353</internalNodes>
      <leafValues>
        -1.2552493810653687e-01 1.5796713531017303e-01</leafValues></_>
    <_>
      <internalNodes>
        0 -1 8790 -912851761 -840213425 -2084651393 -776864531
        -172118849 393670351 -1644252421 -5255474</internalNodes>
      <leafValues>
        -6.2681704759597778e-02 3.1670668721199036e-01</leafValues></_>
    <_>
      <internalNodes>
        0 -1 7128 -298830522 -1236525322 -1389735688 -1147575218
        -503040067 2021177807 519575988 -528015696</internalNodes>
      <leafValues>
        -1.7315325140953064e-01 1.1568567901849747e-01</leafValues></_>
    <_>
      <internalNodes>
        0 -1 3285 71625508 1349527276 481411379 1569509010 -785243696
        -1630776666 -1830518273 2377089</internalNodes>
      <leafValues>
        -2.4734653532505035e-01 7.9920358955860138e-02</leafValues></_>
    <_>
      <internalNodes>
        0 -1 2220 610931276 533857671 323957057 189821885 1189855235
        1523094182 1678123700 76021776</internalNodes>
      <leafValues>
        -3.5416528582572937e-01 5.5639214813709259e-02</leafValues></_>
    <_>
      <internalNodes>
        0 -1 622 1078961118 1458491615 350231408 -1471448847 1250881495
        75379221 2136160900 1078290946</internalNodes>
      <leafValues>
        -2.1843744814395905e-01 8.9214488863945007e-02</leafValues></_>
    <_>
      <internalNodes>
        0 -1 4584 -535573577 -1524193857 58621235 -578558753 1062633115
        -680342273 -615292214 -79707761</internalNodes>
      <leafValues>
        -7.3096156120300293e-02 2.6865628361701965e-01</leafValues></_>
    <_>
      <internalNodes>
        0 -1 9943 -929509041 -579010841 -1372691266 -1733279315
        1155895800 1581194791 956283133 -240663121</internalNodes>
      <leafValues>
        -9.7547776997089386e-02 2.0118451118469238e-01</leafValues></_>
    <_>
      <internalNodes>
        0 -1 881 222961847 1556670210 718745304 -1188948381 474380944
        2139911067 -784973679 217401073</internalNodes>
      <leafValues>
        -1.9361130893230438e-01 1.0302930325269699e-01</leafValues></_>
    <_>
      <internalNodes>
        0 -1 8196 311041077 2070959482 1468091362 844759517 948608957
        406254367 570574293 463491992</internalNodes>
      <leafValues>
        -3.1485384702682495e-01 6.2141519039869308e-02</leafValues></_>
    <_>
      <internalNodes>
        0 -1 1608 -141629465 825484192 196548582 -608470942 1813836974
        2134109407 1807345594 -1586498629</internalNodes>
      <leafValues>
        -9.3739397823810577e-02 2.1425764262676239e-01</leafValues></_>
    <_>
      <internalNodes>
        0 -1 400 -893412037 1328148128 -404658191 -372909742 1020835061
        -635308559 -922894353 1844671651</internalNodes>
      <leafValues>
        -1.0783287137746811e-01 1.8073379993438721e-01</leafValues></_>
    <_>
      <internalNodes>
        0 -1 1327 -343029441 -70979943 -134299661 -553805184 1173529787
        -623110739 1291750939 -1916694374</internalNodes>
      <leafValues>
        -1.0648750513792038e-01 1.8953417241573334e-01</leafValues></_>
    <_>
      <internalNodes>
        0 -1 2685 1744074164 -1424999499 1582305074 -1624271786
        368017069 729894313 1845168048 -472170954</internalNodes>
      <leafValues>
        -1.4349065721035004e-01 1.4351978898048401e-01</leafValues></_>
    <_>
      <internalNodes>
        0 -1 5164 3991365 -2097388506 -1078848513 -1238843748 1588551149
        459372889 -217886379 -940606439</internalNodes>
      <leafValues>
        -1.5090283751487732e-01 1.3404391705989838e-01</leafValues></_>
    <_>
      <internalNodes>
        0 -1 8758 -1434936468 -938425576 -662207003 -1662855855
        343175237 1562691670 1706505981 606089984</internalNodes>
      <leafValues>
        -2.9425841569900513e-01 6.8944111466407776e-02</leafValues></_>
    <_>
      <internalNodes>
        0 -1 9965 1848102718 948778682 -889230085 1887460726 583863956
        -1381929121 -1029851990 -1594884585</internalNodes>
      <leafValues>
        -1.3553035259246826e-01 1.4825858175754547e-01</leafValues></_>
    <_>
      <internalNodes>
        0 -1 2146 -827053040 372384037 861632095 884482063 283387413
        -1347135108 988546628 640710656</internalNodes>
      <leafValues>
        -3.2077965140342712e-01 6.1003047972917557e-02</leafValues></_>
    <_>
      <internalNodes>
        0 -1 4601 -220268547 -1751206073 892840506 -1220036770
        1560237543 -805319051 -335704904 -1040722882</internalNodes>
      <leafValues>
        -1.0110374540090561e-01 2.0210269093513489e-01</leafValues></_>
    <_>
      <internalNodes>
        0 -1 4945 -350123260 -1556097488 1274802846 1716573703 1315300
        -550510313 300724624 167799330</internalNodes>
      <leafValues>
        -2.4142396450042725e-01 8.3519645035266876e-02</leafValues></_>
    <_>
      <internalNodes>
        0 -1 817 608224416 705170216 1564813341 541865027 382026129
        2014681777 1435961750 1159487508</internalNodes>
      <leafValues>
        -2.7043262124061584e-01 7.4227221310138702e-02</leafValues></_>
    <_>
      <internalNodes>
        0 -1 8124 994501432 539021362 385969420 -1574870949 1226912252
        -2068067546 581445727 906590</internalNodes>
      <leafValues>
        -2.1969848871231079e-01 9.1260276734828949e-02</leafValues></_>
    <_>
      <internalNodes>
        0 -1 1960 1208224856 -2024516729 1262813480 -659025528
        -2071032595 -1946374005 -1201295147 297829252</internalNodes>
      <leafValues>
        -2.8206974267959595e-01 7.0821240544319153e-02</leafValues></_>
    <_>
      <internalNodes>
        0 -1 2718 1607466975 301337180 -360874627 -1174431489 -170419755
        1064564599 2137765859 -1097821</internalNodes>
      <leafValues>
        -6.6704481840133667e-02 3.3023586869239807e-01</leafValues></_>
    <_>
      <internalNodes>
        0 -1 3147 1518904378 650556386 1034795110 -697924335 1377358421
        560868250 1522487740 -336117649</internalNodes>
      <leafValues>
        -1.4923331141471863e-01 1.3339288532733917e-01</leafValues></_>
    <_>
      <internalNodes>
        0 -1 8405 -324025453 -742461586 -186436438 1300102839 -369594883
        -1663691465 -213924673 -556017349</internalNodes>
      <leafValues>
        -7.8289382159709930e-02 2.5884583592414856e-01</leafValues></_>
    <_>
      <internalNodes>
        0 -1 8710 537406768 237817298 -870120968 -1352093696 634673957
        1404270199 118827360 3409216</internalNodes>
      <leafValues>
        -4.9218571186065674e-01 4.2545191943645477e-02</leafValues></_>
    <_>
      <internalNodes>
        0 -1 7832 -462806748 2084185140 1135390216 -1360380362
        1951674196 399773761 -841124900 554436140</internalNodes>
      <leafValues>
        -2.5151035189628601e-01 7.6032482087612152e-02</leafValues></_>
    <_>
      <internalNodes>
        0 -1 9247 -287527697 -682336740 1862139711 1395634097 2122297053
        -979525748 2046782587 -888723693</internalNodes>
      <leafValues>
        -8.4306009113788605e-02 2.3893831670284271e-01</leafValues></_>
    <_>
      <internalNodes>
        0 -1 9545 12845988 -552594816 873153012 2133879680 -1978818376
        -1842691935 -2147354504 -1946123132</internalNodes>
      <leafValues>
        -3.5959348082542419e-01 5.8712404221296310e-02</leafValues></_>
    <_>
      <internalNodes>
        0 -1 8285 -937425342 916997801 -1613060860 -1479484748
        -1803176750 347867161 -2134234996 940680604</internalNodes>
      <leafValues>
        -2.2621737420558929e-01 8.7890312075614929e-02</leafValues></_></weakClassifiers></stage14>
</opencv_storage>
