<?xml version="1.0"?>
<opencv_storage>
<stage0>
  <maxWeakCount>21</maxWeakCount>
  <stageThreshold>-2.2224545478820801e+00</stageThreshold>
  <weakClassifiers>
    <_>
      <internalNodes>
        0 -1 6999 1063223293 1073741823 -513 1073741823 -4210689
        -1073760257 -1073762305 -1358958593</internalNodes>
      <leafValues>
        -5.1285827159881592e-01 4.9037852883338928e-01</leafValues></_>
    <_>
      <internalNodes>
        0 -1 6849 -524289 1014840319 -262401 -1141003521 -655363
        -1124271879 -131588 150808764</internalNodes>
      <leafValues>
        -5.0993067026138306e-01 3.3763527870178223e-01</leafValues></_>
    <_>
      <internalNodes>
        0 -1 761 -32897 -32769 -32773 -16385 -569483 -32897 2147434353
        -557193</internalNodes>
      <leafValues>
        -2.8699523210525513e-01 5.2732038497924805e-01</leafValues></_>
    <_>
      <internalNodes>
        0 -1 1568 223349759 -65539 -991233 -8896715 934554623 -562241
        2143239167 -1080033024</internalNodes>
      <leafValues>
        -3.4298661351203918e-01 3.9886254072189331e-01</leafValues></_>
    <_>
      <internalNodes>
        0 -1 9570 -50334704 -724503292 1658906704 1078252668 -922950592
        -1069222902 -325524228 -1061426949</internalNodes>
      <leafValues>
        -3.1710979342460632e-01 3.7811028957366943e-01</leafValues></_>
    <_>
      <internalNodes>
        0 -1 493 -1 2146745335 -590608 -577734032 2001749972 -90146523
        -168528044 1967224691</internalNodes>
      <leafValues>
        -2.8671351075172424e-01 3.7343195080757141e-01</leafValues></_>
    <_>
      <internalNodes>
        0 -1 6461 -1085755011 -1107448333 -1141424131 -1075921923
        -148483 -16385 -1074811140 -1400373240</internalNodes>
      <leafValues>
        -3.3273565769195557e-01 3.3272141218185425e-01</leafValues></_>
    <_>
      <internalNodes>
        0 -1 9988 -272892435 -2131824655 -285216818 -1560363338 -65793
        1291583487 -318794256 -1593837057</internalNodes>
      <leafValues>
        -2.4267028272151947e-01 4.0582561492919922e-01</leafValues></_>
    <_>
      <internalNodes>
        0 -1 704 -134449219 -1065153 -4613 -97341982 -165673100
        1433763669 -1608892 -151644329</internalNodes>
      <leafValues>
        -2.7855002880096436e-01 3.0701217055320740e-01</leafValues></_>
    <_>
      <internalNodes>
        0 -1 9099 989855615 68616175 -1367393569 -1426342145 -285212675
        218070719 -1073792770 -1929396737</internalNodes>
      <leafValues>
        -2.9097515344619751e-01 2.9786941409111023e-01</leafValues></_>
    <_>
      <internalNodes>
        0 -1 6428 -698548235 -34029603 -1073799553 -2294273 -11223043
        -131715 -6340643 -1145292236</internalNodes>
      <leafValues>
        -2.4622239172458649e-01 3.3967745304107666e-01</leafValues></_>
    <_>
      <internalNodes>
        0 -1 1712 -387718622 -963969248 -1145833696 -67783392 1448069019
        1172233989 1198919824 -688135545</internalNodes>
      <leafValues>
        -2.3920004069805145e-01 3.5107886791229248e-01</leafValues></_>
    <_>
      <internalNodes>
        0 -1 106 -1069496800 881913847 -208375244 896573954 1079261932
        894698934 -73068610 291585027</internalNodes>
      <leafValues>
        -4.3507498502731323e-01 1.8033453822135925e-01</leafValues></_>
    <_>
      <internalNodes>
        0 -1 1596 1466448759 2146114973 -6326286 -1645723886 901130365
        1046571895 2041406833 477181744</internalNodes>
      <leafValues>
        -3.7683868408203125e-01 2.0341581106185913e-01</leafValues></_>
    <_>
      <internalNodes>
        0 -1 400 -353108993 1601761008 -521080841 -73373438 1086387401
        -605497882 1081400209 -168593821</internalNodes>
      <leafValues>
        -2.1429149806499481e-01 3.6681842803955078e-01</leafValues></_>
    <_>
      <internalNodes>
        0 -1 3657 3147412 1069334396 -1108205635 1069465519 937443317
        -103531553 2044542893 140510244</internalNodes>
      <leafValues>
        -4.4350531697273254e-01 1.7009705305099487e-01</leafValues></_>
    <_>
      <internalNodes>
        0 -1 9637 -100664419 -59721359 -1073762599 -790434957 -536951011
        -2074040347 16227768 -1596200249</internalNodes>
      <leafValues>
        -2.1691752970218658e-01 3.4657791256904602e-01</leafValues></_>
    <_>
      <internalNodes>
        0 -1 857 -855641472 901754507 -275476857 -1290673221 -312571716
        878020993 1078295948 15163947</internalNodes>
      <leafValues>
        -3.1497260928153992e-01 2.2874277830123901e-01</leafValues></_>
    <_>
      <internalNodes>
        0 -1 1037 -922753408 -184701043 1950575861 -1931415922
        -103422523 -1730893598 -143331358 -1060784538</internalNodes>
      <leafValues>
        -3.4108540415763855e-01 2.1973112225532532e-01</leafValues></_>
    <_>
      <internalNodes>
        0 -1 5980 469785428 1974550259 1337900970 527580732 800532476
        -1610629123 1006583546 149698112</internalNodes>
      <leafValues>
        -5.4402559995651245e-01 1.2978617846965790e-01</leafValues></_>
    <_>
      <internalNodes>
        0 -1 675 533512182 2094921463 -36429987 -336546921 1047836641
        -1075512740 -1246281825 549793319</internalNodes>
      <leafValues>
        -3.0351704359054565e-01 2.2718425095081329e-01</leafValues></_></weakClassifiers></stage0>
</opencv_storage>
