<?xml version="1.0"?>
<opencv_storage>
<stage13>
  <maxWeakCount>100</maxWeakCount>
  <stageThreshold>-1.6524729728698730e+00</stageThreshold>
  <weakClassifiers>
    <_>
      <internalNodes>
        0 -1 9997 -2101921 788528982 -939661594 -1602817290 630413817
        736623610 1993253117 -1061159945</internalNodes>
      <leafValues>
        -4.3371248245239258e-01 -7.4526421725749969e-02</leafValues></_>
    <_>
      <internalNodes>
        0 -1 3093 -298848409 -34869778 -2035302937 -1409347925
        1995435703 -13914126 -1048593 -3691126</internalNodes>
      <leafValues>
        -1.1430072784423828e-01 2.9729381203651428e-01</leafValues></_>
    <_>
      <internalNodes>
        0 -1 761 -219416609 1073708925 -4276229 -13682883 -77635585
        2147450686 2146926271 -315402889</internalNodes>
      <leafValues>
        -1.2244748324155807e-01 2.3339739441871643e-01</leafValues></_>
    <_>
      <internalNodes>
        0 -1 2510 -487858270 -945637598 -1552600784 -135284750
        -1065907253 75552936 1155740113 1168111591</internalNodes>
      <leafValues>
        -1.6472698748111725e-01 1.5466359257698059e-01</leafValues></_>
    <_>
      <internalNodes>
        0 -1 7424 -23110627 2013214559 -1120326209 2013002559 -117457672
        -994914 -1466274134 -1431569761</internalNodes>
      <leafValues>
        -9.5267102122306824e-02 2.4861985445022583e-01</leafValues></_>
    <_>
      <internalNodes>
        0 -1 1563 615646472 1029382046 32184635 1065302923 397317834
        1002375851 38701743 1743435144</internalNodes>
      <leafValues>
        -1.8065644800662994e-01 1.6237132251262665e-01</leafValues></_>
    <_>
      <internalNodes>
        0 -1 6916 -1888688331 -572360211 -132218913 -33601455
        -1682050115 -298260553 264056813 -1549136526</internalNodes>
      <leafValues>
        -1.5670193731784821e-01 1.4514745771884918e-01</leafValues></_>
    <_>
      <internalNodes>
        0 -1 9574 -153622971 387399543 -1157649222 821198362 -25776576
        1046707481 -17389026 -253231105</internalNodes>
      <leafValues>
        -1.0693415254354477e-01 1.9368541240692139e-01</leafValues></_>
    <_>
      <internalNodes>
        0 -1 9075 -314824948 1918231153 -1937627955 -520788427
        -1074350113 -1118457363 501032185 -267891200</internalNodes>
      <leafValues>
        -2.0974311232566833e-01 9.9002666771411896e-02</leafValues></_>
    <_>
      <internalNodes>
        0 -1 139 -841812220 1293961890 -1673274764 -432802528
        -1882141232 -337607661 1155290256 -600708831</internalNodes>
      <leafValues>
        -2.0946398377418518e-01 1.0950802266597748e-01</leafValues></_>
    <_>
      <internalNodes>
        0 -1 9481 -1397093252 1535062397 -1744269738 872245901
        -828472608 -4427019 -695817478 2030240844</internalNodes>
      <leafValues>
        -2.1365098655223846e-01 8.9071266353130341e-02</leafValues></_>
    <_>
      <internalNodes>
        0 -1 4942 -720916268 924164792 -1087743681 -1344022357
        1572196972 -1100111434 618938988 139949439</internalNodes>
      <leafValues>
        -1.6170510649681091e-01 1.3949969410896301e-01</leafValues></_>
    <_>
      <internalNodes>
        0 -1 767 1897979888 466714334 -577961902 2113354837 -411551279
        2109750255 2110025695 1917288419</internalNodes>
      <leafValues>
        -1.7671892046928406e-01 1.1749039590358734e-01</leafValues></_>
    <_>
      <internalNodes>
        0 -1 8794 514332244 246709732 510652253 1041029983 1586102072
        1047293777 801911996 140257036</internalNodes>
      <leafValues>
        -4.0972375869750977e-01 5.5803488940000534e-02</leafValues></_>
    <_>
      <internalNodes>
        0 -1 9062 -79958433 1489373502 -344002827 1789128444 -1147800787
        -1718620973 -1392529411 1209771023</internalNodes>
      <leafValues>
        -1.3946817815303802e-01 1.4651606976985931e-01</leafValues></_>
    <_>
      <internalNodes>
        0 -1 2271 758147044 -45026780 320673713 867448435 1708423333
        -1162537213 194067903 -926924280</internalNodes>
      <leafValues>
        -2.0000123977661133e-01 9.7230851650238037e-02</leafValues></_>
    <_>
      <internalNodes>
        0 -1 5148 1243343783 -692585060 1991566843 -1138237857
        -1611717297 -822083895 1801315087 -608277685</internalNodes>
      <leafValues>
        -9.1281473636627197e-02 2.2004531323909760e-01</leafValues></_>
    <_>
      <internalNodes>
        0 -1 9532 -657730017 2139090693 642034232 1918352038 1728047694
        1867501421 1927720126 -214703217</internalNodes>
      <leafValues>
        -9.4018317759037018e-02 2.0651629567146301e-01</leafValues></_>
    <_>
      <internalNodes>
        0 -1 9382 -59680592 -350044332 255880183 1708189292 -893319022
        -1386676060 1886678250 412129624</internalNodes>
      <leafValues>
        -2.0509463548660278e-01 9.3147516250610352e-02</leafValues></_>
    <_>
      <internalNodes>
        0 -1 482 1886565171 1057050314 2146610995 -1776032010 293347836
        1064416756 -80382057 -278663693</internalNodes>
      <leafValues>
        -1.0691540688276291e-01 1.8077954649925232e-01</leafValues></_>
    <_>
      <internalNodes>
        0 -1 3983 138737436 -1665545145 727524053 -1378480441 860844567
        -2133420585 1061884977 183452501</internalNodes>
      <leafValues>
        -1.8540649116039276e-01 1.0660228133201599e-01</leafValues></_>
    <_>
      <internalNodes>
        0 -1 6224 1718890356 -1614835414 73666641 1813780540 -1380867024
        -1409381185 575802557 137374212</internalNodes>
      <leafValues>
        -3.9172771573066711e-01 4.7198455780744553e-02</leafValues></_>
    <_>
      <internalNodes>
        0 -1 41 -1812984448 111680281 1326779223 951129874 1407982474
        1890884591 482607804 632501831</internalNodes>
      <leafValues>
        -2.1849538385868073e-01 8.3594024181365967e-02</leafValues></_>
    <_>
      <internalNodes>
        0 -1 8454 -1372320530 871840350 856871052 302248375 -1153433176
        -93424795 -89711668 1342181636</internalNodes>
      <leafValues>
        -2.6762220263481140e-01 7.3677018284797668e-02</leafValues></_>
    <_>
      <internalNodes>
        0 -1 1951 -43327982 -1688674708 1260176821 1539160948 682683628
        -1184081441 1185008605 -1460174426</internalNodes>
      <leafValues>
        -1.3755609095096588e-01 1.3228760659694672e-01</leafValues></_>
    <_>
      <internalNodes>
        0 -1 2286 1877966029 654204279 -246712197 -1146175702
        -1779609488 1644152941 -468298444 -987773591</internalNodes>
      <leafValues>
        -1.3984398543834686e-01 1.3397373259067535e-01</leafValues></_>
    <_>
      <internalNodes>
        0 -1 2806 1935139270 961812668 -547790144 626403984 1701939957
        -1776262105 -434699357 171589671</internalNodes>
      <leafValues>
        -1.7267516255378723e-01 1.0805837064981461e-01</leafValues></_>
    <_>
      <internalNodes>
        0 -1 9298 628154333 1070495737 214430967 79600988 182853101
        -1700015858 709829100 76176196</internalNodes>
      <leafValues>
        -2.2606457769870758e-01 8.2787275314331055e-02</leafValues></_>
    <_>
      <internalNodes>
        0 -1 6265 1848281274 -1019939177 -1335647359 748397221
        -819690742 -1080235811 1531961869 1936882703</internalNodes>
      <leafValues>
        -1.3758145272731781e-01 1.3354556262493134e-01</leafValues></_>
    <_>
      <internalNodes>
        0 -1 9966 -59783370 821833972 -347912483 -1332697088 1149170106
        -312776777 1086390344 547873762</internalNodes>
      <leafValues>
        -1.5395513176918030e-01 1.2044726312160492e-01</leafValues></_>
    <_>
      <internalNodes>
        0 -1 274 -757175766 -1946384228 1369256210 533635123 -706975572
        229113903 1350923638 682652074</internalNodes>
      <leafValues>
        -2.4134717881679535e-01 7.6176494359970093e-02</leafValues></_>
    <_>
      <internalNodes>
        0 -1 695 1456959937 494861243 -1611964033 1543205785 -787314751
        -1367889154 -28623041 -1179165147</internalNodes>
      <leafValues>
        -1.0636541992425919e-01 1.8620261549949646e-01</leafValues></_>
    <_>
      <internalNodes>
        0 -1 8918 -90506251 -1208611073 -1360267025 636375914
        -1157683402 -854622631 782383806 -1954546921</internalNodes>
      <leafValues>
        -1.0224317014217377e-01 1.8417575955390930e-01</leafValues></_>
    <_>
      <internalNodes>
        0 -1 9160 -654833660 1468485157 -390580048 -1237669028
        1698058760 1428167429 1389650504 637812238</internalNodes>
      <leafValues>
        -2.3897403478622437e-01 7.7399335801601410e-02</leafValues></_>
    <_>
      <internalNodes>
        0 -1 8192 212366420 2069771217 232219435 1044046833 15512893
        2072990449 1650329525 151662788</internalNodes>
      <leafValues>
        -2.9080775380134583e-01 6.2409773468971252e-02</leafValues></_>
    <_>
      <internalNodes>
        0 -1 9288 -22882772 -680735894 -1360089365 -232620883 -777154641
        1040052223 -1128814881 -97798849</internalNodes>
      <leafValues>
        -9.2911794781684875e-02 1.9966502487659454e-01</leafValues></_>
    <_>
      <internalNodes>
        0 -1 2237 -359380655 2104979307 1370936122 708326714 -1892877298
        1070025259 -1480142688 1083459008</internalNodes>
      <leafValues>
        -2.2076235711574554e-01 8.5112050175666809e-02</leafValues></_>
    <_>
      <internalNodes>
        0 -1 2856 -1809082209 -33637571 -4325430 -756357153 -996171463
        -1614881235 -637828429 -1010064453</internalNodes>
      <leafValues>
        -7.5871795415878296e-02 2.6580706238746643e-01</leafValues></_>
    <_>
      <internalNodes>
        0 -1 1354 -1081334036 289583650 -1782802524 839562207
        -2100489280 516231107 312982448 80752992</internalNodes>
      <leafValues>
        -4.1988745331764221e-01 4.7558967024087906e-02</leafValues></_>
    <_>
      <internalNodes>
        0 -1 3033 -488369391 1040885169 -1919149932 905268164
        -1050068460 1522542175 -34808342 1256072782</internalNodes>
      <leafValues>
        -1.5833617746829987e-01 1.1637273430824280e-01</leafValues></_>
    <_>
      <internalNodes>
        0 -1 9573 607325180 2133385348 556798555 991604480 -1463056643
        -2112246324 429857996 1698948</internalNodes>
      <leafValues>
        -2.4198527634143829e-01 7.7868878841400146e-02</leafValues></_>
    <_>
      <internalNodes>
        0 -1 6358 1799285175 -1861210562 586486079 896647143 -998674963
        -1804157718 -407525123 -536883413</internalNodes>
      <leafValues>
        -7.9453960061073303e-02 2.3789106309413910e-01</leafValues></_>
    <_>
      <internalNodes>
        0 -1 792 1590124543 468349406 1681586673 943218003 2119660887
        2006608354 -310749628 1112964180</internalNodes>
      <leafValues>
        -2.1558280289173126e-01 8.9848861098289490e-02</leafValues></_>
    <_>
      <internalNodes>
        0 -1 9916 -352941939 -13127877 -356896130 -249184626 -2106143670
        2147440325 -1463646470 -243871814</internalNodes>
      <leafValues>
        -1.0083804279565811e-01 1.8384523689746857e-01</leafValues></_>
    <_>
      <internalNodes>
        0 -1 9 -855399072 325687168 -1882189196 1908305968 499088381
        1781327813 580349941 1438507747</internalNodes>
      <leafValues>
        -1.5360859036445618e-01 1.2068189680576324e-01</leafValues></_>
    <_>
      <internalNodes>
        0 -1 1194 174299352 358918145 -244043049 -1306760 -1571526004
        -340027559 146015405 2078715376</internalNodes>
      <leafValues>
        -1.7743623256683350e-01 1.0331007838249207e-01</leafValues></_>
    <_>
      <internalNodes>
        0 -1 6697 -784588512 481825445 916826424 167515041 -52027723
        -1876951235 -131754160 44589859</internalNodes>
      <leafValues>
        -2.1147844195365906e-01 8.6401008069515228e-02</leafValues></_>
    <_>
      <internalNodes>
        0 -1 2895 339005357 -276975817 1491911252 2128112624 -1409224400
        522132999 552379620 71306508</internalNodes>
      <leafValues>
        -2.6229250431060791e-01 6.9275371730327606e-02</leafValues></_>
    <_>
      <internalNodes>
        0 -1 2854 -595619199 456137477 -13040891 763116479 -973711371
        -1376445983 966874084 -1989140933</internalNodes>
      <leafValues>
        -1.3344074785709381e-01 1.3697879016399384e-01</leafValues></_>
    <_>
      <internalNodes>
        0 -1 9950 677830960 2124687110 413045597 1571900936 547886216
        -554594000 -1433973514 -924414406</internalNodes>
      <leafValues>
        -1.5685509145259857e-01 1.1563204973936081e-01</leafValues></_>
    <_>
      <internalNodes>
        0 -1 143 1277333054 14984872 175514130 -1680822750 441723345
        -1082115250 1123289168 1084473984</internalNodes>
      <leafValues>
        -2.4156162142753601e-01 7.6680943369865417e-02</leafValues></_>
    <_>
      <internalNodes>
        0 -1 9089 140634648 276582490 -2028794113 286128660 -760315116
        152878691 -1726076810 10129267</internalNodes>
      <leafValues>
        -2.0562537014484406e-01 8.9785650372505188e-02</leafValues></_>
    <_>
      <internalNodes>
        0 -1 3539 -465167143 1347731233 -1779420397 -773670419
        2011639256 -1561264275 -67405021 -1269865689</internalNodes>
      <leafValues>
        -1.1451546102762222e-01 1.6387744247913361e-01</leafValues></_>
    <_>
      <internalNodes>
        0 -1 785 716072608 -1544361718 1117000752 706742320 98331668
        1984383071 1618759460 1640366148</internalNodes>
      <leafValues>
        -3.6435967683792114e-01 5.2054595202207565e-02</leafValues></_>
    <_>
      <internalNodes>
        0 -1 9426 -1596543055 -1209996569 -629589523 -1053495356
        -49391374 -1619570775 1780579896 -1949306674</internalNodes>
      <leafValues>
        -1.1593821644783020e-01 1.6357655823230743e-01</leafValues></_>
    <_>
      <internalNodes>
        0 -1 3052 1930562048 -62536936 373036412 1951139886 1220903075
        2145286141 9773988 671119021</internalNodes>
      <leafValues>
        -2.5057950615882874e-01 7.2173751890659332e-02</leafValues></_>
    <_>
      <internalNodes>
        0 -1 6034 1074566357 708093687 -1122021 666990776 -857343734
        973509538 541401298 609266224</internalNodes>
      <leafValues>
        -1.9420251250267029e-01 9.2278413474559784e-02</leafValues></_>
    <_>
      <internalNodes>
        0 -1 5548 7874281 886387823 -1477631384 -1914625383 836590285
        2140327921 732380958 869990924</internalNodes>
      <leafValues>
        -1.7409060895442963e-01 1.0916554927825928e-01</leafValues></_>
    <_>
      <internalNodes>
        0 -1 2585 -330707397 1378742261 670497531 892202693 -994099742
        1549293500 -689976145 -1246965157</internalNodes>
      <leafValues>
        -1.0040383785963058e-01 1.8469056487083435e-01</leafValues></_>
    <_>
      <internalNodes>
        0 -1 9410 -2077490128 1973683761 -2430467 -1075253350
        -1344007008 1072699197 -1415431090 -1364194240</internalNodes>
      <leafValues>
        -2.0458640158176422e-01 9.1591596603393555e-02</leafValues></_>
    <_>
      <internalNodes>
        0 -1 808 -947590233 -680266848 666830036 702359650 -483461957
        211281795 1475342026 -170068761</internalNodes>
      <leafValues>
        -1.0528580099344254e-01 1.7706727981567383e-01</leafValues></_>
    <_>
      <internalNodes>
        0 -1 9791 -2060925067 -269572349 -628888852 -494143227 374586859
        1431987975 -1673560203 -1460146335</internalNodes>
      <leafValues>
        -1.2719687819480896e-01 1.4565765857696533e-01</leafValues></_>
    <_>
      <internalNodes>
        0 -1 4168 1280587188 827605489 368064125 5291386 156770937
        1175890077 855398500 696257720</internalNodes>
      <leafValues>
        -2.9575866460800171e-01 6.1509042978286743e-02</leafValues></_>
    <_>
      <internalNodes>
        0 -1 1985 -364457807 316827670 1054230961 938064608 1047003324
        -1950009514 469386977 -1960093970</internalNodes>
      <leafValues>
        -1.2488456070423126e-01 1.5047530829906464e-01</leafValues></_>
    <_>
      <internalNodes>
        0 -1 389 1653550788 543882092 1486745132 684651464 -1426689232
        1883277828 -902962684 4457216</internalNodes>
      <leafValues>
        -4.2402845621109009e-01 4.3948136270046234e-02</leafValues></_>
    <_>
      <internalNodes>
        0 -1 2669 1781516793 1557130375 1737543042 -789950474
        -1059777185 -293737412 -135946183 -1624513797</internalNodes>
      <leafValues>
        -9.4558402895927429e-02 2.0894198119640350e-01</leafValues></_>
    <_>
      <internalNodes>
        0 -1 746 1336592768 -27932238 -850640714 -1207241443 -1716892157
        1783395678 -712845427 -1042823951</internalNodes>
      <leafValues>
        -1.3614980876445770e-01 1.3716916739940643e-01</leafValues></_>
    <_>
      <internalNodes>
        0 -1 9693 -335653452 1605852641 1056743664 -1084281099
        -1633010193 528343029 503188697 1886356623</internalNodes>
      <leafValues>
        -1.2872065603733063e-01 1.4343491196632385e-01</leafValues></_>
    <_>
      <internalNodes>
        0 -1 3169 808761476 543459076 943729232 -1658309692 1516314780
        435388256 947798613 720897840</internalNodes>
      <leafValues>
        -2.8953146934509277e-01 6.3613377511501312e-02</leafValues></_>
    <_>
      <internalNodes>
        0 -1 1513 -1059846368 -1965380501 1020598086 1047669346
        1798322800 -698274057 1941257779 299107328</internalNodes>
      <leafValues>
        -3.2840001583099365e-01 5.6495070457458496e-02</leafValues></_>
    <_>
      <internalNodes>
        0 -1 4163 -1282295166 2146642173 2063383989 465567475 2061254519
        -1648562179 -155479115 -38852017</internalNodes>
      <leafValues>
        -9.2657931149005890e-02 2.0993770658969879e-01</leafValues></_>
    <_>
      <internalNodes>
        0 -1 7776 -326045908 -1292140796 974417644 493238097 -676802119
        -58937865 -1930282434 -1543502584</internalNodes>
      <leafValues>
        -1.9192680716514587e-01 1.1252854764461517e-01</leafValues></_>
    <_>
      <internalNodes>
        0 -1 3197 -194251055 -724241164 1030294863 -105712901 1396162483
        -614804466 1987022175 -876098865</internalNodes>
      <leafValues>
        -7.8546069562435150e-02 2.4351434409618378e-01</leafValues></_>
    <_>
      <internalNodes>
        0 -1 6481 -267945716 -1584279709 1022754681 -247468049
        -833233186 -1529578115 -1099043169 -1152665205</internalNodes>
      <leafValues>
        -8.4848895668983459e-02 2.1495920419692993e-01</leafValues></_>
    <_>
      <internalNodes>
        0 -1 7396 769678909 1576750504 254929800 787775471 763829196
        1876661287 795494765 504719605</internalNodes>
      <leafValues>
        -2.6300781965255737e-01 7.1985714137554169e-02</leafValues></_>
    <_>
      <internalNodes>
        0 -1 9925 1089189170 457757456 454253949 322057763 -125172262
        -1618279048 2017309932 1244037178</internalNodes>
      <leafValues>
        -1.4621601998806000e-01 1.2966181337833405e-01</leafValues></_>
    <_>
      <internalNodes>
        0 -1 4685 -1610569134 1364255532 472290303 -706049828 809968371
        -1778949819 1699343249 180201229</internalNodes>
      <leafValues>
        -1.4658348262310028e-01 1.2823523581027985e-01</leafValues></_>
    <_>
      <internalNodes>
        0 -1 4943 1705214598 -1175196997 940314090 -581865765 1210687717
        -865443706 142970064 -1741204001</internalNodes>
      <leafValues>
        -1.3328990340232849e-01 1.4253981411457062e-01</leafValues></_>
    <_>
      <internalNodes>
        0 -1 5721 -97773716 -1687535886 1069284341 1038768125
        -2034612908 -750060033 -1217535043 -354726581</internalNodes>
      <leafValues>
        -1.1614267528057098e-01 1.6177535057067871e-01</leafValues></_>
    <_>
      <internalNodes>
        0 -1 9308 -135902907 2005399304 -596763616 878743620 1129220589
        1501492223 -758218806 -490309025</internalNodes>
      <leafValues>
        -1.3489045202732086e-01 1.4141705632209778e-01</leafValues></_>
    <_>
      <internalNodes>
        0 -1 7142 2090117873 1856296817 -1828626182 -1729355965
        -80242690 -1340689959 276185934 1637996748</internalNodes>
      <leafValues>
        -1.5454427897930145e-01 1.2357319146394730e-01</leafValues></_>
    <_>
      <internalNodes>
        0 -1 5272 1281547800 1878436781 1779457247 1792997221 -328675828
        -1306500799 -88914863 -931878623</internalNodes>
      <leafValues>
        -2.0459723472595215e-01 9.3241147696971893e-02</leafValues></_>
    <_>
      <internalNodes>
        0 -1 4156 -833576032 338740837 1688432562 161621712 110109152
        1012683996 221713480 205785092</internalNodes>
      <leafValues>
        -2.9373830556869507e-01 6.1882279813289642e-02</leafValues></_>
    <_>
      <internalNodes>
        0 -1 2786 825861086 1347318027 -1524235972 -800266069 2062757185
        1149315926 -162162422 1451167733</internalNodes>
      <leafValues>
        -1.7452906072139740e-01 1.0894274711608887e-01</leafValues></_>
    <_>
      <internalNodes>
        0 -1 9076 -1964233636 2115924316 -1808550691 9655841 -2134212211
        1066095499 -1743997189 -805264300</internalNodes>
      <leafValues>
        -1.9868247210979462e-01 9.5705345273017883e-02</leafValues></_>
    <_>
      <internalNodes>
        0 -1 596 1291570849 -1148581268 617697654 -1150934334 -253599820
        2088725044 1642427722 1973642871</internalNodes>
      <leafValues>
        -1.5720398724079132e-01 1.2289315462112427e-01</leafValues></_>
    <_>
      <internalNodes>
        0 -1 9688 -1364990456 1746346315 -1946006805 1653247210
        -1721966676 798814439 -1113143147 91693</internalNodes>
      <leafValues>
        -2.4192155897617340e-01 8.0670870840549469e-02</leafValues></_>
    <_>
      <internalNodes>
        0 -1 9895 -1772435907 -1083519590 -1904476626 1068658276
        804476407 -33421 251612652 -207421894</internalNodes>
      <leafValues>
        -1.1561100184917450e-01 1.6782331466674805e-01</leafValues></_>
    <_>
      <internalNodes>
        0 -1 67 711082000 1058576624 -2054661793 1916616930 203031800
        -402087239 1318584780 8454144</internalNodes>
      <leafValues>
        -3.1503817439079285e-01 6.3662454485893250e-02</leafValues></_>
    <_>
      <internalNodes>
        0 -1 5158 104861440 147594140 -36100220 -1736918524 94113552
        903927673 399779428 3147360</internalNodes>
      <leafValues>
        -5.6714719533920288e-01 3.0824935063719749e-02</leafValues></_>
    <_>
      <internalNodes>
        0 -1 1777 -573844811 461610145 425988502 2103910839 1567218100
        -50659713 -1610950726 -306315553</internalNodes>
      <leafValues>
        -8.3797879517078400e-02 2.4016445875167847e-01</leafValues></_>
    <_>
      <internalNodes>
        0 -1 2301 -77347909 2041052339 -1998137289 -846352048 181120187
        -281149485 664599807 -907020358</internalNodes>
      <leafValues>
        -6.4878568053245544e-02 2.8742241859436035e-01</leafValues></_>
    <_>
      <internalNodes>
        0 -1 1484 941100322 2111715258 1388840253 584324400 1292677505
        -863465453 49258624 1086341120</internalNodes>
      <leafValues>
        -3.2141461968421936e-01 6.0716286301612854e-02</leafValues></_>
    <_>
      <internalNodes>
        0 -1 530 1861137940 1459648198 1201281714 542257856 1085039616
        1322435451 -139124896 1147166802</internalNodes>
      <leafValues>
        -2.9920962452888489e-01 6.2738642096519470e-02</leafValues></_>
    <_>
      <internalNodes>
        0 -1 7941 68661576 347772841 751896576 632032390 -1849729148
        -2000375756 1658826982 1903358751</internalNodes>
      <leafValues>
        -1.8835140764713287e-01 1.0147237032651901e-01</leafValues></_>
    <_>
      <internalNodes>
        0 -1 8768 -547377283 1949007871 -1410220937 -1296646609
        -1917345044 -37756937 -596582439 -249069277</internalNodes>
      <leafValues>
        -8.2922302186489105e-02 2.3095233738422394e-01</leafValues></_>
    <_>
      <internalNodes>
        0 -1 5045 -1942738848 368479217 1616412858 -1392999518
        2001725381 1966199485 2145069813 737429017</internalNodes>
      <leafValues>
        -2.3297622799873352e-01 8.4517627954483032e-02</leafValues></_>
    <_>
      <internalNodes>
        0 -1 8199 -1829249705 -1202721437 -1239442350 184011559
        2092373486 -1928202185 -1225020941 -1937811793</internalNodes>
      <leafValues>
        -1.3722838461399078e-01 1.4070852100849152e-01</leafValues></_>
    <_>
      <internalNodes>
        0 -1 7278 -92868889 2071158369 804782070 16622454 -268625921
        -5129487 -92682247 -79223081</internalNodes>
      <leafValues>
        -8.2962326705455780e-02 2.4111971259117126e-01</leafValues></_>
    <_>
      <internalNodes>
        0 -1 9526 -668291064 455301192 709926522 -1190073328 210731140
        1523630716 139488450 473252376</internalNodes>
      <leafValues>
        -2.1191616356372833e-01 9.7521319985389709e-02</leafValues></_></weakClassifiers></stage13>
</opencv_storage>
