<?xml version="1.0"?>
<opencv_storage>
<stage4>
  <maxWeakCount>54</maxWeakCount>
  <stageThreshold>-1.9686387777328491e+00</stageThreshold>
  <weakClassifiers>
    <_>
      <internalNodes>
        0 -1 9983 -1 -1395341059 -146802179 -326177681 -974127635
        -859089457 -989858371 -990905089</internalNodes>
      <leafValues>
        -4.5505222678184509e-01 2.0241637527942657e-01</leafValues></_>
    <_>
      <internalNodes>
        0 -1 792 -32769 2147483615 -46137345 -262145 -295305 -34078721
        2143254391 -137</internalNodes>
      <leafValues>
        -2.2683878242969513e-01 3.8390901684761047e-01</leafValues></_>
    <_>
      <internalNodes>
        0 -1 9999 -1610612737 736099839 -1142948097 -1895825409
        536870911 2147221503 -12289 -805307393</internalNodes>
      <leafValues>
        -1.7296320199966431e-01 3.7393698096275330e-01</leafValues></_>
    <_>
      <internalNodes>
        0 -1 401 -67633157 -14090446 -269348876 -42938512 1289801712
        -539957452 1534119859 -9967709</internalNodes>
      <leafValues>
        -1.8782784044742584e-01 3.0960899591445923e-01</leafValues></_>
    <_>
      <internalNodes>
        0 -1 5413 550797301 -42148353 -16387 -1078050945 -1078067215
        -8323 -1074085889 -1074000472</internalNodes>
      <leafValues>
        -2.1243308484554291e-01 2.5991305708885193e-01</leafValues></_>
    <_>
      <internalNodes>
        0 -1 6983 -1736444035 368352765 -33653505 -1107429889 -117440835
        -1124233476 -134365697 -1997690183</internalNodes>
      <leafValues>
        -1.7432449758052826e-01 2.9246205091476440e-01</leafValues></_>
    <_>
      <internalNodes>
        0 -1 890 -236784990 -574963806 -644095135 1433610913 1425019108
        1606801530 2096171711 1442134007</internalNodes>
      <leafValues>
        -2.3412570357322693e-01 2.0951007306575775e-01</leafValues></_>
    <_>
      <internalNodes>
        0 -1 9532 -120077298 1464727815 -496000488 1920900706 1475855436
        2102914917 -219175362 -223873109</internalNodes>
      <leafValues>
        -1.6280044615268707e-01 2.7078950405120850e-01</leafValues></_>
    <_>
      <internalNodes>
        0 -1 8163 212470908 499647212 -2001613089 799009023 -1342230785
        1073556431 -100671747 209519820</internalNodes>
      <leafValues>
        -4.4206675887107849e-01 9.8937824368476868e-02</leafValues></_>
    <_>
      <internalNodes>
        0 -1 4333 -34818124 -1610629321 2136747967 -1073763337 -35833603
        -1073879129 -288964929 -1437785597</internalNodes>
      <leafValues>
        -1.7816585302352905e-01 2.3952248692512512e-01</leafValues></_>
    <_>
      <internalNodes>
        0 -1 681 -839123073 -70812558 -302301289 -15507919 -44810704
        -1622966447 -323852860 -294127753</internalNodes>
      <leafValues>
        -1.3517951965332031e-01 2.9997217655181885e-01</leafValues></_>
    <_>
      <internalNodes>
        0 -1 2295 1558074871 -9511693 -1074839753 -248018 -927105071
        -43567177 2042247965 -34394348</internalNodes>
      <leafValues>
        -1.9454061985015869e-01 2.2131069004535675e-01</leafValues></_>
    <_>
      <internalNodes>
        0 -1 9606 -28051424 -682594724 1314974296 1960059124 -388447128
        -126300508 -1135284956 536997479</internalNodes>
      <leafValues>
        -3.0868533253669739e-01 1.3986250758171082e-01</leafValues></_>
    <_>
      <internalNodes>
        0 -1 7372 498351868 -754306 268304379 -1245773841 -276964939
        -303212553 2079845375 498079904</internalNodes>
      <leafValues>
        -3.9714246988296509e-01 1.1340501904487610e-01</leafValues></_>
    <_>
      <internalNodes>
        0 -1 5036 -16914892 -1800083936 -422146313 -332228941 1907485828
        -2040080 1358285820 -2147162428</internalNodes>
      <leafValues>
        -3.8663870096206665e-01 9.7724355757236481e-02</leafValues></_>
    <_>
      <internalNodes>
        0 -1 1859 -974683680 715962274 -201915472 -1849708566 1063849983
        81854373 1406345909 -473958729</internalNodes>
      <leafValues>
        -1.8769855797290802e-01 2.0894059538841248e-01</leafValues></_>
    <_>
      <internalNodes>
        0 -1 4772 -319514275 -80683681 -1375797251 -1682556101
        -838885387 -1662257233 -67297285 -1413533762</internalNodes>
      <leafValues>
        -1.2733925879001617e-01 2.9336535930633545e-01</leafValues></_>
    <_>
      <internalNodes>
        0 -1 772 1543552932 -1650526284 -39981557 -13008281 1953841077
        1370778759 920016299 966854402</internalNodes>
      <leafValues>
        -2.3434442281723022e-01 1.6086480021476746e-01</leafValues></_>
    <_>
      <internalNodes>
        0 -1 9975 -436228627 275049725 -1380196939 -1058795984 72986088
        149747133 -1661088531 -928252021</internalNodes>
      <leafValues>
        -1.5958093106746674e-01 2.2695997357368469e-01</leafValues></_>
    <_>
      <internalNodes>
        0 -1 7764 96732453 -1493241889 -1109446915 -1145221121
        2008678261 -279052547 1005565951 422841728</internalNodes>
      <leafValues>
        -3.7118178606033325e-01 1.0610909014940262e-01</leafValues></_>
    <_>
      <internalNodes>
        0 -1 102 -218967006 502560243 -1681851088 968425843 -2098965638
        -822300452 -201982557 1355142038</internalNodes>
      <leafValues>
        -2.5191560387611389e-01 1.3810652494430542e-01</leafValues></_>
    <_>
      <internalNodes>
        0 -1 9353 -555302400 543490919 1321640456 -1600721154 386315845
        1145332577 -151592848 1885545327</internalNodes>
      <leafValues>
        -3.2050052285194397e-01 1.0959075391292572e-01</leafValues></_>
    <_>
      <internalNodes>
        0 -1 735 1053851514 -34661379 -1610711502 -67375325 1313102827
        -33026 -567918920 1074028930</internalNodes>
      <leafValues>
        -2.7456146478652954e-01 1.3197164237499237e-01</leafValues></_>
    <_>
      <internalNodes>
        0 -1 4051 1141156352 872739172 -1879838725 -1181982789
        1417102528 -1140984067 1977024898 170394120</internalNodes>
      <leafValues>
        -3.2095804810523987e-01 1.0679963976144791e-01</leafValues></_>
    <_>
      <internalNodes>
        0 -1 1501 1644999332 416275692 1058278207 1002883771 -104509499
        -193855929 -816595393 542582626</internalNodes>
      <leafValues>
        -2.4174468219280243e-01 1.4661394059658051e-01</leafValues></_>
    <_>
      <internalNodes>
        0 -1 6532 -550250155 1977595517 -302072841 -1073881313
        -604181252 -1176637540 -1192558914 -1161847105</internalNodes>
      <leafValues>
        -9.0641185641288757e-02 3.8319689035415649e-01</leafValues></_>
    <_>
      <internalNodes>
        0 -1 8449 -38781124 -542060675 -1084514435 1035417587
        -1896105019 -1403668653 -1342474372 -1373371344</internalNodes>
      <leafValues>
        -2.2060123085975647e-01 1.5724319219589233e-01</leafValues></_>
    <_>
      <internalNodes>
        0 -1 8195 528187253 225263458 -1432359042 720436887 -4399172
        -1933578177 -168577026 -1996506243</internalNodes>
      <leafValues>
        -2.1153587102890015e-01 1.6508437693119049e-01</leafValues></_>
    <_>
      <internalNodes>
        0 -1 8176 -1374384776 -1340605191 -1940709602 -1073895457
        -1740890131 -1074005193 -1142591489 -1946088447</internalNodes>
      <leafValues>
        -2.0812463760375977e-01 1.6296945512294769e-01</leafValues></_>
    <_>
      <internalNodes>
        0 -1 2143 -547475722 945598455 1066995588 -910545021 -279725103
        -1149535239 -403308621 -2001259705</internalNodes>
      <leafValues>
        -1.8741329014301300e-01 1.8442904949188232e-01</leafValues></_>
    <_>
      <internalNodes>
        0 -1 9574 -160029692 -1271302275 -1258341742 821693978 -34402484
        2087615869 -1134101826 -1561086433</internalNodes>
      <leafValues>
        -1.9498029351234436e-01 1.7648220062255859e-01</leafValues></_>
    <_>
      <internalNodes>
        0 -1 1656 -336598112 -416295006 1727221314 -234902144
        -1641028117 528350703 -151005728 -756033609</internalNodes>
      <leafValues>
        -1.3591277599334717e-01 2.5432541966438293e-01</leafValues></_>
    <_>
      <internalNodes>
        0 -1 6251 308592324 -705757973 -1142476801 -1142149316
        -1225703428 -10505285 -1209323999 -1937621726</internalNodes>
      <leafValues>
        -2.2267280519008636e-01 1.6028669476509094e-01</leafValues></_>
    <_>
      <internalNodes>
        0 -1 776 -403804171 2139062269 -268673217 -105218153 -541099111
        -33559105 -1229229291 -487074186</internalNodes>
      <leafValues>
        -1.5244463086128235e-01 2.2661918401718140e-01</leafValues></_>
    <_>
      <internalNodes>
        0 -1 859 -761143216 338012953 1691105622 -1242906867 -182152741
        -17773900 -51037778 140849543</internalNodes>
      <leafValues>
        -2.3236556351184845e-01 1.5009020268917084e-01</leafValues></_>
    <_>
      <internalNodes>
        0 -1 5495 303568661 352202256 -276938899 938475960 44315461
        1038613101 498809525 213662480</internalNodes>
      <leafValues>
        -4.1309970617294312e-01 8.2134641706943512e-02</leafValues></_>
    <_>
      <internalNodes>
        0 -1 1424 -454259424 -5219958 -19616520 1722814398 -1246211148
        -823690412 1523874500 -1074581882</internalNodes>
      <leafValues>
        -2.0356471836566925e-01 1.6906753182411194e-01</leafValues></_>
    <_>
      <internalNodes>
        0 -1 1581 743370694 -303415678 804274006 933601140 1450536356
        -109764700 -1351082249 275844162</internalNodes>
      <leafValues>
        -2.6666775345802307e-01 1.2628586590290070e-01</leafValues></_>
    <_>
      <internalNodes>
        0 -1 9636 -2102031 -113967906 746503805 86109782 -1091637817
        -1401426763 1751743556 -1607472433</internalNodes>
      <leafValues>
        -1.5592612326145172e-01 2.1870413422584534e-01</leafValues></_>
    <_>
      <internalNodes>
        0 -1 7352 576485204 721174460 -1154138113 -1090716417 701349724
        -268484617 -1242271271 7611172</internalNodes>
      <leafValues>
        -4.6978113055229187e-01 7.5849078595638275e-02</leafValues></_>
    <_>
      <internalNodes>
        0 -1 1761 -542327072 -1574507996 -138563680 -173154224
        1962714591 73445315 -714090528 -170924113</internalNodes>
      <leafValues>
        -1.5823781490325928e-01 2.2496634721755981e-01</leafValues></_>
    <_>
      <internalNodes>
        0 -1 6228 1022662580 -670014490 902180347 -1564562621 -629467921
        -46420107 -1211694740 138479108</internalNodes>
      <leafValues>
        -2.9459658265113831e-01 1.1884293705224991e-01</leafValues></_>
    <_>
      <internalNodes>
        0 -1 520 -490799118 211725300 1055911796 -204281636 1698889700
        -327286849 1892103664 -190344029</internalNodes>
      <leafValues>
        -1.7198540270328522e-01 2.0579016208648682e-01</leafValues></_>
    <_>
      <internalNodes>
        0 -1 9693 608075380 967863665 -1345919310 650047188 780672741
        1001355245 702418143 2165765</internalNodes>
      <leafValues>
        -4.0628191828727722e-01 8.4005244076251984e-02</leafValues></_>
    <_>
      <internalNodes>
        0 -1 9988 -283388547 -2048245783 2147481452 -1098974037
        -107151465 846987255 -524058635 -521667209</internalNodes>
      <leafValues>
        -1.5039941668510437e-01 2.2600457072257996e-01</leafValues></_>
    <_>
      <internalNodes>
        0 -1 4096 -54217868 -9146471 -1093276250 -1088532806 -273666147
        -560399416 -537569744 2033523894</internalNodes>
      <leafValues>
        -2.3593276739120483e-01 1.5113489329814911e-01</leafValues></_>
    <_>
      <internalNodes>
        0 -1 415 -597789989 -1745689633 -758821017 2012754195
        -2000783260 -1634955268 1979708413 1438675714</internalNodes>
      <leafValues>
        -2.5704607367515564e-01 1.2665440142154694e-01</leafValues></_>
    <_>
      <internalNodes>
        0 -1 5984 67392560 473754256 180121204 257777172 1015817172
        531863189 642059007 745557552</internalNodes>
      <leafValues>
        -4.4701594114303589e-01 7.4083149433135986e-02</leafValues></_>
    <_>
      <internalNodes>
        0 -1 3435 -1535737040 884766649 -2099794139 -1107706129
        1142761461 -722179082 1073093800 -1481375214</internalNodes>
      <leafValues>
        -2.1907827258110046e-01 1.5139247477054596e-01</leafValues></_>
    <_>
      <internalNodes>
        0 -1 2914 513982188 145523402 1044601212 799981563 1740963776
        -1663777215 -193511932 149226340</internalNodes>
      <leafValues>
        -3.5523441433906555e-01 9.5246322453022003e-02</leafValues></_>
    <_>
      <internalNodes>
        0 -1 4231 -1483726540 -1242139657 2010013491 -1082769437
        -1497506396 -1112150729 209008887 -1429988477</internalNodes>
      <leafValues>
        -2.0703272521495819e-01 1.5687650442123413e-01</leafValues></_>
    <_>
      <internalNodes>
        0 -1 327 -1002389888 -1666083109 -275895400 393192379 2037608020
        1304177143 -1166200788 1881223729</internalNodes>
      <leafValues>
        -2.9213342070579529e-01 1.1730307340621948e-01</leafValues></_>
    <_>
      <internalNodes>
        0 -1 794 -270017069 -277676162 -168870221 -376910 -300195861
        -277119153 -822469665 -4752385</internalNodes>
      <leafValues>
        -1.0440719127655029e-01 3.3213773369789124e-01</leafValues></_>
    <_>
      <internalNodes>
        0 -1 743 1779277846 276882420 1254198808 1333444055 -514384462
        -1090846721 -844359 2015323015</internalNodes>
      <leafValues>
        -1.9841079413890839e-01 1.7020526528358459e-01</leafValues></_></weakClassifiers></stage4>
</opencv_storage>
