<?xml version="1.0"?>
<opencv_storage>
<stage12>
  <maxWeakCount>95</maxWeakCount>
  <stageThreshold>-1.6351253986358643e+00</stageThreshold>
  <weakClassifiers>
    <_>
      <internalNodes>
        0 -1 9992 -268698145 -1227620771 -250616614 -1493185798
        -168560129 -1160063101 -1459619585 -525075457</internalNodes>
      <leafValues>
        -3.9681115746498108e-01 1.1848120018839836e-02</leafValues></_>
    <_>
      <internalNodes>
        0 -1 17 -10232845 -6166622 1072955127 -239078928 -270802945
        -67460121 -563151377 -1050633</internalNodes>
      <leafValues>
        -1.0525996237993240e-01 3.6710494756698608e-01</leafValues></_>
    <_>
      <internalNodes>
        0 -1 2746 -937426962 -310079680 -5947477 1574960591 -1218435890
        -537002407 1302503051 -538991669</internalNodes>
      <leafValues>
        -1.2887945771217346e-01 2.3920777440071106e-01</leafValues></_>
    <_>
      <internalNodes>
        0 -1 797 48397651 1472907271 -1178078863 534395827 2034597629
        719481763 2141612915 997424755</internalNodes>
      <leafValues>
        -2.4057532846927643e-01 1.1370974034070969e-01</leafValues></_>
    <_>
      <internalNodes>
        0 -1 245 992214839 1567915120 1874571231 2137128823 -272957510
        -1342537739 -172468737 -170660381</internalNodes>
      <leafValues>
        -9.3796044588088989e-02 2.8228700160980225e-01</leafValues></_>
    <_>
      <internalNodes>
        0 -1 526 -352325865 -4997296 1777331895 1051462016 -313499152
        -269210064 -1074598221 1600410406</internalNodes>
      <leafValues>
        -1.4622053503990173e-01 1.6884876787662506e-01</leafValues></_>
    <_>
      <internalNodes>
        0 -1 9332 -55092212 -616855803 -1159881103 1922998143 -268473268
        794210920 -86313318 -225188210</internalNodes>
      <leafValues>
        -1.6228832304477692e-01 1.4963300526142120e-01</leafValues></_>
    <_>
      <internalNodes>
        0 -1 8140 137396084 519869755 1929178839 -1078938627 -544081027
        -67280425 729624541 469767968</internalNodes>
      <leafValues>
        -3.5549005866050720e-01 8.5820235311985016e-02</leafValues></_>
    <_>
      <internalNodes>
        0 -1 2668 1825855408 1941695215 1729346611 -1150671637
        1453871921 -721465862 2036856571 -1717498549</internalNodes>
      <leafValues>
        -1.4848825335502625e-01 1.5840500593185425e-01</leafValues></_>
    <_>
      <internalNodes>
        0 -1 891 -996092670 481343642 1614756372 1961982389 -589757180
        -1739806130 -1092366415 218437590</internalNodes>
      <leafValues>
        -2.0680698752403259e-01 1.1813641339540482e-01</leafValues></_>
    <_>
      <internalNodes>
        0 -1 2287 -1935254284 577255798 -790806604 -1248839752
        -1057362740 650476365 -943250696 -872426612</internalNodes>
      <leafValues>
        -1.7074748873710632e-01 1.3155780732631683e-01</leafValues></_>
    <_>
      <internalNodes>
        0 -1 9939 -620772269 2136800725 -1363640481 2140528547
        1222691824 -352654105 -359089013 -354433025</internalNodes>
      <leafValues>
        -7.9332321882247925e-02 2.6431733369827271e-01</leafValues></_>
    <_>
      <internalNodes>
        0 -1 2254 -1409378384 893335511 1744519099 2134851391
        -1648894721 1595938815 1957821371 -1044068951</internalNodes>
      <leafValues>
        -1.3296394050121307e-01 1.6788950562477112e-01</leafValues></_>
    <_>
      <internalNodes>
        0 -1 2961 1554155168 -1110920745 418586028 -1649796347
        -694345563 1031152565 746683897 2359300</internalNodes>
      <leafValues>
        -2.9074051976203918e-01 7.3665924370288849e-02</leafValues></_>
    <_>
      <internalNodes>
        0 -1 144 -849092701 -1054694749 282143728 -1267128507 1076433801
        -277336112 1293636860 -106246937</internalNodes>
      <leafValues>
        -1.1841415613889694e-01 1.8459062278270721e-01</leafValues></_>
    <_>
      <internalNodes>
        0 -1 4888 574101365 516311645 -1270103057 836120360 1526947069
        441185109 1860525981 662636540</internalNodes>
      <leafValues>
        -2.6408785581588745e-01 7.8582651913166046e-02</leafValues></_>
    <_>
      <internalNodes>
        0 -1 2670 -891819922 1421718044 -1840270767 1961882543
        -233517227 479682182 -201862029 -796851570</internalNodes>
      <leafValues>
        -1.4179481565952301e-01 1.4954099059104919e-01</leafValues></_>
    <_>
      <internalNodes>
        0 -1 6516 -920379931 -151173335 934144933 2079177837 1979482095
        2130042607 -85706529 -1347670242</internalNodes>
      <leafValues>
        -1.1642913520336151e-01 1.8092982470989227e-01</leafValues></_>
    <_>
      <internalNodes>
        0 -1 9699 -18940033 -1343488811 779599607 1817900271 223698397
        240569679 750718174 -974203427</internalNodes>
      <leafValues>
        -1.1237747222185135e-01 1.8286307156085968e-01</leafValues></_>
    <_>
      <internalNodes>
        0 -1 7863 2069834220 -1154719524 50762708 -1559341795 840507948
        858436569 975152813 273523212</internalNodes>
      <leafValues>
        -2.6593783497810364e-01 8.1044010818004608e-02</leafValues></_>
    <_>
      <internalNodes>
        0 -1 713 1523983185 -739319897 2088380246 -1175392873 241480529
        -525144477 1743468351 -1082825133</internalNodes>
      <leafValues>
        -1.4716419577598572e-01 1.4976505935192108e-01</leafValues></_>
    <_>
      <internalNodes>
        0 -1 9872 -494753512 2040643868 362723305 2095614388 -858896088
        -69439288 637155805 1283984132</internalNodes>
      <leafValues>
        -2.8101092576980591e-01 6.9935522973537445e-02</leafValues></_>
    <_>
      <internalNodes>
        0 -1 2054 378248923 278588286 -1342882131 -1178682817 1558167511
        -1090574592 -269120779 -1896926209</internalNodes>
      <leafValues>
        -9.9703848361968994e-02 2.3324532806873322e-01</leafValues></_>
    <_>
      <internalNodes>
        0 -1 9999 175791353 802507226 752558295 -1937867649 153017343
        1606146840 -564974381 4119283</internalNodes>
      <leafValues>
        -2.4405771493911743e-01 8.4148176014423370e-02</leafValues></_>
    <_>
      <internalNodes>
        0 -1 5502 135303472 -1677864232 1296973147 684752118 -1112756019
        -369787974 -824238400 245376688</internalNodes>
      <leafValues>
        -3.3909580111503601e-01 6.2178287655115128e-02</leafValues></_>
    <_>
      <internalNodes>
        0 -1 1803 2146116570 -2101834487 790461 -1919570167 1906783732
        1879098185 2024796079 1875214191</internalNodes>
      <leafValues>
        -1.4756573736667633e-01 1.4265218377113342e-01</leafValues></_>
    <_>
      <internalNodes>
        0 -1 9540 -530395898 2105745306 577014787 537011232 1115640836
        -1893108382 913076462 1949784578</internalNodes>
      <leafValues>
        -2.0152169466018677e-01 1.0265413671731949e-01</leafValues></_>
    <_>
      <internalNodes>
        0 -1 2614 -802360427 -1000625 1045770900 -1398436439 1425987548
        1010266614 2005297768 223605077</internalNodes>
      <leafValues>
        -1.5584598481655121e-01 1.3353286683559418e-01</leafValues></_>
    <_>
      <internalNodes>
        0 -1 4846 -1512775771 1820092303 -213028605 -155394461
        -1297493251 -294004241 -1695345163 6575588</internalNodes>
      <leafValues>
        -2.4857001006603241e-01 8.1829302012920380e-02</leafValues></_>
    <_>
      <internalNodes>
        0 -1 1531 -362391314 -537188759 -89179333 -180396549 -1044789521
        -1153061 -961354053 -942685013</internalNodes>
      <leafValues>
        -8.5631668567657471e-02 2.7185350656509399e-01</leafValues></_>
    <_>
      <internalNodes>
        0 -1 2883 -209914324 1592792213 -1053697249 897005541 -945537919
        -1087690483 -461099721 -1457059996</internalNodes>
      <leafValues>
        -1.4344257116317749e-01 1.4737747609615326e-01</leafValues></_>
    <_>
      <internalNodes>
        0 -1 3648 -868303398 -706813539 1857634042 -235686201 -453521675
        -1678000424 -730470173 -578033661</internalNodes>
      <leafValues>
        -8.6456000804901123e-02 2.4125292897224426e-01</leafValues></_>
    <_>
      <internalNodes>
        0 -1 7771 -1185399592 300958932 689120083 -1363441924
        -1140057665 291182237 -2036380711 268444720</internalNodes>
      <leafValues>
        -3.2563337683677673e-01 6.4041815698146820e-02</leafValues></_>
    <_>
      <internalNodes>
        0 -1 1252 1087789802 -1726433646 -2080517136 1357958768
        -1006975594 -572779838 -84485344 274058880</internalNodes>
      <leafValues>
        -2.3542433977127075e-01 8.4399066865444183e-02</leafValues></_>
    <_>
      <internalNodes>
        0 -1 3613 -197137172 -798830131 376780527 -1444461841 2146436595
        -197806121 -1112232613 -1407189141</internalNodes>
      <leafValues>
        -1.1059028655290604e-01 1.8642373383045197e-01</leafValues></_>
    <_>
      <internalNodes>
        0 -1 9467 1328820148 -597761134 -1395056133 -1492429094
        -1793945689 -1393767968 2100389453 -1000642275</internalNodes>
      <leafValues>
        -1.4738602936267853e-01 1.4168502390384674e-01</leafValues></_>
    <_>
      <internalNodes>
        0 -1 1504 -872528299 -1765313185 -1821128705 -1829619812
        -43751136 1596215261 -19140994 -529109138</internalNodes>
      <leafValues>
        -1.3944804668426514e-01 1.4482450485229492e-01</leafValues></_>
    <_>
      <internalNodes>
        0 -1 6440 742655812 -29728929 -556936949 862066943 263979381
        1592621939 1786004917 140510500</internalNodes>
      <leafValues>
        -4.3594688177108765e-01 4.3090865015983582e-02</leafValues></_>
    <_>
      <internalNodes>
        0 -1 9961 -228866762 -546505042 -1212432905 -643682153
        -1879996497 -1720225810 -929118854 -928003381</internalNodes>
      <leafValues>
        -9.7012951970100403e-02 2.1608312427997589e-01</leafValues></_>
    <_>
      <internalNodes>
        0 -1 1712 -456412469 -544279678 -1313345354 -134236686
        1299124793 1200012160 627118321 -1029</internalNodes>
      <leafValues>
        -9.2178896069526672e-02 2.2016416490077972e-01</leafValues></_>
    <_>
      <internalNodes>
        0 -1 26 434817187 992260490 -814360531 1056121010 1291596940
        -1997826673 -1368733251 250795504</internalNodes>
      <leafValues>
        -1.5969641506671906e-01 1.2809924781322479e-01</leafValues></_>
    <_>
      <internalNodes>
        0 -1 793 -567061025 -218989842 1050893361 -15746136 -1416347
        1968930551 1969506073 -404490401</internalNodes>
      <leafValues>
        -1.3127705454826355e-01 1.5777005255222321e-01</leafValues></_>
    <_>
      <internalNodes>
        0 -1 4435 -352861289 -562319861 -432621763 -1222394191 233141595
        -4456705 150306500 -1152680359</internalNodes>
      <leafValues>
        -8.4864862263202667e-02 2.4493427574634552e-01</leafValues></_>
    <_>
      <internalNodes>
        0 -1 1527 1959957591 -2129413889 2121776893 2103098623
        1425937883 536753599 -404750864 -576801544</internalNodes>
      <leafValues>
        -1.1152498424053192e-01 1.8988056480884552e-01</leafValues></_>
    <_>
      <internalNodes>
        0 -1 7888 -1395644416 741670592 -270383630 1647337538 604995732
        1712869556 12371590 338737396</internalNodes>
      <leafValues>
        -3.5451462864875793e-01 5.9739232063293457e-02</leafValues></_>
    <_>
      <internalNodes>
        0 -1 6988 947535668 283181586 -234872080 -1997595383 -1526880391
        -994268596 -1977193283 405078085</internalNodes>
      <leafValues>
        -2.5686606764793396e-01 8.1241317093372345e-02</leafValues></_>
    <_>
      <internalNodes>
        0 -1 417 -233385121 -1290783894 -390620511 -1165446446
        -252354669 -1199605975 -4874534 1702622654</internalNodes>
      <leafValues>
        -1.2388516962528229e-01 1.7343845963478088e-01</leafValues></_>
    <_>
      <internalNodes>
        0 -1 1430 271852184 -555971958 1143823793 -258459342 -1466174960
        -1684411711 1651287936 8683668</internalNodes>
      <leafValues>
        -3.0188626050949097e-01 6.8858899176120758e-02</leafValues></_>
    <_>
      <internalNodes>
        0 -1 702 1194556040 138972719 269531417 1789514459 1640001652
        1437921432 -913525287 615855943</internalNodes>
      <leafValues>
        -2.1657319366931915e-01 9.9535554647445679e-02</leafValues></_>
    <_>
      <internalNodes>
        0 -1 2621 80792368 -1513198302 1780121986 -1600733082 387797190
        -822331643 -2031811863 -1467459816</internalNodes>
      <leafValues>
        -2.2872583568096161e-01 9.2735476791858673e-02</leafValues></_>
    <_>
      <internalNodes>
        0 -1 496 -614465857 -210832729 -302156112 -2139621199 -504224266
        -638168603 -1525183337 -831830693</internalNodes>
      <leafValues>
        -1.0362853854894638e-01 2.1713905036449432e-01</leafValues></_>
    <_>
      <internalNodes>
        0 -1 1657 -1423197701 1508588320 578205431 -1131497901
        1318629035 -938496018 -2137967617 -837826573</internalNodes>
      <leafValues>
        -9.2916049063205719e-02 2.2565634548664093e-01</leafValues></_>
    <_>
      <internalNodes>
        0 -1 9547 -231225633 -683450547 -1124567049 1065090015
        1550757534 -1631644163 -620846950 -14155914</internalNodes>
      <leafValues>
        -7.1766085922718048e-02 2.9396301507949829e-01</leafValues></_>
    <_>
      <internalNodes>
        0 -1 5841 716588036 1053589 428922786 -1663159580 2053256052
        903216249 957682951 560205061</internalNodes>
      <leafValues>
        -2.9274833202362061e-01 7.3744118213653564e-02</leafValues></_>
    <_>
      <internalNodes>
        0 -1 9497 -270737 -43306641 805153535 2046286553 -323358900
        661647055 -1703018020 -68424589</internalNodes>
      <leafValues>
        -6.9355063140392303e-02 3.1272062659263611e-01</leafValues></_>
    <_>
      <internalNodes>
        0 -1 9498 672431101 180011027 -800092969 1064050424 46750564
        -781228086 1382287804 23752388</internalNodes>
      <leafValues>
        -2.8530821204185486e-01 7.7769324183464050e-02</leafValues></_>
    <_>
      <internalNodes>
        0 -1 345 1331306608 -138629516 -431110689 -811499260 -1968422436
        -1728826656 1157038329 -1978464173</internalNodes>
      <leafValues>
        -1.6680055856704712e-01 1.2305565178394318e-01</leafValues></_>
    <_>
      <internalNodes>
        0 -1 9671 -2076569987 -836750530 -1101412172 1782017682
        -1392243750 -1983419487 -661468673 -533635459</internalNodes>
      <leafValues>
        -1.6182492673397064e-01 1.2777818739414215e-01</leafValues></_>
    <_>
      <internalNodes>
        0 -1 9843 -662781940 488914916 -488704270 -1793573116 1343882500
        -1108780523 -1042991482 -1831348942</internalNodes>
      <leafValues>
        -1.5351760387420654e-01 1.3625760376453400e-01</leafValues></_>
    <_>
      <internalNodes>
        0 -1 9580 -54080465 848590824 -1100316416 -257635652 1977967298
        742115708 939206650 -247343258</internalNodes>
      <leafValues>
        -1.5294471383094788e-01 1.3761536777019501e-01</leafValues></_>
    <_>
      <internalNodes>
        0 -1 789 1880317392 -818752612 1330633108 -37806637 -2087428248
        -1912313434 -1165609158 -487162569</internalNodes>
      <leafValues>
        -1.5212696790695190e-01 1.3622312247753143e-01</leafValues></_>
    <_>
      <internalNodes>
        0 -1 2269 -1896709720 -35377665 217519664 -340443901 1573218001
        1962398056 -141228101 172261678</internalNodes>
      <leafValues>
        -1.8705390393733978e-01 1.1823689937591553e-01</leafValues></_>
    <_>
      <internalNodes>
        0 -1 9978 -1038292988 279489124 1753004990 -1333876425
        -1526580039 888492971 1458765829 79414175</internalNodes>
      <leafValues>
        -1.9946213066577911e-01 1.0698497295379639e-01</leafValues></_>
    <_>
      <internalNodes>
        0 -1 6216 201331792 911742710 -1320368971 422620177 200951824
        -1191511492 144276314 209982480</internalNodes>
      <leafValues>
        -4.6238666772842407e-01 4.4381063431501389e-02</leafValues></_>
    <_>
      <internalNodes>
        0 -1 1574 1159241762 818961028 2055577216 1088400743 290784389
        1953588631 -478071559 4211009</internalNodes>
      <leafValues>
        -3.3061790466308594e-01 6.0680810362100601e-02</leafValues></_>
    <_>
      <internalNodes>
        0 -1 4325 -81201451 1056617128 1307543487 -942948371 -368040035
        -1212450033 -138662417 -934951929</internalNodes>
      <leafValues>
        -1.1424513906240463e-01 1.8741343915462494e-01</leafValues></_>
    <_>
      <internalNodes>
        0 -1 9760 -489543113 -622816322 478126013 -111235806 -1934315795
        -402851850 -2033053811 -1113037790</internalNodes>
      <leafValues>
        -1.3467647135257721e-01 1.6100120544433594e-01</leafValues></_>
    <_>
      <internalNodes>
        0 -1 259 -1699016769 1789812530 -67600515 1541012963 485458430
        -1074301187 -1177037829 -607661105</internalNodes>
      <leafValues>
        -6.5761819481849670e-02 3.2883805036544800e-01</leafValues></_>
    <_>
      <internalNodes>
        0 -1 2206 482753536 -1411769060 -1995636709 832491909 966343099
        1152163568 -1496477424 12846336</internalNodes>
      <leafValues>
        -3.9796474575996399e-01 5.5859949439764023e-02</leafValues></_>
    <_>
      <internalNodes>
        0 -1 5494 407140189 1944771407 816510542 999960406 1067724951
        -1743034883 113531641 941846980</internalNodes>
      <leafValues>
        -2.6230940222740173e-01 7.8597649931907654e-02</leafValues></_>
    <_>
      <internalNodes>
        0 -1 1552 -263792482 -34330767 -1371801744 566706027 -1258998340
        -3399757 1012430521 -324058561</internalNodes>
      <leafValues>
        -1.0357587784528732e-01 2.1484296023845673e-01</leafValues></_>
    <_>
      <internalNodes>
        0 -1 1596 669186514 532820100 -384150000 1155888664 -1014009082
        838867446 813719922 -790531216</internalNodes>
      <leafValues>
        -1.8467785418033600e-01 1.1723789572715759e-01</leafValues></_>
    <_>
      <internalNodes>
        0 -1 2427 1445599984 -256973578 -386044547 612415426 1417682849
        248323825 -1259726496 38627927</internalNodes>
      <leafValues>
        -2.2560851275920868e-01 9.5304057002067566e-02</leafValues></_>
    <_>
      <internalNodes>
        0 -1 9367 -1599346173 1485120631 -1707034960 -1245927766
        89720582 1359222312 -152635268 -734628437</internalNodes>
      <leafValues>
        -1.6023644804954529e-01 1.3346058130264282e-01</leafValues></_>
    <_>
      <internalNodes>
        0 -1 1198 -1063018605 -650626314 -1561314288 1064791010
        -716472835 -1083891720 -906534998 -1611665938</internalNodes>
      <leafValues>
        -8.9658282697200775e-02 2.4152414500713348e-01</leafValues></_>
    <_>
      <internalNodes>
        0 -1 4728 -1504705996 540058901 -1143854478 -2007757760 84224076
        141579865 303249956 1048688</internalNodes>
      <leafValues>
        -4.6984437108039856e-01 4.6007733792066574e-02</leafValues></_>
    <_>
      <internalNodes>
        0 -1 3950 847240795 -47891249 2122182368 -118505845 -287709226
        -18911793 -1342714253 -184318485</internalNodes>
      <leafValues>
        -7.0497423410415649e-02 3.1738445162773132e-01</leafValues></_>
    <_>
      <internalNodes>
        0 -1 9993 -372339423 204094258 -224551945 -1878860510 1252230847
        755647295 2076097269 -1005857346</internalNodes>
      <leafValues>
        -1.4740131795406342e-01 1.4545425772666931e-01</leafValues></_>
    <_>
      <internalNodes>
        0 -1 6185 -1574158895 -1314114817 -230877521 -1079199794
        -1526749258 1798068733 -2032590410 -1582412157</internalNodes>
      <leafValues>
        -1.4885473251342773e-01 1.4454261958599091e-01</leafValues></_>
    <_>
      <internalNodes>
        0 -1 3252 -1329146956 -1841256208 -1645174211 808241839
        1373500838 -1508170932 608367744 7307109</internalNodes>
      <leafValues>
        -2.0732185244560242e-01 1.0866876691579819e-01</leafValues></_>
    <_>
      <internalNodes>
        0 -1 4653 1163962436 807700232 -746774460 317498078 -517716464
        -1347520009 -312211760 268468832</internalNodes>
      <leafValues>
        -4.7849020361900330e-01 4.3936666101217270e-02</leafValues></_>
    <_>
      <internalNodes>
        0 -1 7245 82472757 932249051 -1081366821 -1452579548 -1801242219
        -89107705 -1092212513 -373683702</internalNodes>
      <leafValues>
        -1.4059844613075256e-01 1.5379549562931061e-01</leafValues></_>
    <_>
      <internalNodes>
        0 -1 8690 -905984592 825538083 752272483 561702598 569444856
        -35258184 1918658571 1074133286</internalNodes>
      <leafValues>
        -1.7255112528800964e-01 1.2209559231996536e-01</leafValues></_>
    <_>
      <internalNodes>
        0 -1 4898 1476624339 110301249 1041856082 181830879 -7139840
        1048661231 1049903099 602797548</internalNodes>
      <leafValues>
        -1.8006341159343719e-01 1.1666751652956009e-01</leafValues></_>
    <_>
      <internalNodes>
        0 -1 1188 -356260963 -136972385 -2035985039 1659653842 635957048
        -884130532 1430550202 1313247918</internalNodes>
      <leafValues>
        -1.3077925145626068e-01 1.6059367358684540e-01</leafValues></_>
    <_>
      <internalNodes>
        0 -1 1169 3066668 1007850775 -1402455882 87141095 1455960849
        -1202440107 205753736 9138304</internalNodes>
      <leafValues>
        -2.2659510374069214e-01 9.4914309680461884e-02</leafValues></_>
    <_>
      <internalNodes>
        0 -1 8177 -1297076996 -1655080575 1111657051 -681584610
        431009021 1061677488 -1626603147 1009068036</internalNodes>
      <leafValues>
        -2.5731119513511658e-01 8.0386266112327576e-02</leafValues></_>
    <_>
      <internalNodes>
        0 -1 8576 -775474940 -922239687 986392334 -8542283 -277498388
        1467678307 649499452 -230950113</internalNodes>
      <leafValues>
        -1.3050287961959839e-01 1.6104711592197418e-01</leafValues></_>
    <_>
      <internalNodes>
        0 -1 1174 650425296 -1532457528 -1496282456 820094912 2132828276
        1370759410 818482785 3220226</internalNodes>
      <leafValues>
        -3.1874519586563110e-01 6.5285280346870422e-02</leafValues></_>
    <_>
      <internalNodes>
        0 -1 4612 583542176 1680817789 -1079800082 903882978 1297895364
        892825704 1675765061 -487429820</internalNodes>
      <leafValues>
        -2.3342680931091309e-01 8.9804880321025848e-02</leafValues></_>
    <_>
      <internalNodes>
        0 -1 1577 -303185476 -1169457199 2045722490 2008236025
        -1900769553 1584907239 1202388201 -839391857</internalNodes>
      <leafValues>
        -8.3553187549114227e-02 2.6295807957649231e-01</leafValues></_>
    <_>
      <internalNodes>
        0 -1 9448 -1568884873 2140732829 -805440141 -1421198352
        1191247807 -1374928899 217998317 -286540034</internalNodes>
      <leafValues>
        -9.9984221160411835e-02 2.1287856996059418e-01</leafValues></_>
    <_>
      <internalNodes>
        0 -1 7310 2063019747 -1678250335 -1124352385 -1003884981
        2008299486 -1235325329 -38160932 -100432221</internalNodes>
      <leafValues>
        -9.0718924999237061e-02 2.3458655178546906e-01</leafValues></_>
    <_>
      <internalNodes>
        0 -1 4720 175900276 686082935 -545520386 -1707569607 265652788
        -1493399913 1308536512 794045184</internalNodes>
      <leafValues>
        -3.1131607294082642e-01 6.8851128220558167e-02</leafValues></_>
    <_>
      <internalNodes>
        0 -1 8508 -180397483 -70524484 786836069 -139499089 -2010453361
        1852825599 -220142947 -7632713</internalNodes>
      <leafValues>
        -8.0786593258380890e-02 2.6727440953254700e-01</leafValues></_></weakClassifiers></stage12>
</opencv_storage>
