<?xml version="1.0"?>
<opencv_storage>
<stage7>
  <maxWeakCount>75</maxWeakCount>
  <stageThreshold>-1.7715950012207031e+00</stageThreshold>
  <weakClassifiers>
    <_>
      <internalNodes>
        0 -1 9976 -134219777 -663362476 -933506349 -857540873 -843195923
        -1936037471 1154342399 -926155041</internalNodes>
      <leafValues>
        -4.0222221612930298e-01 1.2099009752273560e-01</leafValues></_>
    <_>
      <internalNodes>
        0 -1 744 -538968065 -9 -155255333 -541395014 -1945484 -17342601
        -378191760 -143145625</internalNodes>
      <leafValues>
        -2.1381394565105438e-01 2.5370714068412781e-01</leafValues></_>
    <_>
      <internalNodes>
        0 -1 1810 -101711885 -974733438 -719950 -773062782 1710206414
        235532236 1744286384 -134218001</internalNodes>
      <leafValues>
        -1.4009775221347809e-01 3.2606944441795349e-01</leafValues></_>
    <_>
      <internalNodes>
        0 -1 4850 141336573 -1076067361 -536881217 -214017 -1111699715
        -1074003969 -4375621 -1971847168</internalNodes>
      <leafValues>
        -2.3514810204505920e-01 1.7864692211151123e-01</leafValues></_>
    <_>
      <internalNodes>
        0 -1 9699 -1075838977 -1084227617 -1896372521 -1352663585
        -2116132 769654607 1035906303 -570434049</internalNodes>
      <leafValues>
        -1.3574852049350739e-01 2.8590056300163269e-01</leafValues></_>
    <_>
      <internalNodes>
        0 -1 206 -851274902 -538778942 -1327234238 -138991006 1458585586
        1441795684 -68938612 1667723778</internalNodes>
      <leafValues>
        -2.3460969328880310e-01 1.7305299639701843e-01</leafValues></_>
    <_>
      <internalNodes>
        0 -1 780 1172234230 -545849485 -1627669515 2112978939 1830054877
        -1079953423 2147188731 -60541150</internalNodes>
      <leafValues>
        -1.6948838531970978e-01 2.0610268414020538e-01</leafValues></_>
    <_>
      <internalNodes>
        0 -1 5153 -780909696 807705584 1000390655 967324315 -33703233
        -1110384864 1923548878 9305775</internalNodes>
      <leafValues>
        -2.3554325103759766e-01 1.3647061586380005e-01</leafValues></_>
    <_>
      <internalNodes>
        0 -1 537 -805306501 -26804369 -671875467 1151098781 -840573733
        -824175227 -537657873 -726575161</internalNodes>
      <leafValues>
        -1.5403759479522705e-01 2.1005533635616302e-01</leafValues></_>
    <_>
      <internalNodes>
        0 -1 5475 472928368 -161462657 -1897562817 503266620 -1158906881
        763719165 2125609467 955527008</internalNodes>
      <leafValues>
        -3.9173623919487000e-01 8.8523142039775848e-02</leafValues></_>
    <_>
      <internalNodes>
        0 -1 7425 -94392300 892429451 1715185549 362019184 -197761802
        -650789956 -1598805970 573040163</internalNodes>
      <leafValues>
        -2.3013754189014435e-01 1.2212498486042023e-01</leafValues></_>
    <_>
      <internalNodes>
        0 -1 9558 -789072907 -13648496 1321519989 -112090609 -924210004
        -352539212 1074326778 -402277233</internalNodes>
      <leafValues>
        -1.2970231473445892e-01 2.1075744926929474e-01</leafValues></_>
    <_>
      <internalNodes>
        0 -1 4932 -586893412 318635587 -1879232611 -1344425235
        1037393916 -2818049 2119449663 708651531</internalNodes>
      <leafValues>
        -1.5649089217185974e-01 1.7706848680973053e-01</leafValues></_>
    <_>
      <internalNodes>
        0 -1 447 -295456849 -40829294 -2030662725 -816805360 475041248
        -625676444 2012339699 2145895078</internalNodes>
      <leafValues>
        -1.4824064075946808e-01 1.8342965841293335e-01</leafValues></_>
    <_>
      <internalNodes>
        0 -1 4675 710207276 -1789898313 1003237567 704026878 -451039243
        -6847813 -1610739794 -1415249020</internalNodes>
      <leafValues>
        -1.7139284312725067e-01 1.6563239693641663e-01</leafValues></_>
    <_>
      <internalNodes>
        0 -1 1485 573187500 2113811679 -578541711 -1074897071 201167786
        -1078099271 1028601776 8684672</internalNodes>
      <leafValues>
        -3.3030039072036743e-01 7.5479820370674133e-02</leafValues></_>
    <_>
      <internalNodes>
        0 -1 1586 11423218 -574424229 2027695664 -140822734 2146192751
        1731269387 -1174717960 -29470866</internalNodes>
      <leafValues>
        -1.9475054740905762e-01 1.4681261777877808e-01</leafValues></_>
    <_>
      <internalNodes>
        0 -1 9961 -254544634 -580068820 -1480901165 280244374 -990899068
        -919216367 138282088 11518958</internalNodes>
      <leafValues>
        -1.8689158558845520e-01 1.4200356602668762e-01</leafValues></_>
    <_>
      <internalNodes>
        0 -1 9275 -1900533684 1792298076 -1260943653 576318508 965327836
        -292890371 1585692411 134217740</internalNodes>
      <leafValues>
        -4.3319076299667358e-01 6.3114084303379059e-02</leafValues></_>
    <_>
      <internalNodes>
        0 -1 7772 548935028 -1093321025 -1280968990 2141100503
        -142821667 1065349055 1057061360 286263312</internalNodes>
      <leafValues>
        -4.4334891438484192e-01 5.5607870221138000e-02</leafValues></_>
    <_>
      <internalNodes>
        0 -1 9989 -1615594053 808497112 -1631605265 -1083273328
        -36182025 1750507484 -436603651 -522990285</internalNodes>
      <leafValues>
        -1.2762698531150818e-01 2.0825646817684174e-01</leafValues></_>
    <_>
      <internalNodes>
        0 -1 872 -420298874 -491803254 848769714 -219454032 834890732
        161576867 1895066566 -251697913</internalNodes>
      <leafValues>
        -1.7486594617366791e-01 1.4722082018852234e-01</leafValues></_>
    <_>
      <internalNodes>
        0 -1 6895 -30112076 1232378835 -1868964065 -126813198 911501205
        -17390611 -1661169692 -1432352496</internalNodes>
      <leafValues>
        -3.0883190035820007e-01 8.0371432006359100e-02</leafValues></_>
    <_>
      <internalNodes>
        0 -1 693 137248448 -767919187 -1128349916 -294461441 275010836
        -1108115722 1956411168 1146160963</internalNodes>
      <leafValues>
        -2.8170955181121826e-01 9.5279276371002197e-02</leafValues></_>
    <_>
      <internalNodes>
        0 -1 793 1735030783 991097851 -325509326 966734634 2007726685
        1394044475 1308511818 1474509054</internalNodes>
      <leafValues>
        -2.0787939429283142e-01 1.2369454652070999e-01</leafValues></_>
    <_>
      <internalNodes>
        0 -1 9546 -67109121 -38024004 -1229294018 1882172154 -573909432
        -11973822 -457248117 -201857073</internalNodes>
      <leafValues>
        -9.0318456292152405e-02 2.9261070489883423e-01</leafValues></_>
    <_>
      <internalNodes>
        0 -1 5715 -1093615627 -1094914107 -92372042 -1092702414
        926518783 754771959 -1209131082 -1460392026</internalNodes>
      <leafValues>
        -1.7599277198314667e-01 1.4829485118389130e-01</leafValues></_>
    <_>
      <internalNodes>
        0 -1 2695 1411443588 1031862217 -1610924612 769625567 1936635812
        -1126337059 -171098948 -1128704089</internalNodes>
      <leafValues>
        -1.5105862915515900e-01 1.7274826765060425e-01</leafValues></_>
    <_>
      <internalNodes>
        0 -1 3044 -747254937 -540973287 -155783763 -1225916605
        -537425945 -537427985 -320881691 -1970575737</internalNodes>
      <leafValues>
        -1.0330816358327866e-01 2.5071272253990173e-01</leafValues></_>
    <_>
      <internalNodes>
        0 -1 7620 77859924 753729523 -189073540 -1085218830 123078560
        -1133022211 1035865596 603980032</internalNodes>
      <leafValues>
        -4.0679091215133667e-01 6.2697775661945343e-02</leafValues></_>
    <_>
      <internalNodes>
        0 -1 467 -321388545 -1330320645 -42500843 -1159295039 1290853254
        -1737130780 1881650410 1054287243</internalNodes>
      <leafValues>
        -1.3515445590019226e-01 1.8499903380870819e-01</leafValues></_>
    <_>
      <internalNodes>
        0 -1 192 1074244258 484073476 743315714 2067906018 1301878430
        481300844 86445808 1346629798</internalNodes>
      <leafValues>
        -2.0156568288803101e-01 1.2134869396686554e-01</leafValues></_>
    <_>
      <internalNodes>
        0 -1 3664 2115483864 346793173 -1225315333 -1111638659
        -621332801 -301990433 -1200144385 -1292370297</internalNodes>
      <leafValues>
        -1.3377964496612549e-01 1.8700599670410156e-01</leafValues></_>
    <_>
      <internalNodes>
        0 -1 6443 -2106317788 1549559261 -1260910617 869411191
        1055932309 805126127 1977563005 758122752</internalNodes>
      <leafValues>
        -3.5121750831604004e-01 7.0920638740062714e-02</leafValues></_>
    <_>
      <internalNodes>
        0 -1 9527 -121647414 -1688655883 954998648 1560344928 356485292
        -1131604954 -656872706 1543682159</internalNodes>
      <leafValues>
        -1.5256677567958832e-01 1.6186121106147766e-01</leafValues></_>
    <_>
      <internalNodes>
        0 -1 8185 680163544 472175953 630393980 481155669 632437759
        1065315279 786373343 754196484</internalNodes>
      <leafValues>
        -3.7898179888725281e-01 6.6288158297538757e-02</leafValues></_>
    <_>
      <internalNodes>
        0 -1 1312 -152244542 -1865904630 -179013852 -52655387 -11013344
        -255788284 2046245492 136327808</internalNodes>
      <leafValues>
        -3.7517732381820679e-01 6.4395353198051453e-02</leafValues></_>
    <_>
      <internalNodes>
        0 -1 9360 -996258707 -537331909 -1426187184 1895559084
        2044462156 890920773 -1507543890 -227305697</internalNodes>
      <leafValues>
        -1.3970494270324707e-01 1.7903040349483490e-01</leafValues></_>
    <_>
      <internalNodes>
        0 -1 6350 744500256 875593638 -476039554 -1506787422 1852589888
        1018559351 2068185584 78646352</internalNodes>
      <leafValues>
        -5.3859549760818481e-01 4.7943178564310074e-02</leafValues></_>
    <_>
      <internalNodes>
        0 -1 680 -875503812 -1075610009 -130308417 -1607291104
        1953781813 2033416499 -1040562463 -193526169</internalNodes>
      <leafValues>
        -1.8384496867656708e-01 1.3772115111351013e-01</leafValues></_>
    <_>
      <internalNodes>
        0 -1 4195 -839584772 -1082738899 -541130889 -1711401365
        -1107689655 1593659379 -50792067 -1111541135</internalNodes>
      <leafValues>
        -1.4072766900062561e-01 1.8353678286075592e-01</leafValues></_>
    <_>
      <internalNodes>
        0 -1 4459 -232214544 351187861 -548853763 -1082283356 -476685851
        -19763315 1397071871 -1347588597</internalNodes>
      <leafValues>
        -1.1849581450223923e-01 2.0680028200149536e-01</leafValues></_>
    <_>
      <internalNodes>
        0 -1 2154 -959169068 390618461 -1079304856 1006504890
        -2127113056 -192644631 -508550524 134220336</internalNodes>
      <leafValues>
        -2.7056798338890076e-01 9.4285219907760620e-02</leafValues></_>
    <_>
      <internalNodes>
        0 -1 9068 -277302147 1382612861 855291127 283299775 -1418215937
        -597170347 -1510097449 -232161263</internalNodes>
      <leafValues>
        -1.4578276872634888e-01 1.6861481964588165e-01</leafValues></_>
    <_>
      <internalNodes>
        0 -1 2179 1030173315 -302337233 -2048836609 1039201653 416016307
        -352485140 1978049464 9339047</internalNodes>
      <leafValues>
        -1.6546246409416199e-01 1.4997112751007080e-01</leafValues></_>
    <_>
      <internalNodes>
        0 -1 9998 -1599181484 779925086 719250422 595477100 375277873
        1072098807 1154426080 1152057297</internalNodes>
      <leafValues>
        -2.6468759775161743e-01 9.2237032949924469e-02</leafValues></_>
    <_>
      <internalNodes>
        0 -1 536 -822087437 -252807669 -645374198 631197509 1172596080
        -660444617 -151833584 1446200575</internalNodes>
      <leafValues>
        -1.6510426998138428e-01 1.4702297747135162e-01</leafValues></_>
    <_>
      <internalNodes>
        0 -1 2951 -352826224 659381847 -180368 1039285115 -290652163
        1073577967 -578849262 -1798257260</internalNodes>
      <leafValues>
        -2.0498725771903992e-01 1.2174814939498901e-01</leafValues></_>
    <_>
      <internalNodes>
        0 -1 301 769998607 -172376586 2147368823 2100395366 -1348145186
        -24477765 1458634719 1304554546</internalNodes>
      <leafValues>
        -1.2911404669284821e-01 1.9203254580497742e-01</leafValues></_>
    <_>
      <internalNodes>
        0 -1 4899 417455676 617079022 -765480208 215868231 1948257881
        352479302 941570672 350054645</internalNodes>
      <leafValues>
        -3.0038583278656006e-01 8.2858525216579437e-02</leafValues></_>
    <_>
      <internalNodes>
        0 -1 8065 1176808213 -1105023179 -13946887 1639104344 147019245
        -302909643 1574702332 627048706</internalNodes>
      <leafValues>
        -2.1718603372573853e-01 1.1438668519258499e-01</leafValues></_>
    <_>
      <internalNodes>
        0 -1 306 -1967198674 2002845616 -201982233 -36357004 1020329690
        -1132808334 1061289371 -10108585</internalNodes>
      <leafValues>
        -1.4758382737636566e-01 1.6928884387016296e-01</leafValues></_>
    <_>
      <internalNodes>
        0 -1 3134 -1665786336 -1646981709 -1663492860 410232292
        1911105128 198245101 -2029044553 113583188</internalNodes>
      <leafValues>
        -2.6543012261390686e-01 9.3077421188354492e-02</leafValues></_>
    <_>
      <internalNodes>
        0 -1 2994 1168792757 2004669724 -275563564 2142900056 -986354879
        1066757947 -2014233699 -365330884</internalNodes>
      <leafValues>
        -1.8512634932994843e-01 1.3200585544109344e-01</leafValues></_>
    <_>
      <internalNodes>
        0 -1 9830 -487135357 2103590569 654234148 -1125993952 1496925964
        -515492075 -452991250 -780694206</internalNodes>
      <leafValues>
        -1.4093837141990662e-01 1.8180651962757111e-01</leafValues></_>
    <_>
      <internalNodes>
        0 -1 691 1021475864 -430344995 117717454 -1141065749 1307857592
        -99362 2038200056 1355048778</internalNodes>
      <leafValues>
        -2.5594255328178406e-01 1.0052198916673660e-01</leafValues></_>
    <_>
      <internalNodes>
        0 -1 9583 -930878030 -548363201 2008309355 -248332975 -918582039
        -320930330 -196907780 947366935</internalNodes>
      <leafValues>
        -1.4505034685134888e-01 1.7062270641326904e-01</leafValues></_>
    <_>
      <internalNodes>
        0 -1 4690 640948004 -1176721489 -322191640 -1092698514
        -370053164 803930043 1073076980 -1583342336</internalNodes>
      <leafValues>
        -2.7413657307624817e-01 9.2026598751544952e-02</leafValues></_>
    <_>
      <internalNodes>
        0 -1 546 1735392064 -1396852932 -4423899 -682664977 133275963
        -638141331 -681105538 -17050425</internalNodes>
      <leafValues>
        -1.1568433791399002e-01 2.1969668567180634e-01</leafValues></_>
    <_>
      <internalNodes>
        0 -1 8335 -219937595 1369858003 -1074315461 666241006 972318141
        -1746916450 -17150403 471084295</internalNodes>
      <leafValues>
        -1.8490785360336304e-01 1.3493214547634125e-01</leafValues></_>
    <_>
      <internalNodes>
        0 -1 928 -597442302 730759050 -525659680 -406373378 -1805080629
        1270668973 1959609010 -169617473</internalNodes>
      <leafValues>
        -1.2460395693778992e-01 2.0251025259494781e-01</leafValues></_>
    <_>
      <internalNodes>
        0 -1 5256 -81793632 1141934137 308603608 1352836850 1463649736
        2047933007 -1351129944 167882273</internalNodes>
      <leafValues>
        -2.3641049861907959e-01 1.0343640297651291e-01</leafValues></_>
    <_>
      <internalNodes>
        0 -1 2991 473130692 1716220450 620212980 263893426 1043733506
        -1352771737 1018768358 537215814</internalNodes>
      <leafValues>
        -2.7871891856193542e-01 8.9014247059822083e-02</leafValues></_>
    <_>
      <internalNodes>
        0 -1 9660 -868703740 1344876 -656725468 15314594 -1667528832
        442718687 1459577956 12514414</internalNodes>
      <leafValues>
        -3.1944239139556885e-01 7.4275724589824677e-02</leafValues></_>
    <_>
      <internalNodes>
        0 -1 2192 2095509557 -1673205203 330132479 -16017057 1827446423
        -340657816 1274511279 -308338937</internalNodes>
      <leafValues>
        -9.3744188547134399e-02 2.6832604408264160e-01</leafValues></_>
    <_>
      <internalNodes>
        0 -1 1788 -933341778 500742795 971543837 770106387 -1780986884
        -4215782 -643450964 418691254</internalNodes>
      <leafValues>
        -2.3590649664402008e-01 1.0750765353441238e-01</leafValues></_>
    <_>
      <internalNodes>
        0 -1 8841 1381355929 2098311831 -1196652025 564587449 556747949
        1561697909 -2072199941 -94119249</internalNodes>
      <leafValues>
        -1.1533012241125107e-01 2.1855308115482330e-01</leafValues></_>
    <_>
      <internalNodes>
        0 -1 3867 550546128 -1569424441 -233529589 -1075795281
        -731505211 1994176653 -1948816407 1151672838</internalNodes>
      <leafValues>
        -2.2740073502063751e-01 1.0811012238264084e-01</leafValues></_>
    <_>
      <internalNodes>
        0 -1 8979 -390100035 -571070035 -455910499 -2120256547
        -1981953111 -1126360193 184544717 1611644996</internalNodes>
      <leafValues>
        -1.6620673239231110e-01 1.4904774725437164e-01</leafValues></_>
    <_>
      <internalNodes>
        0 -1 628 -286103760 -785045036 1112955642 -1629483520 1357141760
        -1748748043 -621585088 1697732384</internalNodes>
      <leafValues>
        -2.9970198869705200e-01 8.2636810839176178e-02</leafValues></_>
    <_>
      <internalNodes>
        0 -1 6721 609496356 530102105 1610427026 -1078416842 -300697194
        -1216550426 -19129131 -1431435744</internalNodes>
      <leafValues>
        -2.2912631928920746e-01 1.0624422132968903e-01</leafValues></_>
    <_>
      <internalNodes>
        0 -1 9174 -395031516 1451161249 -521950070 -1299824706 -88273331
        723209189 -402766168 -1508742141</internalNodes>
      <leafValues>
        -1.9493426382541656e-01 1.2812072038650513e-01</leafValues></_>
    <_>
      <internalNodes>
        0 -1 1649 -84633950 75282606 1850502377 906149761 -1864942666
        1309965250 943794844 71525219</internalNodes>
      <leafValues>
        -2.4618937075138092e-01 1.0224800556898117e-01</leafValues></_>
    <_>
      <internalNodes>
        0 -1 19 -836511166 -1277123822 1667777533 -142260111 -1012053621
        -1073761359 1836435635 972625123</internalNodes>
      <leafValues>
        -1.5823125839233398e-01 1.5787564218044281e-01</leafValues></_>
    <_>
      <internalNodes>
        0 -1 5983 744027668 1006915141 -1232430376 -1127260413
        1613832632 -1804117669 -541246818 139517984</internalNodes>
      <leafValues>
        -2.6439857482910156e-01 9.4764418900012970e-02</leafValues></_></weakClassifiers></stage7>
</opencv_storage>
