<?xml version="1.0"?>
<opencv_storage>
<stage16>
  <maxWeakCount>53</maxWeakCount>
  <stageThreshold>-1.8039048910140991e+00</stageThreshold>
  <weakClassifiers>
    <_>
      <internalNodes>
        0 -1 23476 -2.8485449729487300e-04</internalNodes>
      <leafValues>
        8.1592038273811340e-02 -5.0577509403228760e-01</leafValues></_>
    <_>
      <internalNodes>
        0 -1 244173 1.3090664520859718e-02</internalNodes>
      <leafValues>
        1.1161047965288162e-01 -6.0325032472610474e-01</leafValues></_>
    <_>
      <internalNodes>
        0 -1 704 -5.1416144706308842e-03</internalNodes>
      <leafValues>
        3.6766380071640015e-01 -1.9768752157688141e-01</leafValues></_>
    <_>
      <internalNodes>
        0 -1 586240 -3.1553939334116876e-04</internalNodes>
      <leafValues>
        1.6460397839546204e-01 -5.2382194995880127e-01</leafValues></_>
    <_>
      <internalNodes>
        0 -1 447079 -1.6617059009149671e-04</internalNodes>
      <leafValues>
        -5.0158655643463135e-01 1.3259543478488922e-01</leafValues></_>
    <_>
      <internalNodes>
        0 -1 699530 1.2886263430118561e-03</internalNodes>
      <leafValues>
        -2.1028864383697510e-01 3.1417846679687500e-01</leafValues></_>
    <_>
      <internalNodes>
        0 -1 536672 1.5406089369207621e-03</internalNodes>
      <leafValues>
        -1.9653646647930145e-01 3.0043059587478638e-01</leafValues></_>
    <_>
      <internalNodes>
        0 -1 699679 1.6230463515967131e-03</internalNodes>
      <leafValues>
        -1.6698448359966278e-01 3.6364990472793579e-01</leafValues></_>
    <_>
      <internalNodes>
        0 -1 600029 -4.9429340288043022e-04</internalNodes>
      <leafValues>
        -3.8618999719619751e-01 1.2879298627376556e-01</leafValues></_>
    <_>
      <internalNodes>
        0 -1 412792 4.8511556815356016e-04</internalNodes>
      <leafValues>
        7.6502516865730286e-02 -6.0868197679519653e-01</leafValues></_>
    <_>
      <internalNodes>
        0 -1 34614 -1.6279469127766788e-04</internalNodes>
      <leafValues>
        1.4629873633384705e-01 -3.2228776812553406e-01</leafValues></_>
    <_>
      <internalNodes>
        0 -1 323689 1.1259887367486954e-02</internalNodes>
      <leafValues>
        -2.2935901582241058e-01 2.0439639687538147e-01</leafValues></_>
    <_>
      <internalNodes>
        0 -1 674368 -3.7081036716699600e-03</internalNodes>
      <leafValues>
        2.8783324360847473e-01 -1.6616989672183990e-01</leafValues></_>
    <_>
      <internalNodes>
        0 -1 487313 1.0810031380970031e-04</internalNodes>
      <leafValues>
        7.5053542852401733e-02 -5.4504209756851196e-01</leafValues></_>
    <_>
      <internalNodes>
        0 -1 697264 2.1994127891957760e-03</internalNodes>
      <leafValues>
        -1.9457054138183594e-01 2.4468545615673065e-01</leafValues></_>
    <_>
      <internalNodes>
        0 -1 368577 -2.0477545331232250e-04</internalNodes>
      <leafValues>
        -3.6567097902297974e-01 1.3699391484260559e-01</leafValues></_>
    <_>
      <internalNodes>
        0 -1 132974 1.3675759546458721e-03</internalNodes>
      <leafValues>
        -1.3219135999679565e-01 3.8725510239601135e-01</leafValues></_>
    <_>
      <internalNodes>
        0 -1 237143 -1.8917270004749298e-02</internalNodes>
      <leafValues>
        -4.7460135817527771e-01 1.0397188365459442e-01</leafValues></_>
    <_>
      <internalNodes>
        0 -1 694064 -1.6128427814692259e-03</internalNodes>
      <leafValues>
        3.7333470582962036e-01 -1.2368014454841614e-01</leafValues></_>
    <_>
      <internalNodes>
        0 -1 694835 -3.6137779243290424e-03</internalNodes>
      <leafValues>
        4.7842127084732056e-01 -9.1766297817230225e-02</leafValues></_>
    <_>
      <internalNodes>
        0 -1 641856 -7.6309600844979286e-03</internalNodes>
      <leafValues>
        -6.8789780139923096e-01 6.7537263035774231e-02</leafValues></_>
    <_>
      <internalNodes>
        0 -1 276720 -1.9188331207260489e-03</internalNodes>
      <leafValues>
        1.8461187183856964e-01 -2.2615996003150940e-01</leafValues></_>
    <_>
      <internalNodes>
        0 -1 629466 -6.8555900361388922e-04</internalNodes>
      <leafValues>
        2.0349892973899841e-01 -2.4264734983444214e-01</leafValues></_>
    <_>
      <internalNodes>
        0 -1 19270 6.8845867644995451e-04</internalNodes>
      <leafValues>
        -1.5268385410308838e-01 2.9941862821578979e-01</leafValues></_>
    <_>
      <internalNodes>
        0 -1 160533 9.3327439390122890e-04</internalNodes>
      <leafValues>
        1.2781113386154175e-01 -3.5379782319068909e-01</leafValues></_>
    <_>
      <internalNodes>
        0 -1 398009 -6.6172517836093903e-03</internalNodes>
      <leafValues>
        4.0516966581344604e-01 -1.2009621411561966e-01</leafValues></_>
    <_>
      <internalNodes>
        0 -1 553914 -2.8103690128773451e-03</internalNodes>
      <leafValues>
        7.2918879985809326e-01 -4.3454814702272415e-02</leafValues></_>
    <_>
      <internalNodes>
        0 -1 699924 1.4969266885600518e-05</internalNodes>
      <leafValues>
        -3.1056028604507446e-01 1.2557782232761383e-01</leafValues></_>
    <_>
      <internalNodes>
        0 -1 520517 7.0995986461639404e-03</internalNodes>
      <leafValues>
        -9.5007188618183136e-02 4.5636957883834839e-01</leafValues></_>
    <_>
      <internalNodes>
        0 -1 534018 -9.5288194715976715e-03</internalNodes>
      <leafValues>
        4.1643446683883667e-01 -8.4488876163959503e-02</leafValues></_>
    <_>
      <internalNodes>
        0 -1 190476 -5.9415260329842567e-04</internalNodes>
      <leafValues>
        -3.0433043837547302e-01 1.1968517303466797e-01</leafValues></_>
    <_>
      <internalNodes>
        0 -1 511263 -1.2456036638468504e-03</internalNodes>
      <leafValues>
        1.8596035242080688e-01 -2.0392620563507080e-01</leafValues></_>
    <_>
      <internalNodes>
        0 -1 493194 -1.3431112747639418e-03</internalNodes>
      <leafValues>
        -8.3619320392608643e-01 4.2733788490295410e-02</leafValues></_>
    <_>
      <internalNodes>
        0 -1 672702 -8.4810407133772969e-04</internalNodes>
      <leafValues>
        3.3700239658355713e-01 -1.1263401806354523e-01</leafValues></_>
    <_>
      <internalNodes>
        0 -1 625467 5.9830999816767871e-06</internalNodes>
      <leafValues>
        -1.7478318512439728e-01 2.0553401112556458e-01</leafValues></_>
    <_>
      <internalNodes>
        0 -1 561402 -5.4434139747172594e-04</internalNodes>
      <leafValues>
        -3.6845514178276062e-01 1.0438726097345352e-01</leafValues></_>
    <_>
      <internalNodes>
        0 -1 683812 1.1258714366704226e-03</internalNodes>
      <leafValues>
        -1.3460473716259003e-01 2.7617847919464111e-01</leafValues></_>
    <_>
      <internalNodes>
        0 -1 683989 -2.7966836933046579e-04</internalNodes>
      <leafValues>
        -3.3734971284866333e-01 1.1833958327770233e-01</leafValues></_>
    <_>
      <internalNodes>
        0 -1 123330 -9.4827255234122276e-03</internalNodes>
      <leafValues>
        -3.0301079154014587e-01 1.4019709825515747e-01</leafValues></_>
    <_>
      <internalNodes>
        0 -1 43684 -3.7476618308573961e-03</internalNodes>
      <leafValues>
        1.9734400510787964e-01 -2.0244495570659637e-01</leafValues></_>
    <_>
      <internalNodes>
        0 -1 428669 -9.6806976944208145e-03</internalNodes>
      <leafValues>
        5.5495566129684448e-01 -7.0908613502979279e-02</leafValues></_>
    <_>
      <internalNodes>
        0 -1 207418 2.6230702642351389e-03</internalNodes>
      <leafValues>
        -1.2911501526832581e-01 2.9737713932991028e-01</leafValues></_>
    <_>
      <internalNodes>
        0 -1 565303 -1.0636594146490097e-02</internalNodes>
      <leafValues>
        3.0330422520637512e-01 -1.3415043056011200e-01</leafValues></_>
    <_>
      <internalNodes>
        0 -1 289574 1.7570005729794502e-02</internalNodes>
      <leafValues>
        6.2296431511640549e-02 -6.6566711664199829e-01</leafValues></_>
    <_>
      <internalNodes>
        0 -1 671660 -4.5069111511111259e-03</internalNodes>
      <leafValues>
        7.6411640644073486e-01 -5.8870621025562286e-02</leafValues></_>
    <_>
      <internalNodes>
        0 -1 480557 2.2141376975923777e-03</internalNodes>
      <leafValues>
        -1.8183320760726929e-01 2.1621653437614441e-01</leafValues></_>
    <_>
      <internalNodes>
        0 -1 673888 1.3286491855978966e-02</internalNodes>
      <leafValues>
        -9.8518684506416321e-02 4.0509402751922607e-01</leafValues></_>
    <_>
      <internalNodes>
        0 -1 677805 -1.7058533558156341e-05</internalNodes>
      <leafValues>
        1.2499940395355225e-01 -3.1149572134017944e-01</leafValues></_>
    <_>
      <internalNodes>
        0 -1 550911 -1.5029551461338997e-02</internalNodes>
      <leafValues>
        2.7297207713127136e-01 -1.4816591143608093e-01</leafValues></_>
    <_>
      <internalNodes>
        0 -1 223201 -1.9599019651650451e-05</internalNodes>
      <leafValues>
        1.2842503190040588e-01 -2.9811066389083862e-01</leafValues></_>
    <_>
      <internalNodes>
        0 -1 114050 1.1364033445715904e-02</internalNodes>
      <leafValues>
        4.7528911381959915e-02 -7.6914596557617188e-01</leafValues></_>
    <_>
      <internalNodes>
        0 -1 211427 2.6697118300944567e-04</internalNodes>
      <leafValues>
        -1.6166017949581146e-01 2.5774312019348145e-01</leafValues></_>
    <_>
      <internalNodes>
        0 -1 140877 -2.6469761505723000e-03</internalNodes>
      <leafValues>
        -6.9280952215194702e-01 5.9856042265892029e-02</leafValues></_></weakClassifiers></stage16>
</opencv_storage>
