<?xml version="1.0"?>
<opencv_storage>
<stage12>
  <maxWeakCount>39</maxWeakCount>
  <stageThreshold>-1.8826135396957397e+00</stageThreshold>
  <weakClassifiers>
    <_>
      <internalNodes>
        0 -1 19338 -3.6858660168945789e-03</internalNodes>
      <leafValues>
        6.6779375076293945e-02 -5.6509882211685181e-01</leafValues></_>
    <_>
      <internalNodes>
        0 -1 696234 9.3747832579538226e-05</internalNodes>
      <leafValues>
        -6.1892139911651611e-01 1.2422982603311539e-01</leafValues></_>
    <_>
      <internalNodes>
        0 -1 9034 -2.3769191466271877e-03</internalNodes>
      <leafValues>
        2.9636010527610779e-01 -3.0549183487892151e-01</leafValues></_>
    <_>
      <internalNodes>
        0 -1 356143 1.0668573668226600e-04</internalNodes>
      <leafValues>
        8.3427406847476959e-02 -7.3268085718154907e-01</leafValues></_>
    <_>
      <internalNodes>
        0 -1 692511 -1.0444042709423229e-04</internalNodes>
      <leafValues>
        1.2644942104816437e-01 -5.8565646409988403e-01</leafValues></_>
    <_>
      <internalNodes>
        0 -1 208681 2.7047112584114075e-02</internalNodes>
      <leafValues>
        -1.1072934418916702e-01 6.6596329212188721e-01</leafValues></_>
    <_>
      <internalNodes>
        0 -1 699052 1.4021245297044516e-03</internalNodes>
      <leafValues>
        -2.4776016175746918e-01 2.7293625473976135e-01</leafValues></_>
    <_>
      <internalNodes>
        0 -1 380348 5.4321288189385086e-05</internalNodes>
      <leafValues>
        1.0428630560636520e-01 -6.1314964294433594e-01</leafValues></_>
    <_>
      <internalNodes>
        0 -1 34619 -7.6149561209604144e-05</internalNodes>
      <leafValues>
        1.5251147747039795e-01 -4.1547358036041260e-01</leafValues></_>
    <_>
      <internalNodes>
        0 -1 198730 -2.6208572089672089e-02</internalNodes>
      <leafValues>
        -6.6555559635162354e-01 9.2079997062683105e-02</leafValues></_>
    <_>
      <internalNodes>
        0 -1 325411 5.2886657416820526e-02</internalNodes>
      <leafValues>
        -8.7957531213760376e-02 8.4791034460067749e-01</leafValues></_>
    <_>
      <internalNodes>
        0 -1 101380 1.7258558655157685e-03</internalNodes>
      <leafValues>
        -1.5562988817691803e-01 3.8527697324752808e-01</leafValues></_>
    <_>
      <internalNodes>
        0 -1 694963 -1.1564292944967747e-03</internalNodes>
      <leafValues>
        4.4986137747764587e-01 -1.4060746133327484e-01</leafValues></_>
    <_>
      <internalNodes>
        0 -1 688526 2.7325522387400270e-04</internalNodes>
      <leafValues>
        1.5791034698486328e-01 -4.8926925659179688e-01</leafValues></_>
    <_>
      <internalNodes>
        0 -1 696550 1.3178603257983923e-03</internalNodes>
      <leafValues>
        -1.8434689939022064e-01 3.3967798948287964e-01</leafValues></_>
    <_>
      <internalNodes>
        0 -1 369668 -1.5828880714252591e-04</internalNodes>
      <leafValues>
        -4.5011726021766663e-01 1.2493123114109039e-01</leafValues></_>
    <_>
      <internalNodes>
        0 -1 282988 5.8918213471770287e-04</internalNodes>
      <leafValues>
        -2.8837624192237854e-01 1.9086423516273499e-01</leafValues></_>
    <_>
      <internalNodes>
        0 -1 488747 6.7098997533321381e-04</internalNodes>
      <leafValues>
        8.4005929529666901e-02 -6.2757819890975952e-01</leafValues></_>
    <_>
      <internalNodes>
        0 -1 672716 3.4819410648196936e-03</internalNodes>
      <leafValues>
        -1.2841084599494934e-01 4.2815709114074707e-01</leafValues></_>
    <_>
      <internalNodes>
        0 -1 403435 1.8452963558956981e-04</internalNodes>
      <leafValues>
        1.2749044597148895e-01 -4.5010164380073547e-01</leafValues></_>
    <_>
      <internalNodes>
        0 -1 679137 -1.1655824491754174e-03</internalNodes>
      <leafValues>
        4.4082093238830566e-01 -1.4156584441661835e-01</leafValues></_>
    <_>
      <internalNodes>
        0 -1 68715 -7.2943061590194702e-02</internalNodes>
      <leafValues>
        -7.3137181997299194e-01 8.1050433218479156e-02</leafValues></_>
    <_>
      <internalNodes>
        0 -1 488747 -8.8583398610353470e-04</internalNodes>
      <leafValues>
        -6.0427951812744141e-01 7.0082835853099823e-02</leafValues></_>
    <_>
      <internalNodes>
        0 -1 372761 -4.0801120921969414e-03</internalNodes>
      <leafValues>
        3.5696023702621460e-01 -1.4551883935928345e-01</leafValues></_>
    <_>
      <internalNodes>
        0 -1 307107 -8.0548048019409180e-02</internalNodes>
      <leafValues>
        3.4708508849143982e-01 -1.5787978470325470e-01</leafValues></_>
    <_>
      <internalNodes>
        0 -1 164494 2.2486480884253979e-03</internalNodes>
      <leafValues>
        -1.2314317375421524e-01 4.4681340456008911e-01</leafValues></_>
    <_>
      <internalNodes>
        0 -1 114859 -3.5578265786170959e-02</internalNodes>
      <leafValues>
        -7.1629995107650757e-01 7.4571363627910614e-02</leafValues></_>
    <_>
      <internalNodes>
        0 -1 344672 8.4805088117718697e-03</internalNodes>
      <leafValues>
        1.0344834625720978e-01 -4.4892090559005737e-01</leafValues></_>
    <_>
      <internalNodes>
        0 -1 664765 -2.2964645177125931e-04</internalNodes>
      <leafValues>
        3.8963603973388672e-01 -1.2704303860664368e-01</leafValues></_>
    <_>
      <internalNodes>
        0 -1 672214 -6.1665498651564121e-04</internalNodes>
      <leafValues>
        3.0040678381919861e-01 -1.6174411773681641e-01</leafValues></_>
    <_>
      <internalNodes>
        0 -1 29054 -2.2272148635238409e-03</internalNodes>
      <leafValues>
        4.7219726443290710e-01 -1.0159132629632950e-01</leafValues></_>
    <_>
      <internalNodes>
        0 -1 161724 -2.5471131084486842e-04</internalNodes>
      <leafValues>
        -6.8942511081695557e-01 8.3351686596870422e-02</leafValues></_>
    <_>
      <internalNodes>
        0 -1 16179 -4.8026558943092823e-04</internalNodes>
      <leafValues>
        2.4773263931274414e-01 -2.0284655690193176e-01</leafValues></_>
    <_>
      <internalNodes>
        0 -1 657677 -1.0721622966229916e-03</internalNodes>
      <leafValues>
        -3.6618450284004211e-01 1.2344761192798615e-01</leafValues></_>
    <_>
      <internalNodes>
        0 -1 257814 5.6465216912329197e-03</internalNodes>
      <leafValues>
        5.9263806790113449e-02 -7.2250509262084961e-01</leafValues></_>
    <_>
      <internalNodes>
        0 -1 166069 1.8848152831196785e-03</internalNodes>
      <leafValues>
        -1.4138992130756378e-01 3.2193362712860107e-01</leafValues></_>
    <_>
      <internalNodes>
        0 -1 193891 1.0427082888782024e-03</internalNodes>
      <leafValues>
        -1.2131331115961075e-01 3.6437270045280457e-01</leafValues></_>
    <_>
      <internalNodes>
        0 -1 487323 -2.0892344764433801e-04</internalNodes>
      <leafValues>
        -4.0396803617477417e-01 1.1409114301204681e-01</leafValues></_>
    <_>
      <internalNodes>
        0 -1 673556 4.3812077492475510e-03</internalNodes>
      <leafValues>
        -1.6010347008705139e-01 2.7577924728393555e-01</leafValues></_></weakClassifiers></stage12>
</opencv_storage>
