<?xml version="1.0"?>
<opencv_storage>
<stage18>
  <maxWeakCount>100</maxWeakCount>
  <stageThreshold>-1.8282423019409180e+00</stageThreshold>
  <weakClassifiers>
    <_>
      <internalNodes>
        0 -1 4936 -17834249 -3672610 -138420513 -1578802 -142803012
        -147898677 -553863429 -1899058678</internalNodes>
      <leafValues>
        -4.0225961804389954e-01 -8.0672405660152435e-02</leafValues></_>
    <_>
      <internalNodes>
        0 -1 2643 -276830302 -888995890 -1374543566 -739266818
        -879776371 4521742 2000074640 1676935163</internalNodes>
      <leafValues>
        -1.5253528952598572e-01 1.2558537721633911e-01</leafValues></_>
    <_>
      <internalNodes>
        0 -1 6641 -248516957 -506 -1234919621 -101982447 -322222114
        -508609105 -1198540631 -617904882</internalNodes>
      <leafValues>
        -7.8483857214450836e-02 2.1291078627109528e-01</leafValues></_>
    <_>
      <internalNodes>
        0 -1 114 -545122928 1671018902 -1793921707 1033053987
        -1799088914 -1329345859 1538920190 1931441731</internalNodes>
      <leafValues>
        -1.3607910275459290e-01 1.1368871480226517e-01</leafValues></_>
    <_>
      <internalNodes>
        0 -1 9009 -98502912 -1600592192 -1083935984 -2136940946
        923858677 -1996451276 1763164405 67117636</internalNodes>
      <leafValues>
        -3.1039869785308838e-01 4.3596286326646805e-02</leafValues></_>
    <_>
      <internalNodes>
        0 -1 421 -286535937 -536905041 -1997721837 -168862813
        -1241542161 1357804139 619831391 -202151937</internalNodes>
      <leafValues>
        -4.2297076433897018e-02 2.3651501536369324e-01</leafValues></_>
    <_>
      <internalNodes>
        0 -1 24 1728229371 2134042098 -42397327 534410752 -827330561
        -9179233 401565371 -1186061</internalNodes>
      <leafValues>
        -7.2792015969753265e-02 1.9738830626010895e-01</leafValues></_>
    <_>
      <internalNodes>
        0 -1 602 -605564033 -1654040872 1211120663 825868890 1951721412
        1953328178 -438501729 1960272366</internalNodes>
      <leafValues>
        -9.7550399601459503e-02 1.3172480463981628e-01</leafValues></_>
    <_>
      <internalNodes>
        0 -1 9540 -202172260 386923968 989211387 379509395 -105948786
        1496170048 -1440416006 269215295</internalNodes>
      <leafValues>
        -8.5999026894569397e-02 1.4202435314655304e-01</leafValues></_>
    <_>
      <internalNodes>
        0 -1 113 560217888 613725747 1235323940 245245058 30676274
        97800985 930705248 1339884343</internalNodes>
      <leafValues>
        -2.1469506621360779e-01 5.4703969508409500e-02</leafValues></_>
    <_>
      <internalNodes>
        0 -1 5997 3194229 -631998535 2032440187 1032875317 -976131600
        -1183371099 -1544275975 -1432086252</internalNodes>
      <leafValues>
        -1.3822884857654572e-01 8.8510848581790924e-02</leafValues></_>
    <_>
      <internalNodes>
        0 -1 1918 1472643516 519743641 17100048 -550205966 -721228632
        -1161887986 402521008 -906111691</internalNodes>
      <leafValues>
        -1.3370223343372345e-01 8.9324250817298889e-02</leafValues></_>
    <_>
      <internalNodes>
        0 -1 623 1323018739 -125339551 2130177457 1841555215 1341471235
        534705824 -537709441 -537156625</internalNodes>
      <leafValues>
        -6.7053437232971191e-02 1.9368211925029755e-01</leafValues></_>
    <_>
      <internalNodes>
        0 -1 1192 -792787935 -504906079 -251714702 1977855708 1610510029
        216002541 -189832992 -1058538502</internalNodes>
      <leafValues>
        -9.5770128071308136e-02 1.2145932018756866e-01</leafValues></_>
    <_>
      <internalNodes>
        0 -1 9938 -41952033 -543201313 207551601 1934876239 -1823756850
        -1352761840 -1124946721 -75497489</internalNodes>
      <leafValues>
        -4.0445577353239059e-02 3.1138592958450317e-01</leafValues></_>
    <_>
      <internalNodes>
        0 -1 7763 -83697820 2115011152 1922797296 -1586330888 1495031776
        1033903192 1582590500 134236376</internalNodes>
      <leafValues>
        -2.5061377882957458e-01 4.6156913042068481e-02</leafValues></_>
    <_>
      <internalNodes>
        0 -1 3786 142608384 1442618432 145324115 568347596 963774208
        -391570995 1046547424 17040128</internalNodes>
      <leafValues>
        -3.4913673996925354e-01 2.9986938461661339e-02</leafValues></_>
    <_>
      <internalNodes>
        0 -1 8772 -1683576981 -88461711 -1905349969 752531628
        -1361299465 1720020960 930508149 -20992565</internalNodes>
      <leafValues>
        -7.4540816247463226e-02 1.5174645185470581e-01</leafValues></_>
    <_>
      <internalNodes>
        0 -1 4558 -290787413 1340255659 -1140976592 -620824916 206530541
        1323237309 897576436 -973342756</internalNodes>
      <leafValues>
        -9.3099035322666168e-02 1.1890678107738495e-01</leafValues></_>
    <_>
      <internalNodes>
        0 -1 2057 135407016 458110728 -63348747 2133385376 106995644
        -1719920299 692393097 238027286</internalNodes>
      <leafValues>
        -2.0232968032360077e-01 5.2090007811784744e-02</leafValues></_>
    <_>
      <internalNodes>
        0 -1 680 -1093720319 1307326318 1874783358 1741077312 611614541
        -1930134797 -436263264 -724134446</internalNodes>
      <leafValues>
        -1.2430133670568466e-01 9.2321231961250305e-02</leafValues></_>
    <_>
      <internalNodes>
        0 -1 9875 -928596420 -578276427 1064613630 -1324943401 648948911
        -790180 -1437723220 676219906</internalNodes>
      <leafValues>
        -1.3011522591114044e-01 8.5654102265834808e-02</leafValues></_>
    <_>
      <internalNodes>
        0 -1 6341 829751285 -223019449 914006267 -1303535361 -898919187
        -935498569 -910395521 1869575950</internalNodes>
      <leafValues>
        -8.9618772268295288e-02 1.2671199440956116e-01</leafValues></_>
    <_>
      <internalNodes>
        0 -1 761 -255600705 1898184503 2092760351 -1187774925 1170601431
        -126353545 -278659473 -363630681</internalNodes>
      <leafValues>
        -6.1386775225400925e-02 1.7747388780117035e-01</leafValues></_>
    <_>
      <internalNodes>
        0 -1 6922 1113006642 978559861 387960302 830916486 1902978213
        -1792417042 1878263168 750002208</internalNodes>
      <leafValues>
        -1.5342381596565247e-01 6.9315880537033081e-02</leafValues></_>
    <_>
      <internalNodes>
        0 -1 8992 -1120145729 -1839182089 -1658397129 -1749619590
        -141603350 1547664221 979052508 -324024525</internalNodes>
      <leafValues>
        -7.3751576244831085e-02 1.4796477556228638e-01</leafValues></_>
    <_>
      <internalNodes>
        0 -1 158 359332003 958123218 148312701 -475839071 1553789270
        1777536413 -22213123 117435544</internalNodes>
      <leafValues>
        -1.0133618116378784e-01 1.0712610930204391e-01</leafValues></_>
    <_>
      <internalNodes>
        0 -1 5205 1079025426 732558204 -384285059 1510996295 1271829407
        -575687764 106799072 32553984</internalNodes>
      <leafValues>
        -1.7802324891090393e-01 6.1744406819343567e-02</leafValues></_>
    <_>
      <internalNodes>
        0 -1 726 1105068938 2092229076 1767647529 197628166 1201997542
        1056340550 2002089377 2083739856</internalNodes>
      <leafValues>
        -1.5068644285202026e-01 7.2393186390399933e-02</leafValues></_>
    <_>
      <internalNodes>
        0 -1 81 -1044202604 1170465032 -486539534 -453299664 2147320767
        -203097646 507600322 2096951522</internalNodes>
      <leafValues>
        -1.1829067766666412e-01 9.1746367514133453e-02</leafValues></_>
    <_>
      <internalNodes>
        0 -1 1898 -1072684896 668375126 1997787016 880163937 1240603985
        685838757 -124775132 281359426</internalNodes>
      <leafValues>
        -2.1028460562229156e-01 5.0242934376001358e-02</leafValues></_>
    <_>
      <internalNodes>
        0 -1 2993 946871565 1816548191 -856973508 -1335703624 -723860140
        337375615 -52646612 87344316</internalNodes>
      <leafValues>
        -1.7624449729919434e-01 6.1299595981836319e-02</leafValues></_>
    <_>
      <internalNodes>
        0 -1 791 -797252633 -1872028737 737254327 938945407 1332954325
        -1608171532 2145078127 1016581926</internalNodes>
      <leafValues>
        -8.5041046142578125e-02 1.2579651176929474e-01</leafValues></_>
    <_>
      <internalNodes>
        0 -1 8500 644624172 73168887 -1420088914 -1574007006 1616660245
        357922805 -2030675084 363856840</internalNodes>
      <leafValues>
        -2.7925240993499756e-01 3.8562167435884476e-02</leafValues></_>
    <_>
      <internalNodes>
        0 -1 4385 2097017027 741728087 347069500 2113138223 -865363525
        -608182841 -675848771 -919911665</internalNodes>
      <leafValues>
        -6.5447844564914703e-02 1.7100937664508820e-01</leafValues></_>
    <_>
      <internalNodes>
        0 -1 1557 779370372 72641338 375141060 145796669 382945860
        -3884700 -505673442 315376644</internalNodes>
      <leafValues>
        -2.0475767552852631e-01 5.3232263773679733e-02</leafValues></_>
    <_>
      <internalNodes>
        0 -1 5685 -51466767 1047527394 -671404112 -85017000 600697839
        268394476 1852116982 -1010829348</internalNodes>
      <leafValues>
        -8.1009469926357269e-02 1.3272191584110260e-01</leafValues></_>
    <_>
      <internalNodes>
        0 -1 4432 -655575921 641251226 -1380116229 -1319849357
        2078883721 1942878103 2142237631 -1467096503</internalNodes>
      <leafValues>
        -9.0813353657722473e-02 1.1853718012571335e-01</leafValues></_>
    <_>
      <internalNodes>
        0 -1 2462 1013659792 896173346 1541513968 372061904 390996267
        177498088 35586497 478459046</internalNodes>
      <leafValues>
        -1.5855748951435089e-01 6.7288443446159363e-02</leafValues></_>
    <_>
      <internalNodes>
        0 -1 2760 240264484 153681668 869576384 644017120 1541691408
        1682253021 1188543124 70545472</internalNodes>
      <leafValues>
        -3.0159801244735718e-01 3.5284433513879776e-02</leafValues></_>
    <_>
      <internalNodes>
        0 -1 9896 -38998069 1481075801 1862097783 -1146675376 660032549
        -63088963 1549135589 -526391565</internalNodes>
      <leafValues>
        -6.5018475055694580e-02 1.6844943165779114e-01</leafValues></_>
    <_>
      <internalNodes>
        0 -1 9799 75769412 1421934056 -807539853 2926564 211110516
        1778000679 2005473168 3152992</internalNodes>
      <leafValues>
        -3.6078476905822754e-01 3.0549703165888786e-02</leafValues></_>
    <_>
      <internalNodes>
        0 -1 794 -512367010 -257021691 -1844381056 1254811335 1200940448
        -64595405 569537922 1381195799</internalNodes>
      <leafValues>
        -1.3873805105686188e-01 7.7803343534469604e-02</leafValues></_>
    <_>
      <internalNodes>
        0 -1 3634 1113778608 -1104766601 -2039002437 -1545098455
        1086810020 1602825 1470324364 947208515</internalNodes>
      <leafValues>
        -1.1255541443824768e-01 9.5547795295715332e-02</leafValues></_>
    <_>
      <internalNodes>
        0 -1 3370 1416600345 -479768834 917969914 -302700359 1149169466
        -1258653715 1457977512 -1196456950</internalNodes>
      <leafValues>
        -7.7034510672092438e-02 1.4321403205394745e-01</leafValues></_>
    <_>
      <internalNodes>
        0 -1 2423 2027538748 1490854326 -1526852100 -1645716926
        -375867478 -1169759236 1974462937 -376690441</internalNodes>
      <leafValues>
        -9.7305029630661011e-02 1.1176347732543945e-01</leafValues></_>
    <_>
      <internalNodes>
        0 -1 491 -833164877 16157283 280503180 1483312857 1240893548
        733817723 266748160 -1961133753</internalNodes>
      <leafValues>
        -1.1681990325450897e-01 9.3115396797657013e-02</leafValues></_>
    <_>
      <internalNodes>
        0 -1 1170 1550843571 -550278161 1806638911 1462480583 -911239685
        -50563529 -826687558 -622858273</internalNodes>
      <leafValues>
        -4.5556247234344482e-02 2.4694463610649109e-01</leafValues></_>
    <_>
      <internalNodes>
        0 -1 7911 1314665992 -1205113196 -1771028729 -1344089474
        -972369196 -1800440965 1000145060 -732422288</internalNodes>
      <leafValues>
        -1.6636690497398376e-01 6.6171407699584961e-02</leafValues></_>
    <_>
      <internalNodes>
        0 -1 4860 1618321062 377452381 -229271886 -1254616418 820377084
        745855734 1979256120 1702533434</internalNodes>
      <leafValues>
        -1.2331123650074005e-01 9.3082368373870850e-02</leafValues></_>
    <_>
      <internalNodes>
        0 -1 5349 -1325729135 -171594899 -1132475864 -33585969
        1433079774 -625471632 -1245343818 -817896309</internalNodes>
      <leafValues>
        -7.0828124880790710e-02 1.6291913390159607e-01</leafValues></_>
    <_>
      <internalNodes>
        0 -1 9991 -1904869401 262793015 -18444 -1296386218 1156478687
        1828093813 1155335408 -168056674</internalNodes>
      <leafValues>
        -8.2746088504791260e-02 1.3281771540641785e-01</leafValues></_>
    <_>
      <internalNodes>
        0 -1 7789 104884021 -164561123 -1089242507 -1174655121
        1465975668 -598918763 -1929496188 -2105730012</internalNodes>
      <leafValues>
        -1.4576146006584167e-01 7.6018117368221283e-02</leafValues></_>
    <_>
      <internalNodes>
        0 -1 2301 -661669901 -1632747582 438963185 -1160781168 927981563
        -812765247 1606756072 -648165717</internalNodes>
      <leafValues>
        -6.5451040863990784e-02 1.7161689698696136e-01</leafValues></_>
    <_>
      <internalNodes>
        0 -1 5258 841322284 908568616 1398404019 -1094480963 838166592
        1828279484 -353037374 2047132105</internalNodes>
      <leafValues>
        -1.4252582192420959e-01 7.5989745557308197e-02</leafValues></_>
    <_>
      <internalNodes>
        0 -1 9556 549584896 477265716 -638408592 591578342 1511261184
        -1907611054 971253496 212893236</internalNodes>
      <leafValues>
        -2.9192796349525452e-01 3.7819035351276398e-02</leafValues></_>
    <_>
      <internalNodes>
        0 -1 4185 1346886375 1697886015 930601517 2129838020 -59131971
        -1724301577 -939567938 1513850795</internalNodes>
      <leafValues>
        -7.5841501355171204e-02 1.4743775129318237e-01</leafValues></_>
    <_>
      <internalNodes>
        0 -1 3680 1683756292 647626733 1238377437 821171695 1844772212
        1215153237 1049748520 87435564</internalNodes>
      <leafValues>
        -1.7931821942329407e-01 6.1293311417102814e-02</leafValues></_>
    <_>
      <internalNodes>
        0 -1 645 -654404086 -2055766231 626355685 -30997829 -330027894
        510076221 -240692702 -19869501</internalNodes>
      <leafValues>
        -1.0286372900009155e-01 1.0756998509168625e-01</leafValues></_>
    <_>
      <internalNodes>
        0 -1 9930 -184882141 2100847435 -1363372804 -1068302596
        486140932 474147143 1144716336 -261695534</internalNodes>
      <leafValues>
        -1.1548760533332825e-01 9.6521049737930298e-02</leafValues></_>
    <_>
      <internalNodes>
        0 -1 9462 1937751807 2137439863 -1376838281 -72368518 1926287343
        -570452549 -135797249 -881</internalNodes>
      <leafValues>
        -3.7073642015457153e-02 3.0256187915802002e-01</leafValues></_>
    <_>
      <internalNodes>
        0 -1 411 1567553243 -1648715070 -1109259473 294703332
        -1086688272 -710721767 -839986901 1777260995</internalNodes>
      <leafValues>
        -8.0465681850910187e-02 1.3447320461273193e-01</leafValues></_>
    <_>
      <internalNodes>
        0 -1 8510 208447620 303144253 -1992539187 1639615488 536236832
        1136386542 903621477 1751254784</internalNodes>
      <leafValues>
        -1.9075958430767059e-01 5.5658742785453796e-02</leafValues></_>
    <_>
      <internalNodes>
        0 -1 78 221679028 1904263320 -1806460303 -1211290696 213798850
        -442461723 1172134624 -1788247501</internalNodes>
      <leafValues>
        -1.3266862928867340e-01 8.1084437668323517e-02</leafValues></_>
    <_>
      <internalNodes>
        0 -1 562 2062257141 2095173558 -1796237473 327782388 -373764610
        -1426139210 -1499378195 2112354195</internalNodes>
      <leafValues>
        -7.5443446636199951e-02 1.4459618926048279e-01</leafValues></_>
    <_>
      <internalNodes>
        0 -1 1871 1186938695 1945954738 2044159094 652139712 1199363651
        -704836762 1873382880 -185242047</internalNodes>
      <leafValues>
        -1.2564828991889954e-01 8.6713425815105438e-02</leafValues></_>
    <_>
      <internalNodes>
        0 -1 1072 -930470282 649118962 2024542884 710728886 -1933229572
        -302129017 -1180183146 136176844</internalNodes>
      <leafValues>
        -1.4733433723449707e-01 7.5000114738941193e-02</leafValues></_>
    <_>
      <internalNodes>
        0 -1 4258 2100256 175930645 -1409789998 -1708479710 135022933
        213188444 -389137168 338955104</internalNodes>
      <leafValues>
        -3.1040680408477783e-01 3.4425158053636551e-02</leafValues></_>
    <_>
      <internalNodes>
        0 -1 3468 1182783792 -2071374001 1178587 -382693393 167630097
        -615678202 -189983234 617790739</internalNodes>
      <leafValues>
        -1.1679647862911224e-01 9.4258628785610199e-02</leafValues></_>
    <_>
      <internalNodes>
        0 -1 2947 -101454029 -571675012 -1124640389 -1210795969
        1154183093 -769218766 -145539123 -1420363448</internalNodes>
      <leafValues>
        -7.2235427796840668e-02 1.5905568003654480e-01</leafValues></_>
    <_>
      <internalNodes>
        0 -1 2911 340509128 74317000 298653626 72037589 1736765886
        -2083062300 -70183977 1086270199</internalNodes>
      <leafValues>
        -1.2646423280239105e-01 9.4477087259292603e-02</leafValues></_>
    <_>
      <internalNodes>
        0 -1 5876 620148610 1107038736 -8260173 1152446075 1434301696
        -185140683 2102246204 1144175904</internalNodes>
      <leafValues>
        -1.6451866924762726e-01 7.0846818387508392e-02</leafValues></_>
    <_>
      <internalNodes>
        0 -1 8101 1809166197 -1487285446 1865690361 -474286236 234503674
        -1644835493 414131194 -2137615238</internalNodes>
      <leafValues>
        -1.0015347599983215e-01 1.0967991501092911e-01</leafValues></_>
    <_>
      <internalNodes>
        0 -1 9270 648029488 217250149 -1761690242 -1148801080 1146450389
        1307434359 435757700 1314308</internalNodes>
      <leafValues>
        -3.0109220743179321e-01 3.6134708672761917e-02</leafValues></_>
    <_>
      <internalNodes>
        0 -1 4119 1607038815 -370086935 2122065887 434990327 -9564833
        -1208492833 -134853933 -549454901</internalNodes>
      <leafValues>
        -4.8003137111663818e-02 2.3499506711959839e-01</leafValues></_>
    <_>
      <internalNodes>
        0 -1 1447 -287592107 -293776472 1095521044 1573452525 113004839
        -50660613 -340402264 940736912</internalNodes>
      <leafValues>
        -1.1952482908964157e-01 9.5907270908355713e-02</leafValues></_>
    <_>
      <internalNodes>
        0 -1 325 -1661998217 -1916581140 92142675 -226670085 -311111689
        1374565145 -50861747 -137689906</internalNodes>
      <leafValues>
        -6.8896621465682983e-02 1.6839481890201569e-01</leafValues></_>
    <_>
      <internalNodes>
        0 -1 1361 1362005200 180006336 -1250943755 -135952176 256156684
        -1372991585 20451792 8215200</internalNodes>
      <leafValues>
        -1.6020640730857849e-01 7.2128742933273315e-02</leafValues></_>
    <_>
      <internalNodes>
        0 -1 4043 72884744 579741452 52964914 -1415554720 352080868
        718790985 339757040 1311748</internalNodes>
      <leafValues>
        -3.6769473552703857e-01 2.9683388769626617e-02</leafValues></_>
    <_>
      <internalNodes>
        0 -1 2963 275708818 1349299711 1407410984 -1546982742 -948860075
        1920387950 1982202729 1477525504</internalNodes>
      <leafValues>
        -1.4966301620006561e-01 7.3056176304817200e-02</leafValues></_>
    <_>
      <internalNodes>
        0 -1 8710 804266785 805343285 1280717374 1068021562 -1470533148
        -302875649 1447768040 603989858</internalNodes>
      <leafValues>
        -2.0301951467990875e-01 5.3276166319847107e-02</leafValues></_>
    <_>
      <internalNodes>
        0 -1 3490 -1008293072 -1344030739 867942296 -1266729802
        -1749687635 208994175 -841402412 -1258317896</internalNodes>
      <leafValues>
        -1.0318275541067123e-01 1.1166825890541077e-01</leafValues></_>
    <_>
      <internalNodes>
        0 -1 5481 1406378478 269771272 568146880 -934092857 -894334105
        -592345241 -1418249616 -2142402043</internalNodes>
      <leafValues>
        -1.4007541537284851e-01 7.8690022230148315e-02</leafValues></_>
    <_>
      <internalNodes>
        0 -1 9908 -58782691 1529972575 83303474 -1307613585 1535061198
        -1134724233 -524528150 -200421410</internalNodes>
      <leafValues>
        -8.5779190063476562e-02 1.2983743846416473e-01</leafValues></_>
    <_>
      <internalNodes>
        0 -1 4480 -131406461 1730805642 251645556 -360744080 497526971
        1257299678 -1221347561 1171258943</internalNodes>
      <leafValues>
        -9.0394772589206696e-02 1.2302112579345703e-01</leafValues></_>
    <_>
      <internalNodes>
        0 -1 2103 -647990479 1064666046 623984259 1304424703 1977495682
        -608051755 -207664598 -883146022</internalNodes>
      <leafValues>
        -8.2905113697052002e-02 1.3309913873672485e-01</leafValues></_>
    <_>
      <internalNodes>
        0 -1 585 -2013027522 629681706 -1768380000 215002838 -962256364
        -192054893 1922770528 392382177</internalNodes>
      <leafValues>
        -1.8112614750862122e-01 6.7657135426998138e-02</leafValues></_>
    <_>
      <internalNodes>
        0 -1 2815 1557433329 1418303395 2020455477 249539239 -495611908
        996944799 1978736659 -627247291</internalNodes>
      <leafValues>
        -9.6341684460639954e-02 1.1928696930408478e-01</leafValues></_>
    <_>
      <internalNodes>
        0 -1 5494 68484037 1555439365 -1235503107 -1748568834 -613950025
        2121468799 1004439492 25197866</internalNodes>
      <leafValues>
        -1.4866901934146881e-01 7.6290465891361237e-02</leafValues></_>
    <_>
      <internalNodes>
        0 -1 3184 -1683039785 -661350937 346542407 -1122290735
        -999130155 -1077006436 -1361460211 -956568486</internalNodes>
      <leafValues>
        -7.1111030876636505e-02 1.6081269085407257e-01</leafValues></_>
    <_>
      <internalNodes>
        0 -1 9198 612369696 1655584726 -1467269392 673582376 477393221
        1865718607 1995178272 70266372</internalNodes>
      <leafValues>
        -4.1430830955505371e-01 2.7004858478903770e-02</leafValues></_>
    <_>
      <internalNodes>
        0 -1 9543 -1023956081 1919974461 -911052310 -676177415
        -1507477577 -1087736329 829749751 -538183201</internalNodes>
      <leafValues>
        -5.3334113210439682e-02 2.1627669036388397e-01</leafValues></_>
    <_>
      <internalNodes>
        0 -1 7829 1489510536 -200163552 -71399152 930795390 1351111901
        -556793965 475191711 2097184</internalNodes>
      <leafValues>
        -2.1030509471893311e-01 5.5639147758483887e-02</leafValues></_>
    <_>
      <internalNodes>
        0 -1 7631 -395404331 -372053832 -370461961 -35096349 -1832237092
        -1099563699 -246011653 -87038201</internalNodes>
      <leafValues>
        -7.1201063692569733e-02 1.6124138236045837e-01</leafValues></_>
    <_>
      <internalNodes>
        0 -1 9809 947650776 285626960 -427639426 -1570227675 1362757640
        1608789836 877419540 805385232</internalNodes>
      <leafValues>
        -2.2657914459705353e-01 5.0749219954013824e-02</leafValues></_>
    <_>
      <internalNodes>
        0 -1 4660 1024785189 -339689504 -1077979894 -1243611462
        133169127 1131411037 -1229621788 -2048229474</internalNodes>
      <leafValues>
        -1.0360550135374069e-01 1.0641007870435715e-01</leafValues></_>
    <_>
      <internalNodes>
        0 -1 235 -769729588 448255173 1030132054 1265694519 1678023348
        -2054938007 -30393652 1138176577</internalNodes>
      <leafValues>
        -1.3312444090843201e-01 8.3956785500049591e-02</leafValues></_>
    <_>
      <internalNodes>
        0 -1 927 74067744 1011621560 -668999580 512081614 -165534124
        680103492 -1466510908 46427972</internalNodes>
      <leafValues>
        -2.6597562432289124e-01 4.1424188762903214e-02</leafValues></_>
    <_>
      <internalNodes>
        0 -1 1163 -915447829 -1011753565 -1511517763 -724699933
        -636357636 -93261907 -855782948 -120605477</internalNodes>
      <leafValues>
        -5.9229016304016113e-02 1.9394691288471222e-01</leafValues></_>
    <_>
      <internalNodes>
        0 -1 446 -168827437 1528278696 -1648477477 1540095668 -617615891
        -556671381 -1124816245 -338952449</internalNodes>
      <leafValues>
        -4.6831347048282623e-02 2.3988099396228790e-01</leafValues></_></weakClassifiers></stage18>
</opencv_storage>
