<?xml version="1.0"?>
<opencv_storage>
<stage0>
  <maxWeakCount>38</maxWeakCount>
  <stageThreshold>-2.1531901359558105e+00</stageThreshold>
  <weakClassifiers>
    <_>
      <internalNodes>
        0 -1 415 -286327042 -6750285 -892274576 -168692750 1140909296
        1890874851 1414918645 -201852941</internalNodes>
      <leafValues>
        -5.6122118234634399e-01 1.3428080081939697e-01</leafValues></_>
    <_>
      <internalNodes>
        0 -1 7398 -600769028 -33800193 -134397953 -213027 -2229251
        -393219 -81924 -1080555520</internalNodes>
      <leafValues>
        -3.1977376341819763e-01 3.7357625365257263e-01</leafValues></_>
    <_>
      <internalNodes>
        0 -1 792 -80601 -201949377 -536957022 -218977302 -169605611
        2104983415 -38324464 -136085646</internalNodes>
      <leafValues>
        -2.9295897483825684e-01 3.6125418543815613e-01</leafValues></_>
    <_>
      <internalNodes>
        0 -1 2789 -823332882 -117638168 -2494585 -35787314 -94044228
        -117653602 -9060722 -15390838</internalNodes>
      <leafValues>
        -2.7804431319236755e-01 3.0887168645858765e-01</leafValues></_>
    <_>
      <internalNodes>
        0 -1 1859 -809573344 573489058 -421580256 -386995098 1696726789
        72203030 -155769600 -402653662</internalNodes>
      <leafValues>
        -3.1018641591072083e-01 2.6569196581840515e-01</leafValues></_>
    <_>
      <internalNodes>
        0 -1 44 -966724894 822256627 1739609713 292628081 1143317480
        -40787278 -300419409 838170583</internalNodes>
      <leafValues>
        -2.6402166485786438e-01 2.4827757477760315e-01</leafValues></_>
    <_>
      <internalNodes>
        0 -1 7389 74726708 -151716041 -4212803 -1073860850 -1074512907
        -1082271937 -101241601 -1361835772</internalNodes>
      <leafValues>
        -2.9947438836097717e-01 2.0397862792015076e-01</leafValues></_>
    <_>
      <internalNodes>
        0 -1 680 -269506813 -1607536849 -46739466 -222123244 385349205
        1147469685 -1514273280 -154716414</internalNodes>
      <leafValues>
        -2.3587509989738464e-01 2.5697442889213562e-01</leafValues></_>
    <_>
      <internalNodes>
        0 -1 9930 -218117876 1249897319 -1526810370 -489506242
        -159388668 2084958039 -151065080 -218382593</internalNodes>
      <leafValues>
        -2.0313929021358490e-01 2.7427482604980469e-01</leafValues></_>
    <_>
      <internalNodes>
        0 -1 1311 1556130548 -218301443 965978400 1066541736 1144076732
        2094280691 -11173972 11867968</internalNodes>
      <leafValues>
        -3.1753712892532349e-01 1.6855299472808838e-01</leafValues></_>
    <_>
      <internalNodes>
        0 -1 8198 773865269 -75621186 -1073767429 -1074520284
        -1082822731 -185225297 -1078902852 -1398010840</internalNodes>
      <leafValues>
        -2.3338223993778229e-01 2.0287504792213440e-01</leafValues></_>
    <_>
      <internalNodes>
        0 -1 3050 -503535984 1037155107 -808014177 -1711963225 47787933
        -101640783 -272290113 46473735</internalNodes>
      <leafValues>
        -2.2661937773227692e-01 1.9910143315792084e-01</leafValues></_>
    <_>
      <internalNodes>
        0 -1 9949 -998831100 800489291 -288575840 -1600245782 847185412
        75448157 -296017368 -226513110</internalNodes>
      <leafValues>
        -2.5190812349319458e-01 1.7824120819568634e-01</leafValues></_>
    <_>
      <internalNodes>
        0 -1 5391 -187695354 -93458899 -35828293 -34607485 -919952
        -43205131 -606218 -1602911581</internalNodes>
      <leafValues>
        -1.9018582999706268e-01 2.3013187944889069e-01</leafValues></_>
    <_>
      <internalNodes>
        0 -1 4165 1083483028 808777653 536850367 685549691 1547790325
        2105318325 -163102711 145557504</internalNodes>
      <leafValues>
        -2.9540997743606567e-01 1.5259832143783569e-01</leafValues></_>
    <_>
      <internalNodes>
        0 -1 7716 5252388 827108327 -39899140 -1073962050 2142584317
        -1623622935 -102421059 -1361310556</internalNodes>
      <leafValues>
        -2.6812297105789185e-01 1.5209440886974335e-01</leafValues></_>
    <_>
      <internalNodes>
        0 -1 432 -1057050710 1347871479 -137040080 33079698 1148219094
        -320053259 -702448 1967482658</internalNodes>
      <leafValues>
        -2.9970312118530273e-01 1.4418894052505493e-01</leafValues></_>
    <_>
      <internalNodes>
        0 -1 6270 -138627664 -1663656066 -1109643075 -1079133953
        -42223651 -1215025447 -1175318545 548220515</internalNodes>
      <leafValues>
        -1.9302879273891449e-01 2.1394421160221100e-01</leafValues></_>
    <_>
      <internalNodes>
        0 -1 392 -843976927 1724379116 -352335374 -198820954 -1124118699
        400748337 -168884624 -251679298</internalNodes>
      <leafValues>
        -1.8276479840278625e-01 2.2553925216197968e-01</leafValues></_>
    <_>
      <internalNodes>
        0 -1 769 -822679811 -592397345 -274862575 930621165 -1015953999
        -618314063 -406888583 999757314</internalNodes>
      <leafValues>
        -1.7767907679080963e-01 2.1722961962223053e-01</leafValues></_>
    <_>
      <internalNodes>
        0 -1 8965 -1537982928 918322811 -1141754145 -1074087426 -2786859
        -65511442 -180780 -1431424208</internalNodes>
      <leafValues>
        -2.4308720231056213e-01 1.5493829548358917e-01</leafValues></_>
    <_>
      <internalNodes>
        0 -1 760 -927142619 619069303 -1613201478 -495803680 1716879157
        1580563287 -1213229708 -218628238</internalNodes>
      <leafValues>
        -2.0341317355632782e-01 1.8259593844413757e-01</leafValues></_>
    <_>
      <internalNodes>
        0 -1 4805 1440016832 961847804 1465312255 1979617147 1162944439
        -17266179 -323014535 138084907</internalNodes>
      <leafValues>
        -1.9798327982425690e-01 1.8449985980987549e-01</leafValues></_>
    <_>
      <internalNodes>
        0 -1 6953 1963261472 1044126629 2126887708 -1349784960
        1945148881 -42713638 -1074063096 748948480</internalNodes>
      <leafValues>
        -3.1265622377395630e-01 1.1665779352188110e-01</leafValues></_>
    <_>
      <internalNodes>
        0 -1 911 1157571328 342031326 1021123993 233495389 -333468684
        1022120156 -75629644 -926036538</internalNodes>
      <leafValues>
        -2.2239798307418823e-01 1.6501210629940033e-01</leafValues></_>
    <_>
      <internalNodes>
        0 -1 3259 -273698901 -422641814 -1820602848 -136414486
        -1879078259 101056447 937947890 -419707218</internalNodes>
      <leafValues>
        -1.3421599566936493e-01 2.6917016506195068e-01</leafValues></_>
    <_>
      <internalNodes>
        0 -1 6791 -865818700 -1799772436 -1099014465 1069456062
        -271852100 -741385 -303055940 -1426215578</internalNodes>
      <leafValues>
        -1.7551769316196442e-01 2.0761822164058685e-01</leafValues></_>
    <_>
      <internalNodes>
        0 -1 8719 269528888 834464902 1733166893 -1896042454 250615703
        482093725 1739984824 8397831</internalNodes>
      <leafValues>
        -3.0985775589942932e-01 1.1097490787506104e-01</leafValues></_>
    <_>
      <internalNodes>
        0 -1 578 -866327916 -1813190690 -1067188008 -1352560665
        1373951221 1105209855 -155760400 1836344407</internalNodes>
      <leafValues>
        -2.5247955322265625e-01 1.3554501533508301e-01</leafValues></_>
    <_>
      <internalNodes>
        0 -1 4896 -1024028892 -19341953 -3195137 335158717 1576063429
        2105310672 -521191844 -1087364320</internalNodes>
      <leafValues>
        -2.1032211184501648e-01 1.6927509009838104e-01</leafValues></_>
    <_>
      <internalNodes>
        0 -1 1527 2088028910 -596057105 -436918012 -17695089 1920197457
        -77141666 -143289859 953619363</internalNodes>
      <leafValues>
        -2.0560614764690399e-01 1.7323593795299530e-01</leafValues></_>
    <_>
      <internalNodes>
        0 -1 9891 -184894091 -1073810007 -1367359756 -23052298
        1694471013 -436736145 -420278860 -1212440082</internalNodes>
      <leafValues>
        -1.4052000641822815e-01 2.4572233855724335e-01</leafValues></_>
    <_>
      <internalNodes>
        0 -1 3107 1623501488 586323859 2115866422 667227395 -607897672
        -1197674572 -50906865 820321863</internalNodes>
      <leafValues>
        -2.4834175407886505e-01 1.4134384691715240e-01</leafValues></_>
    <_>
      <internalNodes>
        0 -1 2461 -326389205 -948961297 -555896910 -22037260 501725144
        -1932198323 1131934868 -151009866</internalNodes>
      <leafValues>
        -1.3387669622898102e-01 2.5381502509117126e-01</leafValues></_>
    <_>
      <internalNodes>
        0 -1 2640 281851520 276545471 1507789752 787907809 1618945461
        -1124153362 1038067572 1009000524</internalNodes>
      <leafValues>
        -3.1908270716667175e-01 1.1033224314451218e-01</leafValues></_>
    <_>
      <internalNodes>
        0 -1 7331 217064740 379432815 1974841151 846351358 368426228
        -1078610952 -8972612 -1598290648</internalNodes>
      <leafValues>
        -2.7090013027191162e-01 1.2131696939468384e-01</leafValues></_>
    <_>
      <internalNodes>
        0 -1 9943 -203952841 1979121503 -152099882 -228605997 -285226674
        1819638605 -419577912 -152309825</internalNodes>
      <leafValues>
        -1.1042264103889465e-01 3.0852839350700378e-01</leafValues></_>
    <_>
      <internalNodes>
        0 -1 549 1660152355 -170737865 2112975736 -102182926 2041680406
        -571416616 -567029196 -44964169</internalNodes>
      <leafValues>
        -1.5490123629570007e-01 2.1024622023105621e-01</leafValues></_></weakClassifiers></stage0>
</opencv_storage>
