<?xml version="1.0"?>
<opencv_storage>
<stage16>
  <maxWeakCount>100</maxWeakCount>
  <stageThreshold>-1.8016978502273560e+00</stageThreshold>
  <weakClassifiers>
    <_>
      <internalNodes>
        0 -1 6031 -2102337 -74728769 -344873485 -1064969 -268454209
        -71618057 -336865281 -68967670</internalNodes>
      <leafValues>
        -3.7642499804496765e-01 -1.1919857934117317e-02</leafValues></_>
    <_>
      <internalNodes>
        0 -1 2644 -540016645 -540030038 -1346472591 -244324238
        1559211515 -1195717142 2011509719 -705692229</internalNodes>
      <leafValues>
        -8.0351471900939941e-02 2.8823393583297729e-01</leafValues></_>
    <_>
      <internalNodes>
        0 -1 858 1576714192 -1074662501 683969495 -1752065840 310681228
        -596566503 -566950418 1162162263</internalNodes>
      <leafValues>
        -1.5204505622386932e-01 1.1040731519460678e-01</leafValues></_>
    <_>
      <internalNodes>
        0 -1 792 -50539229 -138739841 -956403982 -1292703318 1164222263
        2070118261 -134242766 -140251405</internalNodes>
      <leafValues>
        -1.1229337751865387e-01 1.2900443375110626e-01</leafValues></_>
    <_>
      <internalNodes>
        0 -1 9909 -109063969 -103816113 -495340169 1944038943 -352851762
        -27297009 -490541365 -99357761</internalNodes>
      <leafValues>
        -4.8904825001955032e-02 2.9315838217735291e-01</leafValues></_>
    <_>
      <internalNodes>
        0 -1 6525 -78332935 -1078614025 -1980745361 -1614941185
        -68198915 -14867457 -539475969 -1349571793</internalNodes>
      <leafValues>
        -7.1046695113182068e-02 1.9642600417137146e-01</leafValues></_>
    <_>
      <internalNodes>
        0 -1 4296 214997405 -587719267 2012756667 1018599871 -723212883
        -2523681 1588648895 -1619779144</internalNodes>
      <leafValues>
        -7.3769070208072662e-02 1.6778074204921722e-01</leafValues></_>
    <_>
      <internalNodes>
        0 -1 293 -799342694 445031083 -1550644368 469573557 1100657332
        -2112279321 -1849200237 2039446215</internalNodes>
      <leafValues>
        -1.2576119601726532e-01 1.0922402888536453e-01</leafValues></_>
    <_>
      <internalNodes>
        0 -1 3208 1131238153 -293475825 -2073105427 1791917797 49804145
        -248540203 -1680000293 -118622257</internalNodes>
      <leafValues>
        -8.2695111632347107e-02 1.6059519350528717e-01</leafValues></_>
    <_>
      <internalNodes>
        0 -1 799 -643737133 -542664449 388578303 1610579963 1968596212
        -160411739 1257728795 1528254215</internalNodes>
      <leafValues>
        -8.8429108262062073e-02 1.5182958543300629e-01</leafValues></_>
    <_>
      <internalNodes>
        0 -1 1978 -860884101 2101787607 -672767205 -1158682233
        -371205717 -532530 -1225269541 -624953441</internalNodes>
      <leafValues>
        -6.1979450285434723e-02 2.4659159779548645e-01</leafValues></_>
    <_>
      <internalNodes>
        0 -1 6527 -591333129 -605162305 1843645819 1597858203 -547805946
        -59334949 -105546423 -608784758</internalNodes>
      <leafValues>
        -6.3746415078639984e-02 1.6927815973758698e-01</leafValues></_>
    <_>
      <internalNodes>
        0 -1 104 -1427233997 717655890 766602275 605825952 12326783
        860348310 1620329929 1824871411</internalNodes>
      <leafValues>
        -1.5212431550025940e-01 7.9925924539566040e-02</leafValues></_>
    <_>
      <internalNodes>
        0 -1 4325 -136265739 1978004766 -1547721866 -537020563
        1854415925 1694228223 -273072384 -1429272314</internalNodes>
      <leafValues>
        -9.8099574446678162e-02 1.2511071562767029e-01</leafValues></_>
    <_>
      <internalNodes>
        0 -1 549 -863853852 1371733280 -1929330032 -188459033
        -1984916512 -1921622160 1395773984 1058748</internalNodes>
      <leafValues>
        -2.2888085246086121e-01 5.5863820016384125e-02</leafValues></_>
    <_>
      <internalNodes>
        0 -1 809 1812725427 -1882214656 -1497682896 1921624512 373309327
        960515969 1923450777 -846404702</internalNodes>
      <leafValues>
        -1.0212043672800064e-01 1.1173930764198303e-01</leafValues></_>
    <_>
      <internalNodes>
        0 -1 9545 -485673184 723559457 777258081 2130729680 1010431394
        -365285196 -1271488603 -1633671264</internalNodes>
      <leafValues>
        -1.7414030432701111e-01 6.6668860614299774e-02</leafValues></_>
    <_>
      <internalNodes>
        0 -1 3923 -2059754830 390505762 223942512 -1211777764 246330811
        -1359469153 -2014501644 -857878177</internalNodes>
      <leafValues>
        -1.0689746588468552e-01 1.0664157569408417e-01</leafValues></_>
    <_>
      <internalNodes>
        0 -1 7653 1682997117 -1682989903 -1700057227 -230973924
        -402753551 -133186 -805927497 -610544337</internalNodes>
      <leafValues>
        -7.4513249099254608e-02 1.4472718536853790e-01</leafValues></_>
    <_>
      <internalNodes>
        0 -1 9901 -178271141 502262863 -1548829057 -364167322 2027874939
        -275032827 -1073561420 -249043429</internalNodes>
      <leafValues>
        -6.4732722938060760e-02 1.8075568974018097e-01</leafValues></_>
    <_>
      <internalNodes>
        0 -1 4065 -1334018587 -850911295 -2013341254 -404292870
        -1346376035 1866579671 -805423630 -1427551351</internalNodes>
      <leafValues>
        -9.6242271363735199e-02 1.1290061473846436e-01</leafValues></_>
    <_>
      <internalNodes>
        0 -1 3896 -1742566000 111452144 -1508725164 346226666 1551379338
        995310585 -296857586 544798332</internalNodes>
      <leafValues>
        -1.7009599506855011e-01 6.5688066184520721e-02</leafValues></_>
    <_>
      <internalNodes>
        0 -1 617 1490995699 1899724343 -1660606071 531084015 2087081244
        -273652805 1578566664 1834419879</internalNodes>
      <leafValues>
        -1.0578957945108414e-01 1.0970563441514969e-01</leafValues></_>
    <_>
      <internalNodes>
        0 -1 8500 -134738011 -444598293 -84202834 -1565611470 1961121151
        928282487 -537494540 -1778513953</internalNodes>
      <leafValues>
        -9.8500572144985199e-02 1.1293184012174606e-01</leafValues></_>
    <_>
      <internalNodes>
        0 -1 9680 -226558156 -1334274131 -718072552 902870880 176424959
        -765248873 1375012124 41911651</internalNodes>
      <leafValues>
        -1.2383639812469482e-01 8.7634541094303131e-02</leafValues></_>
    <_>
      <internalNodes>
        0 -1 4391 1497607377 -503210009 1741024155 734848495 -413165637
        -1390021713 -688056989 1020771938</internalNodes>
      <leafValues>
        -9.4923123717308044e-02 1.1785902082920074e-01</leafValues></_>
    <_>
      <internalNodes>
        0 -1 9615 -1189262331 -1805445436 209204430 842726582 -195040050
        -1805485513 -1695436760 1677884983</internalNodes>
      <leafValues>
        -1.3313819468021393e-01 8.1943094730377197e-02</leafValues></_>
    <_>
      <internalNodes>
        0 -1 8196 5779220 1760821676 976762196 670836918 -2022741179
        1744362365 2045846744 267632</internalNodes>
      <leafValues>
        -3.7427058815956116e-01 2.8448175638914108e-02</leafValues></_>
    <_>
      <internalNodes>
        0 -1 7668 1685426161 -1343321487 573383481 -392562000 -574826553
        -652518411 -706284301 -353322568</internalNodes>
      <leafValues>
        -1.0686465352773666e-01 1.0407810658216476e-01</leafValues></_>
    <_>
      <internalNodes>
        0 -1 2218 -2097803752 1054150448 -1592632417 -1904945103
        414189524 -1145668636 -1133474640 -1146054014</internalNodes>
      <leafValues>
        -1.4477364718914032e-01 7.5203120708465576e-02</leafValues></_>
    <_>
      <internalNodes>
        0 -1 684 -541359654 493352880 805023357 -1248678110 -916409968
        2146774757 -1923779170 1608770254</internalNodes>
      <leafValues>
        -8.8040463626384735e-02 1.2173940241336823e-01</leafValues></_>
    <_>
      <internalNodes>
        0 -1 79 -1943619276 -818917136 109467225 -1177429772 170844396
        -1146368303 1335115968 -1943929967</internalNodes>
      <leafValues>
        -1.6688998043537140e-01 6.5874896943569183e-02</leafValues></_>
    <_>
      <internalNodes>
        0 -1 5868 -1894843610 839137718 -1217251681 959032823 1258242514
        -1116205576 -1019809998 1919109967</internalNodes>
      <leafValues>
        -1.1342111229896545e-01 9.5099113881587982e-02</leafValues></_>
    <_>
      <internalNodes>
        0 -1 2886 106894214 880709839 1891655964 1030276686 -1979767659
        -1252741395 1989526104 -1978445388</internalNodes>
      <leafValues>
        -1.1854258179664612e-01 9.0282730758190155e-02</leafValues></_>
    <_>
      <internalNodes>
        0 -1 4208 -578036993 1040098239 1149053565 1639031799 1348787199
        -1107311106 -692883205 -47463441</internalNodes>
      <leafValues>
        -4.7617971897125244e-02 2.3122894763946533e-01</leafValues></_>
    <_>
      <internalNodes>
        0 -1 4522 -494752511 1642475169 -1409538912 1122658080
        1337806238 116713387 2011432544 1191016388</internalNodes>
      <leafValues>
        -1.5498390793800354e-01 7.3480688035488129e-02</leafValues></_>
    <_>
      <internalNodes>
        0 -1 8335 543690016 1872932520 -1012126432 -1143018726
        2054958557 1551891967 700190632 -1245944320</internalNodes>
      <leafValues>
        -1.6342501342296600e-01 6.9543942809104919e-02</leafValues></_>
    <_>
      <internalNodes>
        0 -1 3663 377459170 877326176 293144834 858530626 1499934161
        967108149 1049961224 739527169</internalNodes>
      <leafValues>
        -1.7717641592025757e-01 6.3696265220642090e-02</leafValues></_>
    <_>
      <internalNodes>
        0 -1 8051 -262111616 -1575558066 2096992246 -1515520337
        683325612 -2064597256 215353924 1210512435</internalNodes>
      <leafValues>
        -1.3601069152355194e-01 7.8538224101066589e-02</leafValues></_>
    <_>
      <internalNodes>
        0 -1 6267 8388656 641894570 606423156 -937123428 -595712174
        699456291 -1645195676 7340292</internalNodes>
      <leafValues>
        -3.4037017822265625e-01 3.3495079725980759e-02</leafValues></_>
    <_>
      <internalNodes>
        0 -1 5231 -680002249 1687732011 -53479 1976038068 124247469
        -1973764101 614956465 -825235470</internalNodes>
      <leafValues>
        -5.8356046676635742e-02 1.8213173747062683e-01</leafValues></_>
    <_>
      <internalNodes>
        0 -1 4082 1108651952 -163790989 1775450666 185379982 1084216087
        871882726 -1108182894 -2131819955</internalNodes>
      <leafValues>
        -1.2856766581535339e-01 8.4581308066844940e-02</leafValues></_>
    <_>
      <internalNodes>
        0 -1 1512 -1053042187 1735348997 1825736343 1328934718
        1448575187 -1892410601 1699699576 -876220273</internalNodes>
      <leafValues>
        -7.2900824248790741e-02 1.4676316082477570e-01</leafValues></_>
    <_>
      <internalNodes>
        0 -1 6065 -2142459480 -1469142376 983465484 -1379295884
        641007732 1063563891 2022449715 537665831</internalNodes>
      <leafValues>
        -1.9249852001667023e-01 5.5810149759054184e-02</leafValues></_>
    <_>
      <internalNodes>
        0 -1 2182 1152541844 187630456 581654053 37526188 1834004766
        -1628034083 872391716 821038128</internalNodes>
      <leafValues>
        -2.0704571902751923e-01 5.2135519683361053e-02</leafValues></_>
    <_>
      <internalNodes>
        0 -1 670 -2113940241 -668306805 89654156 1900011507 1375626592
        -550356653 -1112055238 -562043145</internalNodes>
      <leafValues>
        -7.3170833289623260e-02 1.5176135301589966e-01</leafValues></_>
    <_>
      <internalNodes>
        0 -1 9930 -234896381 2134730574 -151072578 1893661196 -320000316
        743436047 -160502130 -255602982</internalNodes>
      <leafValues>
        -7.9204246401786804e-02 1.3527469336986542e-01</leafValues></_>
    <_>
      <internalNodes>
        0 -1 6560 235407360 1915776596 -1773902228 966010933 1728988436
        -193492516 -928099955 235405356</internalNodes>
      <leafValues>
        -2.9222622513771057e-01 3.6203164607286453e-02</leafValues></_>
    <_>
      <internalNodes>
        0 -1 9725 -261092328 -672680227 -561896069 1905959395 -633928364
        -1149959803 -1503255080 -300721086</internalNodes>
      <leafValues>
        -1.1014860123395920e-01 9.5998972654342651e-02</leafValues></_>
    <_>
      <internalNodes>
        0 -1 7761 -365238657 103836285 -1355386977 -1107930511
        -780808756 -2062323775 -965267767 -1090520713</internalNodes>
      <leafValues>
        -7.2478733956813812e-02 1.5093991160392761e-01</leafValues></_>
    <_>
      <internalNodes>
        0 -1 818 1170906791 324841346 -1099455002 -1205685855 -524465063
        -1633039173 -1829229203 -328204586</internalNodes>
      <leafValues>
        -9.1796129941940308e-02 1.1917322874069214e-01</leafValues></_>
    <_>
      <internalNodes>
        0 -1 296 -236804187 -744364503 2006695824 -1244022418 379250671
        167337983 -1493773068 -2054559970</internalNodes>
      <leafValues>
        -7.9838961362838745e-02 1.3700897991657257e-01</leafValues></_>
    <_>
      <internalNodes>
        0 -1 3024 681716480 78964580 1117472418 14688416 986997
        875630949 -975369372 1079776981</internalNodes>
      <leafValues>
        -3.2306239008903503e-01 3.3005632460117340e-02</leafValues></_>
    <_>
      <internalNodes>
        0 -1 9289 -652174044 480772973 -1103170889 -1770866956
        -1636426936 1030981575 28120929 156053254</internalNodes>
      <leafValues>
        -1.5707835555076599e-01 6.9412857294082642e-02</leafValues></_>
    <_>
      <internalNodes>
        0 -1 397 -252708937 -8798285 -1677885967 -5903582 -1061171523
        -1883308033 946987515 -34359629</internalNodes>
      <leafValues>
        -4.7261297702789307e-02 2.3835861682891846e-01</leafValues></_>
    <_>
      <internalNodes>
        0 -1 9430 78908164 136884135 -560094148 318422436 1825902149
        1296328557 1148991812 543697988</internalNodes>
      <leafValues>
        -3.7480422854423523e-01 2.9526885598897934e-02</leafValues></_>
    <_>
      <internalNodes>
        0 -1 985 -576477230 -338763870 -1859377407 -559162714 1703740910
        -1898128467 -729980070 1284371706</internalNodes>
      <leafValues>
        -8.5386253893375397e-02 1.2708403170108795e-01</leafValues></_>
    <_>
      <internalNodes>
        0 -1 6774 1310043658 992131158 1751749510 -285300732 382990610
        -1910580301 -617228593 -72806415</internalNodes>
      <leafValues>
        -1.0498403012752533e-01 1.0501866787672043e-01</leafValues></_>
    <_>
      <internalNodes>
        0 -1 8459 2008708948 988809985 1873745061 645703796 692298213
        404116173 1780432340 769926320</internalNodes>
      <leafValues>
        -1.9082930684089661e-01 5.6941647082567215e-02</leafValues></_>
    <_>
      <internalNodes>
        0 -1 2090 -18428125 1982742480 -1115711563 -762597654 134064111
        -933232706 1857548786 -1376527970</internalNodes>
      <leafValues>
        -7.3058202862739563e-02 1.5085428953170776e-01</leafValues></_>
    <_>
      <internalNodes>
        0 -1 9555 -1489254949 -544494136 -406967887 -38151089 -480035705
        -622971269 542153675 1741286919</internalNodes>
      <leafValues>
        -6.6503755748271942e-02 1.6030415892601013e-01</leafValues></_>
    <_>
      <internalNodes>
        0 -1 5587 -1509219028 1455993958 1957563880 1547060929
        1960673209 907402719 -966600066 61785229</internalNodes>
      <leafValues>
        -1.3386309146881104e-01 8.1725113093852997e-02</leafValues></_>
    <_>
      <internalNodes>
        0 -1 8941 -1596210140 607818698 -1365531036 547536482 1153332724
        486897749 -111773076 552664886</internalNodes>
      <leafValues>
        -2.0832502841949463e-01 5.2121005952358246e-02</leafValues></_>
    <_>
      <internalNodes>
        0 -1 637 1559194454 422508912 707841569 603677326 -278364619
        -1946782260 -276826139 -540257825</internalNodes>
      <leafValues>
        -9.1219335794448853e-02 1.2088924646377563e-01</leafValues></_>
    <_>
      <internalNodes>
        0 -1 9770 146015780 640335277 1654535636 41569376 1214121516
        1014249823 1701205620 544229136</internalNodes>
      <leafValues>
        -3.7419325113296509e-01 3.0204815790057182e-02</leafValues></_>
    <_>
      <internalNodes>
        0 -1 5792 964452400 -831475958 -1620701282 643828851 940733908
        -1838343749 -1370529632 8932608</internalNodes>
      <leafValues>
        -2.2051963210105896e-01 4.7805286943912506e-02</leafValues></_>
    <_>
      <internalNodes>
        0 -1 473 -927486292 945949308 -1730435040 -1746367237 1623415660
        1874732521 -1735403357 1864086570</internalNodes>
      <leafValues>
        -1.1577147990465164e-01 9.5000103116035461e-02</leafValues></_>
    <_>
      <internalNodes>
        0 -1 2659 1421864751 798772337 502063569 -132522029 -746006785
        -1662271652 905156094 -1532643192</internalNodes>
      <leafValues>
        -8.5451029241085052e-02 1.3232669234275818e-01</leafValues></_>
    <_>
      <internalNodes>
        0 -1 5128 -1196691644 980281224 -98810638 754548076 363158246
        2100145982 1992172323 1960965245</internalNodes>
      <leafValues>
        -1.3939109444618225e-01 7.8637585043907166e-02</leafValues></_>
    <_>
      <internalNodes>
        0 -1 5392 82061061 1003518931 -302301584 -1556841670 309357845
        1835318484 1690789424 -2071969792</internalNodes>
      <leafValues>
        -2.1545936167240143e-01 5.1188383251428604e-02</leafValues></_>
    <_>
      <internalNodes>
        0 -1 2284 1417312685 -598347977 1006318397 266801119 -805341595
        -178237705 920626958 -1648471416</internalNodes>
      <leafValues>
        -8.0592289566993713e-02 1.3901346921920776e-01</leafValues></_>
    <_>
      <internalNodes>
        0 -1 2974 587002148 349573415 684284024 1030892156 1172195770
        437466628 -2020275119 338050052</internalNodes>
      <leafValues>
        -1.9579379260540009e-01 5.6695867329835892e-02</leafValues></_>
    <_>
      <internalNodes>
        0 -1 5704 14204328 1572204622 59483610 536556541 -1370996337
        -697010227 1826020085 -387240117</internalNodes>
      <leafValues>
        -1.0148937255144119e-01 1.1024381965398788e-01</leafValues></_>
    <_>
      <internalNodes>
        0 -1 1279 1134537190 1076706357 -1843746447 1822056694
        -2109711437 1817340893 164909827 -485708493</internalNodes>
      <leafValues>
        -1.1816292256116867e-01 9.5665670931339264e-02</leafValues></_>
    <_>
      <internalNodes>
        0 -1 6919 2021124087 1999941439 1270818398 664855502 -9996911
        -558612555 1417116891 -433592037</internalNodes>
      <leafValues>
        -7.4880294501781464e-02 1.5171763300895691e-01</leafValues></_>
    <_>
      <internalNodes>
        0 -1 1757 1351868515 316013623 1537771514 728013283 2093291078
        -165672722 -943395267 2045024516</internalNodes>
      <leafValues>
        -1.1863603442907333e-01 9.4579532742500305e-02</leafValues></_>
    <_>
      <internalNodes>
        0 -1 13 184708914 1062595649 379067409 589041713 1207797931
        -1955286064 1114662569 1558512099</internalNodes>
      <leafValues>
        -1.3823613524436951e-01 8.5246525704860687e-02</leafValues></_>
    <_>
      <internalNodes>
        0 -1 184 -541121104 1526881069 -1687223694 -1714401344
        -1078743827 1310785009 -134728524 -1313922307</internalNodes>
      <leafValues>
        -8.8022887706756592e-02 1.2668293714523315e-01</leafValues></_>
    <_>
      <internalNodes>
        0 -1 135 746789128 782690048 1694173794 752413904 2079873357
        1247126458 585397764 75552624</internalNodes>
      <leafValues>
        -2.8002139925956726e-01 4.0052697062492371e-02</leafValues></_>
    <_>
      <internalNodes>
        0 -1 520 -768349519 1466692401 -1682473198 -1183125652
        -1889806423 -1267008202 -1484311928 -572590165</internalNodes>
      <leafValues>
        -6.4958237111568451e-02 1.7648389935493469e-01</leafValues></_>
    <_>
      <internalNodes>
        0 -1 9994 1728232910 736639987 -539182157 1840361024 916727259
        -1883750671 -184783115 -662448461</internalNodes>
      <leafValues>
        -7.6047830283641815e-02 1.4524418115615845e-01</leafValues></_>
    <_>
      <internalNodes>
        0 -1 4560 204211216 789711382 -72060623 1053703344 500446584
        -1444548324 2105963029 800512</internalNodes>
      <leafValues>
        -3.7030708789825439e-01 3.0412970110774040e-02</leafValues></_>
    <_>
      <internalNodes>
        0 -1 1861 -707004517 -743443270 -268797955 1966602871
        -2119919638 -1195468912 1453046266 -84958837</internalNodes>
      <leafValues>
        -4.3619092553853989e-02 2.7165177464485168e-01</leafValues></_>
    <_>
      <internalNodes>
        0 -1 404 -1008398461 1080616498 -824726526 -1667083598
        2052143895 1215380305 -1797118272 1079307972</internalNodes>
      <leafValues>
        -2.0694281160831451e-01 5.6349970400333405e-02</leafValues></_>
    <_>
      <internalNodes>
        0 -1 7960 -286325664 -2097615094 -757228864 -1551996255
        879525725 -461293580 -851634331 -1559736503</internalNodes>
      <leafValues>
        -1.4507618546485901e-01 7.6003737747669220e-02</leafValues></_>
    <_>
      <internalNodes>
        0 -1 9460 -1053143647 -1769783761 1799797430 2107815850
        1778195639 1033701993 -61534244 -511424762</internalNodes>
      <leafValues>
        -1.0941694676876068e-01 1.0290777683258057e-01</leafValues></_>
    <_>
      <internalNodes>
        0 -1 3169 -651502541 938872618 857648208 2113356562 1298304398
        -755530656 2128047864 -438439269</internalNodes>
      <leafValues>
        -7.5809434056282043e-02 1.4788927137851715e-01</leafValues></_>
    <_>
      <internalNodes>
        0 -1 2376 82608224 1040196246 1040848047 -455001453 796245676
        -23295112 -1708015361 1275597893</internalNodes>
      <leafValues>
        -1.7494812607765198e-01 6.4152292907238007e-02</leafValues></_>
    <_>
      <internalNodes>
        0 -1 6917 181404672 177267492 -1676497166 -2138035586 309664591
        -1536400963 1123251525 6292744</internalNodes>
      <leafValues>
        -3.1829035282135010e-01 3.5029891878366470e-02</leafValues></_>
    <_>
      <internalNodes>
        0 -1 3686 1836036 224271933 -184655204 819483682 1108672880
        1951791981 1555065952 3184</internalNodes>
      <leafValues>
        -3.9856475591659546e-01 2.6006527245044708e-02</leafValues></_>
    <_>
      <internalNodes>
        0 -1 316 -90473665 -586158097 -562357081 -1779573269 -342167335
        -241926233 -816894581 -273940513</internalNodes>
      <leafValues>
        -4.8462901264429092e-02 2.3792470991611481e-01</leafValues></_>
    <_>
      <internalNodes>
        0 -1 9116 -1531040379 517746591 -945927228 -52281816 450264901
        1703400383 -157894916 910044994</internalNodes>
      <leafValues>
        -1.4765849709510803e-01 7.5926795601844788e-02</leafValues></_>
    <_>
      <internalNodes>
        0 -1 3036 522765506 440536391 -695481452 979802689 -110528691
        -935024405 -1904803579 -1641807518</internalNodes>
      <leafValues>
        -1.4238061010837555e-01 7.8857541084289551e-02</leafValues></_>
    <_>
      <internalNodes>
        0 -1 4162 1485791162 1849531749 1144317438 2024800138 -227654410
        -381761733 -967601576 -711212177</internalNodes>
      <leafValues>
        -8.5863865911960602e-02 1.3469338417053223e-01</leafValues></_>
    <_>
      <internalNodes>
        0 -1 7766 620635952 -1858827287 -900395493 -138538240 -827495951
        -1192183812 -1988579844 -1238979158</internalNodes>
      <leafValues>
        -1.2525787949562073e-01 9.1734312474727631e-02</leafValues></_>
    <_>
      <internalNodes>
        0 -1 4947 245378624 303999787 1863097386 181811876 187447413
        1467460291 574683040 545277184</internalNodes>
      <leafValues>
        -3.1620237231254578e-01 3.4779395908117294e-02</leafValues></_>
    <_>
      <internalNodes>
        0 -1 2504 -1135439365 1954674111 -1788496251 -1653999499
        1900371910 1642188261 1207317933 986563665</internalNodes>
      <leafValues>
        -9.2521116137504578e-02 1.2376639246940613e-01</leafValues></_>
    <_>
      <internalNodes>
        0 -1 6840 -723370124 1846951834 720249588 -1180042394 -721959183
        -1268941026 -134797603 -873471189</internalNodes>
      <leafValues>
        -8.5641942918300629e-02 1.2853784859180450e-01</leafValues></_>
    <_>
      <internalNodes>
        0 -1 1446 -830472497 -2028399108 887649813 -64767283 -688464433
        -1470734857 2066718284 -9440533</internalNodes>
      <leafValues>
        -6.0411937534809113e-02 1.8735870718955994e-01</leafValues></_>
    <_>
      <internalNodes>
        0 -1 9308 -606185003 -136611284 1014971776 -573716610
        -1963395908 1325230958 -1855162500 -96928785</internalNodes>
      <leafValues>
        -7.9025320708751678e-02 1.4567853510379791e-01</leafValues></_></weakClassifiers></stage16>
</opencv_storage>
