<?xml version="1.0"?>
<opencv_storage>
<stage4>
  <maxWeakCount>100</maxWeakCount>
  <stageThreshold>-1.8475221395492554e+00</stageThreshold>
  <weakClassifiers>
    <_>
      <internalNodes>
        0 -1 682 -67108873 -281819597 -940463241 -13369470 1081419255
        2113397111 -143174844 -143395005</internalNodes>
      <leafValues>
        -4.2677155137062073e-01 3.5407919436693192e-02</leafValues></_>
    <_>
      <internalNodes>
        0 -1 3259 -273678430 -273743890 1945756208 -540017742 100649931
        76414923 2012738035 -704649321</internalNodes>
      <leafValues>
        -1.7502012848854065e-01 2.3625192046165466e-01</leafValues></_>
    <_>
      <internalNodes>
        0 -1 7793 173021013 -53152779 -1080745985 -1075921025
        -1110130699 -458763 -1140867331 -1343475936</internalNodes>
      <leafValues>
        -2.2858412563800812e-01 1.6007177531719208e-01</leafValues></_>
    <_>
      <internalNodes>
        0 -1 4972 552646645 -1143865377 -67129345 -415747 -1417822209
        -147457 -1073857601 -1884551432</internalNodes>
      <leafValues>
        -1.1094005405902863e-01 2.9032042622566223e-01</leafValues></_>
    <_>
      <internalNodes>
        0 -1 421 -386203905 -574620737 -1914308688 -134227021
        -1846484574 1089895087 1962275287 -235408397</internalNodes>
      <leafValues>
        -1.3243250548839569e-01 2.2637382149696350e-01</leafValues></_>
    <_>
      <internalNodes>
        0 -1 592 -403181773 1109552546 -1132499472 -102841168
        -1041256481 -1923170307 -991452956 -521672906</internalNodes>
      <leafValues>
        -9.3017071485519409e-02 2.2476431727409363e-01</leafValues></_>
    <_>
      <internalNodes>
        0 -1 8166 1079787060 1060695999 2130512063 -1073838404
        1744138173 -1101512971 787425452 -1141043672</internalNodes>
      <leafValues>
        -1.8078613281250000e-01 1.3618889451026917e-01</leafValues></_>
    <_>
      <internalNodes>
        0 -1 9937 -3323 2053078807 -218125790 -1328554125 -268448948
        1848376869 -16857430 -218103841</internalNodes>
      <leafValues>
        -1.0522111505270004e-01 2.2577217221260071e-01</leafValues></_>
    <_>
      <internalNodes>
        0 -1 3489 -1035076790 2092491769 -78264393 418180321 -328155664
        -103945336 -11147867 -386621824</internalNodes>
      <leafValues>
        -2.0604896545410156e-01 1.1705660074949265e-01</leafValues></_>
    <_>
      <internalNodes>
        0 -1 1599 1092637156 -793457092 -1516567554 496905212 1970292708
        -516664396 1567914780 273702400</internalNodes>
      <leafValues>
        -2.5622621178627014e-01 9.0902015566825867e-02</leafValues></_>
    <_>
      <internalNodes>
        0 -1 277 -1019021962 -115181873 -537710713 -138991776 1436818915
        2092183538 1589489306 2011395299</internalNodes>
      <leafValues>
        -1.6261522471904755e-01 1.3367761671543121e-01</leafValues></_>
    <_>
      <internalNodes>
        0 -1 4877 -560144971 2119999861 1979273179 645029845 1894223279
        -268997153 -402913411 786368263</internalNodes>
      <leafValues>
        -1.2972584366798401e-01 1.5574760735034943e-01</leafValues></_>
    <_>
      <internalNodes>
        0 -1 776 -291590869 620590951 -587207558 586219378 617703285
        2115353911 -537921788 -254286778</internalNodes>
      <leafValues>
        -1.5727037191390991e-01 1.2980355322360992e-01</leafValues></_>
    <_>
      <internalNodes>
        0 -1 5977 -822604451 -1139773577 -35769217 867317561 770785172
        -556639521 -18449409 -1409798338</internalNodes>
      <leafValues>
        -1.3932500779628754e-01 1.4322856068611145e-01</leafValues></_>
    <_>
      <internalNodes>
        0 -1 8419 540602228 401256245 2123042549 368305838 -1575725619
        -1146032453 993411000 201590032</internalNodes>
      <leafValues>
        -2.2527994215488434e-01 8.9662484824657440e-02</leafValues></_>
    <_>
      <internalNodes>
        0 -1 9949 -453014779 -151830674 2062401268 -1338327042
        -740359100 -310935715 -285793542 -264765441</internalNodes>
      <leafValues>
        -1.2145169079303741e-01 1.6267816722393036e-01</leafValues></_>
    <_>
      <internalNodes>
        0 -1 531 -951652570 258920378 793584928 223577312 1100563965
        212815717 1811101627 2096592211</internalNodes>
      <leafValues>
        -1.6355855762958527e-01 1.1990846693515778e-01</leafValues></_>
    <_>
      <internalNodes>
        0 -1 8497 70528372 781223807 783185918 -1236222240 930707056
        443838239 1442592764 11546420</internalNodes>
      <leafValues>
        -4.4961884617805481e-01 4.0930453687906265e-02</leafValues></_>
    <_>
      <internalNodes>
        0 -1 1761 -790319200 -844828765 -473252560 -1090792574
        -304107617 1155495759 938112450 -140519493</internalNodes>
      <leafValues>
        -1.0756213963031769e-01 1.8052722513675690e-01</leafValues></_>
    <_>
      <internalNodes>
        0 -1 9668 -1031803088 690126326 -156058382 -1250756876
        2088746997 -1200132102 -1800063656 10952770</internalNodes>
      <leafValues>
        -1.8077628314495087e-01 1.0547856241464615e-01</leafValues></_>
    <_>
      <internalNodes>
        0 -1 8380 210768916 1958525949 -1415598106 -1157873760
        1069832117 -1090716674 -1079494252 749210656</internalNodes>
      <leafValues>
        -3.0420765280723572e-01 6.4333550631999969e-02</leafValues></_>
    <_>
      <internalNodes>
        0 -1 3414 1156410208 1373437429 74903024 -1651842073 -1058712268
        -281268481 -406489998 -1811077238</internalNodes>
      <leafValues>
        -1.7592003941535950e-01 1.0121767222881317e-01</leafValues></_>
    <_>
      <internalNodes>
        0 -1 3380 1411431920 -120259652 1055142427 -1486606370 -92949292
        -1878574868 -29918327 549807618</internalNodes>
      <leafValues>
        -1.7152741551399231e-01 1.0764540731906891e-01</leafValues></_>
    <_>
      <internalNodes>
        0 -1 4948 -1599560155 643054580 1468993318 -336050272 738150228
        216889903 -1503197580 619381168</internalNodes>
      <leafValues>
        -2.1687860786914825e-01 8.2511097192764282e-02</leafValues></_>
    <_>
      <internalNodes>
        0 -1 1320 -491147488 111949606 -1550097616 -537116760 634667959
        207369553 2046653840 -455085578</internalNodes>
      <leafValues>
        -1.4365176856517792e-01 1.2200891971588135e-01</leafValues></_>
    <_>
      <internalNodes>
        0 -1 5638 1976604304 284994140 500972918 -1445091001 -610991851
        -588433415 1877819033 -1899458944</internalNodes>
      <leafValues>
        -1.7125293612480164e-01 1.0334999114274979e-01</leafValues></_>
    <_>
      <internalNodes>
        0 -1 6996 -454004944 -51495587 394084284 -1073971237 1605901284
        -1116294919 -134412635 686308520</internalNodes>
      <leafValues>
        -2.0194101333618164e-01 8.5308462381362915e-02</leafValues></_>
    <_>
      <internalNodes>
        0 -1 9991 -497555611 114982271 -50337998 -1296632222 1223456085
        1551825918 1902060608 -991752058</internalNodes>
      <leafValues>
        -1.4479784667491913e-01 1.2259515374898911e-01</leafValues></_>
    <_>
      <internalNodes>
        0 -1 1634 -70771822 -1377635582 1910287728 543367809 1164713946
        1025441242 2038173610 1081827859</internalNodes>
      <leafValues>
        -1.7100639641284943e-01 1.0500380396842957e-01</leafValues></_>
    <_>
      <internalNodes>
        0 -1 4660 -1476613371 -1343422614 -1749420432 -1142947926
        939449293 -1892751393 -1615364105 -571497336</internalNodes>
      <leafValues>
        -1.1327350884675980e-01 1.5233363211154938e-01</leafValues></_>
    <_>
      <internalNodes>
        0 -1 790 -629772299 -587824193 2146810671 1071857211 911519221
        -423395850 -554350805 -1348252141</internalNodes>
      <leafValues>
        -8.8055916130542755e-02 2.0081159472465515e-01</leafValues></_>
    <_>
      <internalNodes>
        0 -1 316 1698879747 715042635 -1677784064 78193824 215505597
        -1804587165 -848879124 -924816409</internalNodes>
      <leafValues>
        -1.4970976114273071e-01 1.1876851320266724e-01</leafValues></_>
    <_>
      <internalNodes>
        0 -1 8040 70792501 165462013 -1896398849 -1093409256 -402867211
        -136517 -302131795 -1359081846</internalNodes>
      <leafValues>
        -1.4221495389938354e-01 1.2243001908063889e-01</leafValues></_>
    <_>
      <internalNodes>
        0 -1 2685 -901847296 1202223584 -1611762000 -303648332
        2147398846 205389613 836728052 1088943814</internalNodes>
      <leafValues>
        -1.5613062679767609e-01 1.1331166326999664e-01</leafValues></_>
    <_>
      <internalNodes>
        0 -1 3051 -1570985808 870969069 893757999 466985251 1585725192
        -8078867 -1303069524 82052930</internalNodes>
      <leafValues>
        -2.1000571548938751e-01 8.2443125545978546e-02</leafValues></_>
    <_>
      <internalNodes>
        0 -1 2039 1414391436 1177737365 166284148 -38409559 -661334785
        -909590538 -1208883114 -846462628</internalNodes>
      <leafValues>
        -1.5409386157989502e-01 1.1434446275234222e-01</leafValues></_>
    <_>
      <internalNodes>
        0 -1 4341 -293553200 647386734 -290382214 202930151 951924516
        937075655 1945452388 784933383</internalNodes>
      <leafValues>
        -1.9754701852798462e-01 8.7584845721721649e-02</leafValues></_>
    <_>
      <internalNodes>
        0 -1 709 -1998961742 -1674269660 1863612787 2142473042
        1501632418 -8952475 1715273568 -549982846</internalNodes>
      <leafValues>
        -1.3233202695846558e-01 1.3131690025329590e-01</leafValues></_>
    <_>
      <internalNodes>
        0 -1 5500 -1558665688 670523317 784248422 687388516 902778813
        535953197 83244964 16712732</internalNodes>
      <leafValues>
        -2.1028970181941986e-01 8.0852165818214417e-02</leafValues></_>
    <_>
      <internalNodes>
        0 -1 8449 3149620 571619156 1073560478 -1545162886 -184994844
        775790552 500961264 548148484</internalNodes>
      <leafValues>
        -2.9207935929298401e-01 5.8014862239360809e-02</leafValues></_>
    <_>
      <internalNodes>
        0 -1 9970 -365517555 610166711 -91320641 687273638 -539646130
        1501046591 -135297032 -1328106374</internalNodes>
      <leafValues>
        -1.3341231644153595e-01 1.3046871125698090e-01</leafValues></_>
    <_>
      <internalNodes>
        0 -1 6495 643043124 851197950 -1400976202 853983066 1492921153
        -1611334145 -135266347 112486168</internalNodes>
      <leafValues>
        -2.9681327939033508e-01 5.5648609995841980e-02</leafValues></_>
    <_>
      <internalNodes>
        0 -1 5445 1870177294 873507592 1943054984 1087287012 2117586800
        1556370807 -495616924 -2078006240</internalNodes>
      <leafValues>
        -3.0281540751457214e-01 5.5944640189409256e-02</leafValues></_>
    <_>
      <internalNodes>
        0 -1 376 1354811408 -1150208245 443103244 204605255 1487996480
        -1175186379 -1041147104 619017795</internalNodes>
      <leafValues>
        -2.1611437201499939e-01 8.2055874168872833e-02</leafValues></_>
    <_>
      <internalNodes>
        0 -1 2891 1244586824 -870101060 1468414768 -649945944 1685100364
        -841696711 -751339976 683877845</internalNodes>
      <leafValues>
        -1.9771511852741241e-01 8.6478009819984436e-02</leafValues></_>
    <_>
      <internalNodes>
        0 -1 9300 -34331195 2012573661 -134369682 -285278232 -135839940
        893188069 -1094041814 -73257538</internalNodes>
      <leafValues>
        -1.1666107922792435e-01 1.4792236685752869e-01</leafValues></_>
    <_>
      <internalNodes>
        0 -1 8820 -364409803 -1686291380 -273138185 -1649054130
        -1937900897 -1641114777 -857956465 1022700647</internalNodes>
      <leafValues>
        -1.2269890308380127e-01 1.3417260348796844e-01</leafValues></_>
    <_>
      <internalNodes>
        0 -1 9960 -321911260 1476158987 610414284 847032122 560866836
        742485833 -429625728 809513522</internalNodes>
      <leafValues>
        -2.3972696065902710e-01 6.8583928048610687e-02</leafValues></_>
    <_>
      <internalNodes>
        0 -1 751 -352923855 -2073526676 -1335627799 799819304 1456490608
        -1892199819 2091985260 2060915783</internalNodes>
      <leafValues>
        -1.5241210162639618e-01 1.0689071565866470e-01</leafValues></_>
    <_>
      <internalNodes>
        0 -1 2461 -97797205 354938794 -136728606 -25180762 1835976654
        1320547852 1465250976 1960822199</internalNodes>
      <leafValues>
        -1.1101116240024567e-01 1.4825935661792755e-01</leafValues></_>
    <_>
      <internalNodes>
        0 -1 9490 105129252 787525449 1021584440 813441406 363604229
        926514781 -1678304928 68168960</internalNodes>
      <leafValues>
        -4.9432277679443359e-01 3.2874315977096558e-02</leafValues></_>
    <_>
      <internalNodes>
        0 -1 2128 -612371554 -1078997273 -1979782281 -1321354060
        1268574974 -385933829 1875222426 -50351473</internalNodes>
      <leafValues>
        -7.7495567500591278e-02 2.1766763925552368e-01</leafValues></_>
    <_>
      <internalNodes>
        0 -1 7331 -990599883 -1232687109 -34229251 930746878 -749916
        -1350699019 -52296 -1501748178</internalNodes>
      <leafValues>
        -1.1572307348251343e-01 1.4193782210350037e-01</leafValues></_>
    <_>
      <internalNodes>
        0 -1 9918 1567086684 1001072254 -2132214155 730937327 1928738044
        947022381 -2010902817 1783871702</internalNodes>
      <leafValues>
        -1.1708999425172806e-01 1.3813173770904541e-01</leafValues></_>
    <_>
      <internalNodes>
        0 -1 7561 -323445055 -258666625 1575791767 -1107955730 -94537779
        -810197602 -210944194 -1508113661</internalNodes>
      <leafValues>
        -1.1996375024318695e-01 1.4144758880138397e-01</leafValues></_>
    <_>
      <internalNodes>
        0 -1 784 649658147 867696503 -58745040 -1842172482 1165303639
        1287777077 -285738093 -974669754</internalNodes>
      <leafValues>
        -1.2697452306747437e-01 1.2805290520191193e-01</leafValues></_>
    <_>
      <internalNodes>
        0 -1 133 71304208 523516208 1501567445 -1363117532 124388591
        -1386826790 230703033 134284288</internalNodes>
      <leafValues>
        -3.6266520619392395e-01 4.6001888811588287e-02</leafValues></_>
    <_>
      <internalNodes>
        0 -1 9639 1948843056 -147805890 2036126069 1723005456 1960841721
        -664309924 -1000057264 134226496</internalNodes>
      <leafValues>
        -3.2816943526268005e-01 4.9593653529882431e-02</leafValues></_>
    <_>
      <internalNodes>
        0 -1 800 -410603773 1303021094 1163781922 112121766 12438878
        71886456 2128549876 -674769926</internalNodes>
      <leafValues>
        -1.2420651316642761e-01 1.3912618160247803e-01</leafValues></_>
    <_>
      <internalNodes>
        0 -1 3516 1410643879 -1806392985 -129765381 945550843 1742829552
        2094877550 1467355906 846070091</internalNodes>
      <leafValues>
        -1.4111839234828949e-01 1.2114272266626358e-01</leafValues></_>
    <_>
      <internalNodes>
        0 -1 1342 -596186594 -1079188517 1572249528 -856425486
        -990871630 -1126221859 -1040844178 648536714</internalNodes>
      <leafValues>
        -1.3510851562023163e-01 1.2785001099109650e-01</leafValues></_>
    <_>
      <internalNodes>
        0 -1 4586 2106928 229946087 -2045743910 455650986 -185530924
        -1343725617 -865688408 958398464</internalNodes>
      <leafValues>
        -3.1522682309150696e-01 5.4733458906412125e-02</leafValues></_>
    <_>
      <internalNodes>
        0 -1 3616 -318992860 314112831 -1342216647 -1179765078 -8291244
        1047908031 -270299440 -152887236</internalNodes>
      <leafValues>
        -1.4175592362880707e-01 1.1932362616062164e-01</leafValues></_>
    <_>
      <internalNodes>
        0 -1 20 77783600 1570770888 597453845 988865184 1096555773
        -9733390 1968427514 1839494528</internalNodes>
      <leafValues>
        -1.9934363663196564e-01 8.6331374943256378e-02</leafValues></_>
    <_>
      <internalNodes>
        0 -1 3474 145860258 167406701 1842981809 -305860977 1198639231
        -588231783 -8162 -1658089998</internalNodes>
      <leafValues>
        -1.2385977804660797e-01 1.3372093439102173e-01</leafValues></_>
    <_>
      <internalNodes>
        0 -1 5850 75509280 642398194 -1391317072 -1428886608 1864722708
        627325909 645674868 11805956</internalNodes>
      <leafValues>
        -5.0872129201889038e-01 3.2633040100336075e-02</leafValues></_>
    <_>
      <internalNodes>
        0 -1 798 -243872777 984808439 -268506579 1878744019 1147522933
        -948654603 2128023306 -346601102</internalNodes>
      <leafValues>
        -1.0271589457988739e-01 1.6270929574966431e-01</leafValues></_>
    <_>
      <internalNodes>
        0 -1 2279 -991105745 2017410943 1022311738 -1091549570
        2130505469 762740215 -402997332 -1477247510</internalNodes>
      <leafValues>
        -1.0675401240587234e-01 1.6292348504066467e-01</leafValues></_>
    <_>
      <internalNodes>
        0 -1 459 1283222852 967326179 1787404848 -455030944 1075176806
        2121723430 1106571221 1387349776</internalNodes>
      <leafValues>
        -2.3720912635326385e-01 7.1330152451992035e-02</leafValues></_>
    <_>
      <internalNodes>
        0 -1 2020 -841445744 -1649574430 1056649120 -1209801044
        1827155913 264347583 -1510004764 -990906904</internalNodes>
      <leafValues>
        -1.2337179481983185e-01 1.3351370394229889e-01</leafValues></_>
    <_>
      <internalNodes>
        0 -1 563 615758771 997537573 -1778991203 -147514604 263843512
        -1094824101 1991434207 1944430242</internalNodes>
      <leafValues>
        -1.0546902567148209e-01 1.5911814570426941e-01</leafValues></_>
    <_>
      <internalNodes>
        0 -1 7796 228339508 774791087 -1149288524 778053436 661992788
        766853111 1135622096 2359296</internalNodes>
      <leafValues>
        -5.3141427040100098e-01 3.2470475882291794e-02</leafValues></_>
    <_>
      <internalNodes>
        0 -1 754 -825301402 -394858631 1555763695 -1882849235 2010932964
        -535528684 1940331834 568532336</internalNodes>
      <leafValues>
        -1.7338863015174866e-01 9.4101503491401672e-02</leafValues></_>
    <_>
      <internalNodes>
        0 -1 3669 1297401141 2000444789 737751613 -1413869573 -52123931
        1509031358 -21142088 -1176719686</internalNodes>
      <leafValues>
        -1.0604295879602432e-01 1.6026012599468231e-01</leafValues></_>
    <_>
      <internalNodes>
        0 -1 9489 -832374089 -236691540 1251033015 -1284524368 439701349
        -1959750635 1236009031 -1468023233</internalNodes>
      <leafValues>
        -9.4892598688602448e-02 1.7360354959964752e-01</leafValues></_>
    <_>
      <internalNodes>
        0 -1 6526 643313924 397952822 536099262 -1666209298 1994224945
        1067988467 -352522793 537395718</internalNodes>
      <leafValues>
        -2.4002213776111603e-01 6.9198466837406158e-02</leafValues></_>
    <_>
      <internalNodes>
        0 -1 392 -524819679 1296480107 1811894258 -1100449438 1886923609
        49851935 -738517836 -995362322</internalNodes>
      <leafValues>
        -1.2754854559898376e-01 1.3543811440467834e-01</leafValues></_>
    <_>
      <internalNodes>
        0 -1 8359 538707200 254066535 1994300964 -1407416461 1947546101
        188012150 -1376830155 4209701</internalNodes>
      <leafValues>
        -3.0662626028060913e-01 5.4860074073076248e-02</leafValues></_>
    <_>
      <internalNodes>
        0 -1 634 1476918223 662552325 -319558979 422830067 1102574838
        1572093233 -416953870 2104607402</internalNodes>
      <leafValues>
        -1.0646143555641174e-01 1.5799298882484436e-01</leafValues></_>
    <_>
      <internalNodes>
        0 -1 7758 549236020 808484634 -1426126600 -1731811358
        -1025031775 -197071411 796983720 640689152</internalNodes>
      <leafValues>
        -2.3167514801025391e-01 7.1877218782901764e-02</leafValues></_>
    <_>
      <internalNodes>
        0 -1 9816 -705911803 1073298983 517975006 1885842258 1333551108
        1602223951 1893134428 -1572344754</internalNodes>
      <leafValues>
        -1.2738101184368134e-01 1.3513182103633881e-01</leafValues></_>
    <_>
      <internalNodes>
        0 -1 3507 1146104500 1006659505 -1393194740 549358479 285041520
        700319983 -1309074128 11929168</internalNodes>
      <leafValues>
        -2.7580970525741577e-01 6.0098517686128616e-02</leafValues></_>
    <_>
      <internalNodes>
        0 -1 3342 1279737636 619120362 -1467551639 1923677669 1142255584
        1190051814 -112788480 -788196580</internalNodes>
      <leafValues>
        -1.9025869667530060e-01 8.7616264820098877e-02</leafValues></_>
    <_>
      <internalNodes>
        0 -1 7611 -251215945 -88083468 -2014089249 -1155680042
        -304517905 -1632127321 -822925835 -1595439825</internalNodes>
      <leafValues>
        -9.2109970748424530e-02 1.8630461394786835e-01</leafValues></_>
    <_>
      <internalNodes>
        0 -1 5354 1079289636 552888098 -19358269 -805015828 1039430768
        -1711623371 2128837208 87035426</internalNodes>
      <leafValues>
        -2.5760492682456970e-01 6.5897032618522644e-02</leafValues></_>
    <_>
      <internalNodes>
        0 -1 4918 82347776 808564561 925542406 -1695835287 1139621482
        167639803 2146193396 14778372</internalNodes>
      <leafValues>
        -2.4328972399234772e-01 6.5795466303825378e-02</leafValues></_>
    <_>
      <internalNodes>
        0 -1 5436 217449728 51653493 713894512 -927694924 -2143001819
        485001433 774655424 7343744</internalNodes>
      <leafValues>
        -3.9301413297653198e-01 4.1373800486326218e-02</leafValues></_>
    <_>
      <internalNodes>
        0 -1 5362 1120903951 -858921750 112502643 -243102169 -2023782510
        1022754558 -474545049 -1714085781</internalNodes>
      <leafValues>
        -1.0964658111333847e-01 1.5343038737773895e-01</leafValues></_>
    <_>
      <internalNodes>
        0 -1 8499 -96678588 -596475059 400100854 -1153997716 402058229
        -1103242274 -402713603 -1082324876</internalNodes>
      <leafValues>
        -1.2776538729667664e-01 1.3139636814594269e-01</leafValues></_>
    <_>
      <internalNodes>
        0 -1 9755 -724170492 989621787 -218744238 -493175153 1975929356
        1855102736 -411159816 -2130823677</internalNodes>
      <leafValues>
        -1.6484962403774261e-01 1.0413075983524323e-01</leafValues></_>
    <_>
      <internalNodes>
        0 -1 1520 -5257 -636553364 1618953007 -1989296417 1459947467
        -1426539028 2113400139 -597822061</internalNodes>
      <leafValues>
        -8.3634160459041595e-02 1.9967444241046906e-01</leafValues></_>
    <_>
      <internalNodes>
        0 -1 2157 1286008238 -1741105226 1649734001 -777718470
        1322675322 -588197635 1979540592 1421091026</internalNodes>
      <leafValues>
        -1.9431568682193756e-01 8.6351878941059113e-02</leafValues></_>
    <_>
      <internalNodes>
        0 -1 4558 -160499806 -269586962 -1090705536 -167775062 782219199
        -842137601 -402718986 -570445834</internalNodes>
      <leafValues>
        -8.4870353341102600e-02 1.9504642486572266e-01</leafValues></_>
    <_>
      <internalNodes>
        0 -1 2356 -356602077 -1348301144 -1514271598 1018484132
        1575658732 176917317 1457079444 1168880652</internalNodes>
      <leafValues>
        -1.5332065522670746e-01 1.0945685207843781e-01</leafValues></_>
    <_>
      <internalNodes>
        0 -1 9897 -465787035 -13236301 -201854601 751212534 -415940815
        1874198517 -136347735 -589316098</internalNodes>
      <leafValues>
        -9.7794614732265472e-02 1.6925840079784393e-01</leafValues></_>
    <_>
      <internalNodes>
        0 -1 5898 -1605891952 290811499 -1167218242 100159290 1324823988
        -1099636978 -11063804 -2133572596</internalNodes>
      <leafValues>
        -1.9720339775085449e-01 8.5442341864109039e-02</leafValues></_>
    <_>
      <internalNodes>
        0 -1 442 1491334291 -75733132 922578673 -145363311 -806777415
        -1107521547 -1690991399 -339754093</internalNodes>
      <leafValues>
        -7.0795841515064240e-02 2.4118593335151672e-01</leafValues></_>
    <_>
      <internalNodes>
        0 -1 9496 741345572 141737914 -1505772110 -1497848554 838407525
        24641142 1694303796 9700896</internalNodes>
      <leafValues>
        -5.1993179321289062e-01 3.2910209149122238e-02</leafValues></_>
    <_>
      <internalNodes>
        0 -1 501 1444079392 680552423 -1842191446 27469923 108529268
        523206526 1366677144 1386288913</internalNodes>
      <leafValues>
        -2.0761309564113617e-01 7.7229253947734833e-02</leafValues></_>
    <_>
      <internalNodes>
        0 -1 681 615883315 -1159686875 -1210341481 586162726 1293960639
        -93310706 -1544261722 1948476802</internalNodes>
      <leafValues>
        -1.4203688502311707e-01 1.1537886410951614e-01</leafValues></_></weakClassifiers></stage4>
</opencv_storage>
