<?xml version="1.0"?>
<opencv_storage>
<stage12>
  <maxWeakCount>100</maxWeakCount>
  <stageThreshold>-1.8127090930938721e+00</stageThreshold>
  <weakClassifiers>
    <_>
      <internalNodes>
        0 -1 2560 -72351749 -68161622 1392445361 -135793677 -808473873
        -2012467230 1441232337 -739249413</internalNodes>
      <leafValues>
        -3.8455957174301147e-01 3.6235660314559937e-02</leafValues></_>
    <_>
      <internalNodes>
        0 -1 267 -536871713 -676343877 111278064 630845539 1546710035
        1541360990 1029176727 -789101369</internalNodes>
      <leafValues>
        -1.2156555801630020e-01 2.1883501112461090e-01</leafValues></_>
    <_>
      <internalNodes>
        0 -1 3343 -268435538 -940642390 -1543556752 -203214942
        -302020129 213256175 -236980765 -671088897</internalNodes>
      <leafValues>
        -9.4693712890148163e-02 2.1245411038398743e-01</leafValues></_>
    <_>
      <internalNodes>
        0 -1 624 -286263549 -1347485801 -151093324 -106516702 111560997
        1337737095 580088260 -403192445</internalNodes>
      <leafValues>
        -1.2438449263572693e-01 1.3855262100696564e-01</leafValues></_>
    <_>
      <internalNodes>
        0 -1 6108 1541224401 -1074549369 -1074136067 -1111621665
        -186680323 -16475 -554901761 -1345537137</internalNodes>
      <leafValues>
        -6.3137911260128021e-02 2.6116719841957092e-01</leafValues></_>
    <_>
      <internalNodes>
        0 -1 9937 -1529 1795652471 -218223072 -218129350 -162548
        1814592517 -83888216 -218628109</internalNodes>
      <leafValues>
        -1.0006126761436462e-01 1.5545758605003357e-01</leafValues></_>
    <_>
      <internalNodes>
        0 -1 6773 1846935483 -1172121801 -20533763 -23863665 -943788261
        -285282577 -362808561 -616572113</internalNodes>
      <leafValues>
        -6.7572675645351410e-02 2.2247588634490967e-01</leafValues></_>
    <_>
      <internalNodes>
        0 -1 3464 1485884560 -1103329932 -2005655472 -87105564 213187028
        -540246065 886107632 416547972</internalNodes>
      <leafValues>
        -2.8752675652503967e-01 8.9697748422622681e-02</leafValues></_>
    <_>
      <internalNodes>
        0 -1 524 49787831 1509003027 -1082851843 -652896910 -1896759910
        -1896765583 770876663 -948701277</internalNodes>
      <leafValues>
        -9.8970279097557068e-02 1.6487170755863190e-01</leafValues></_>
    <_>
      <internalNodes>
        0 -1 6498 -1571551811 -189229674 301846399 -1279346019
        -415080479 -155611691 -1679201543 -1117229560</internalNodes>
      <leafValues>
        -9.9150277674198151e-02 1.3918642699718475e-01</leafValues></_>
    <_>
      <internalNodes>
        0 -1 20 -597447741 1601997427 -323716901 2106938048 207085565
        -1637566734 -93102593 2104193507</internalNodes>
      <leafValues>
        -1.0347173362970352e-01 1.3248762488365173e-01</leafValues></_>
    <_>
      <internalNodes>
        0 -1 1354 -822220817 1420096367 1542847699 451868581 -1096766902
        -52568084 -613180909 -558514546</internalNodes>
      <leafValues>
        -8.1293024122714996e-02 1.5829651057720184e-01</leafValues></_>
    <_>
      <internalNodes>
        0 -1 2461 -504918494 795582415 -137004126 -1738812000 1280015833
        1304869965 1172252146 -975222853</internalNodes>
      <leafValues>
        -1.1244498193264008e-01 1.1978381127119064e-01</leafValues></_>
    <_>
      <internalNodes>
        0 -1 9855 -85046131 -161497718 -1434468616 -1225359362
        -1367476404 -1655218347 -1245336440 -265883842</internalNodes>
      <leafValues>
        -1.0917501896619797e-01 1.2570923566818237e-01</leafValues></_>
    <_>
      <internalNodes>
        0 -1 7364 604024100 909836091 -1275216706 -1171085450 1701938645
        267704703 -101367892 83633692</internalNodes>
      <leafValues>
        -2.4096255004405975e-01 6.1551630496978760e-02</leafValues></_>
    <_>
      <internalNodes>
        0 -1 5532 -136528427 2146934779 -302204945 -181403 -538108929
        -1245513 -1115934721 -1414680821</internalNodes>
      <leafValues>
        -5.8245297521352768e-02 2.4498075246810913e-01</leafValues></_>
    <_>
      <internalNodes>
        0 -1 1592 -191169357 -403638277 -1258365249 -218988574
        -2055279009 1056145023 -622414446 -522002710</internalNodes>
      <leafValues>
        -8.7343133985996246e-02 1.4925862848758698e-01</leafValues></_>
    <_>
      <internalNodes>
        0 -1 862 1422802256 455678905 231468516 495521710 -1176000248
        1603886283 435969440 1241895617</internalNodes>
      <leafValues>
        -1.6250948607921600e-01 7.8173130750656128e-02</leafValues></_>
    <_>
      <internalNodes>
        0 -1 3453 1179496128 -177785882 167454095 445130441 1742925191
        528135084 960983448 2116991438</internalNodes>
      <leafValues>
        -1.3826473057270050e-01 8.9574523270130157e-02</leafValues></_>
    <_>
      <internalNodes>
        0 -1 5864 -272709825 -74990425 -28201487 -180765889 -17541863
        -25301131 -440671109 -130038861</internalNodes>
      <leafValues>
        -6.2268629670143127e-02 2.0297174155712128e-01</leafValues></_>
    <_>
      <internalNodes>
        0 -1 3096 -355682512 1742350647 1929273902 1860976580 1135422263
        1660495771 -1409422562 1208821558</internalNodes>
      <leafValues>
        -1.5843909978866577e-01 7.7709436416625977e-02</leafValues></_>
    <_>
      <internalNodes>
        0 -1 5786 -1509643312 -1181604587 -1076103170 -1177011973
        1257356480 -877513744 -300564763 13461303</internalNodes>
      <leafValues>
        -1.5241147577762604e-01 8.3207473158836365e-02</leafValues></_>
    <_>
      <internalNodes>
        0 -1 4288 79990285 748070677 -1105231946 984114727 -322644131
        245864301 2147225792 644103968</internalNodes>
      <leafValues>
        -2.3235337436199188e-01 5.0873883068561554e-02</leafValues></_>
    <_>
      <internalNodes>
        0 -1 795 1131574858 1522126715 -1695489950 -1337811006 104113924
        -10073865 888542787 1360201235</internalNodes>
      <leafValues>
        -1.7561322450637817e-01 7.0071063935756683e-02</leafValues></_>
    <_>
      <internalNodes>
        0 -1 6820 888550628 375812019 -1833166088 780424063 -1930286107
        276246397 -237691076 747400870</internalNodes>
      <leafValues>
        -1.6819842159748077e-01 7.4614204466342926e-02</leafValues></_>
    <_>
      <internalNodes>
        0 -1 9264 74458884 3694386 -2091207236 640331108 920741844
        1265654823 250623940 7348528</internalNodes>
      <leafValues>
        -4.0996176004409790e-01 2.8360890224575996e-02</leafValues></_>
    <_>
      <internalNodes>
        0 -1 3678 1465297800 806893195 -1826538672 -134220811
        -1035613225 -1617135040 990887738 -1530047964</internalNodes>
      <leafValues>
        -1.4000242948532104e-01 8.6970821022987366e-02</leafValues></_>
    <_>
      <internalNodes>
        0 -1 4377 1551879041 791256175 -1665589283 1572150742 -587768454
        -1439252609 1601119744 -274024678</internalNodes>
      <leafValues>
        -8.1381566822528839e-02 1.5176843106746674e-01</leafValues></_>
    <_>
      <internalNodes>
        0 -1 5580 -2130795743 1853224407 -33837326 2078523302 1790295815
        1316748903 1874818902 -960508635</internalNodes>
      <leafValues>
        -1.1068318039178848e-01 1.1248981207609177e-01</leafValues></_>
    <_>
      <internalNodes>
        0 -1 1280 -52261344 1129307958 -1091801487 1005342460 2076157341
        222950733 -1863356748 1155787967</internalNodes>
      <leafValues>
        -1.1949593573808670e-01 1.0541401058435440e-01</leafValues></_>
    <_>
      <internalNodes>
        0 -1 9737 -52229307 1568567263 -52546504 -1304486074 2113764316
        795705163 -193060040 916905790</internalNodes>
      <leafValues>
        -1.2318873405456543e-01 9.8449222743511200e-02</leafValues></_>
    <_>
      <internalNodes>
        0 -1 1242 1296041136 498622698 785274773 746881024 1282183740
        -67437608 485888472 237314562</internalNodes>
      <leafValues>
        -1.7899832129478455e-01 6.9049358367919922e-02</leafValues></_>
    <_>
      <internalNodes>
        0 -1 704 608775975 -1537282244 -50392460 -1330502238 1274449750
        1144285479 1441204400 -190332218</internalNodes>
      <leafValues>
        -1.3813069462776184e-01 8.9268065989017487e-02</leafValues></_>
    <_>
      <internalNodes>
        0 -1 1208 114222116 2090952128 1646318812 -72323812 216261849
        -1160011848 1878649816 951890952</internalNodes>
      <leafValues>
        -1.6718581318855286e-01 7.7046737074851990e-02</leafValues></_>
    <_>
      <internalNodes>
        0 -1 791 1434122213 1920940599 737368959 671083327 1177636149
        -240730123 517169963 1024588674</internalNodes>
      <leafValues>
        -9.6806019544601440e-02 1.2897279858589172e-01</leafValues></_>
    <_>
      <internalNodes>
        0 -1 1168 -1469184201 1790097270 -587742802 1778372850
        1120876364 1356074903 -24159008 -1480109006</internalNodes>
      <leafValues>
        -1.4946264028549194e-01 8.3999477326869965e-02</leafValues></_>
    <_>
      <internalNodes>
        0 -1 7596 150211604 157351935 -1191272202 -1165608088 837631341
        1297166201 -1224856272 619449396</internalNodes>
      <leafValues>
        -2.9446351528167725e-01 4.1066873818635941e-02</leafValues></_>
    <_>
      <internalNodes>
        0 -1 9995 -423317641 236107106 1878738429 -1330502658 1953258855
        1216155615 310062324 -522195109</internalNodes>
      <leafValues>
        -9.6633486449718475e-02 1.3051319122314453e-01</leafValues></_>
    <_>
      <internalNodes>
        0 -1 8180 551824692 2123382105 -1548476623 989608750 1727278397
        1860525393 917779840 10487660</internalNodes>
      <leafValues>
        -3.2715782523155212e-01 3.9102766662836075e-02</leafValues></_>
    <_>
      <internalNodes>
        0 -1 5644 2017728032 112785606 397450790 772835309 -404479196
        291277191 2037399415 588096007</internalNodes>
      <leafValues>
        -1.8905411660671234e-01 6.3184171915054321e-02</leafValues></_>
    <_>
      <internalNodes>
        0 -1 8906 -1337289572 -1848070691 -1373493726 -1347835145
        -1384764193 1572483374 -1133769511 887222833</internalNodes>
      <leafValues>
        -1.4616560935974121e-01 8.5988439619541168e-02</leafValues></_>
    <_>
      <internalNodes>
        0 -1 2982 1280781188 1814305575 578831395 914420719 -968804875
        1857866566 6235164 343702528</internalNodes>
      <leafValues>
        -1.8999364972114563e-01 6.4558915793895721e-02</leafValues></_>
    <_>
      <internalNodes>
        0 -1 8777 -1040527578 608728644 1855933668 -1386289196 31611254
        642799987 1222057464 7684982</internalNodes>
      <leafValues>
        -1.7668829858303070e-01 6.9473244249820709e-02</leafValues></_>
    <_>
      <internalNodes>
        0 -1 1656 -152589385 -305566296 2122255584 -770769034 1442762717
        758644517 1973347810 -708850550</internalNodes>
      <leafValues>
        -7.9522900283336639e-02 1.5699583292007446e-01</leafValues></_>
    <_>
      <internalNodes>
        0 -1 5343 1582281487 -1725667872 -449446965 807001203 2032650080
        -1078106382 2079782270 -475575333</internalNodes>
      <leafValues>
        -7.7413558959960938e-02 1.5810939669609070e-01</leafValues></_>
    <_>
      <internalNodes>
        0 -1 9409 1646574368 -1555816590 -881893003 1850793838 369636980
        -760298799 -83715916 875570240</internalNodes>
      <leafValues>
        -2.9711511731147766e-01 4.4401843100786209e-02</leafValues></_>
    <_>
      <internalNodes>
        0 -1 6894 774374688 644901857 -1649137986 -1393117494 1039295669
        216427263 -1540979348 271582240</internalNodes>
      <leafValues>
        -3.0250617861747742e-01 3.8605768233537674e-02</leafValues></_>
    <_>
      <internalNodes>
        0 -1 9900 -293539 -614605041 -541149642 -223911362 1190661996
        1828126551 -1862530086 -240653570</internalNodes>
      <leafValues>
        -7.7418036758899689e-02 1.6282173991203308e-01</leafValues></_>
    <_>
      <internalNodes>
        0 -1 2091 1458710144 980889382 1821910461 1070481696 152179662
        976243005 2134130809 153470618</internalNodes>
      <leafValues>
        -1.3443312048912048e-01 9.0455994009971619e-02</leafValues></_>
    <_>
      <internalNodes>
        0 -1 711 -991443373 219107205 947499071 612911216 1704339104
        -323531755 -169381222 2112181347</internalNodes>
      <leafValues>
        -1.2068372219800949e-01 1.0131017863750458e-01</leafValues></_>
    <_>
      <internalNodes>
        0 -1 209 1432939314 306196467 -86839115 1024644598 77167985
        -1090895589 -235288776 -1465759915</internalNodes>
      <leafValues>
        -1.3060541450977325e-01 9.3392699956893921e-02</leafValues></_>
    <_>
      <internalNodes>
        0 -1 7832 606088480 619457740 630066278 783293058 852034884
        594878419 1955531840 70263840</internalNodes>
      <leafValues>
        -5.2608180046081543e-01 2.3278418928384781e-02</leafValues></_>
    <_>
      <internalNodes>
        0 -1 1426 1851233782 1433404945 -109879371 -1691238649
        -1309636624 -339979 -1431287631 -386946902</internalNodes>
      <leafValues>
        -8.2243308424949646e-02 1.5330883860588074e-01</leafValues></_>
    <_>
      <internalNodes>
        0 -1 1080 138153516 317852702 984467000 515564272 1085080132
        1615620595 -72237422 58500</internalNodes>
      <leafValues>
        -2.7727067470550537e-01 4.5134369283914566e-02</leafValues></_>
    <_>
      <internalNodes>
        0 -1 2330 -274134509 2043974551 1773501903 2020177101
        -1137705289 -1203126300 1483925477 -1948580737</internalNodes>
      <leafValues>
        -8.4365405142307281e-02 1.5646128356456757e-01</leafValues></_>
    <_>
      <internalNodes>
        0 -1 4928 1289274501 -1563017627 -445410191 -2073939344
        1591972880 -30283045 -1990813724 186910216</internalNodes>
      <leafValues>
        -1.6867883503437042e-01 7.4034042656421661e-02</leafValues></_>
    <_>
      <internalNodes>
        0 -1 3959 1067902642 -1082495048 2130427269 752278698 793024088
        -1972832468 569979635 -838995510</internalNodes>
      <leafValues>
        -1.0745559632778168e-01 1.2095935642719269e-01</leafValues></_>
    <_>
      <internalNodes>
        0 -1 7361 2061482463 320499326 -51575049 -1745441795 -935503889
        -1091446960 1753173213 -1418889573</internalNodes>
      <leafValues>
        -6.3311226665973663e-02 1.9251844286918640e-01</leafValues></_>
    <_>
      <internalNodes>
        0 -1 551 1584791210 -1241073233 -390125564 926199718 -2121269115
        -264058127 1926173048 1472293441</internalNodes>
      <leafValues>
        -1.4272271096706390e-01 8.5747435688972473e-02</leafValues></_>
    <_>
      <internalNodes>
        0 -1 2002 228108661 205882091 1351039856 194575143 314333168
        2018336133 341778635 1754446488</internalNodes>
      <leafValues>
        -1.3982367515563965e-01 8.8120765984058380e-02</leafValues></_>
    <_>
      <internalNodes>
        0 -1 6909 1561326946 783105443 536120386 -262165281 -44722832
        -1938534955 1605792753 -1980259513</internalNodes>
      <leafValues>
        -9.8353214561939240e-02 1.2510690093040466e-01</leafValues></_>
    <_>
      <internalNodes>
        0 -1 121 -1653174480 978819119 1313151211 -1699089902 1078271938
        1951415203 1770259084 737623895</internalNodes>
      <leafValues>
        -1.3511553406715393e-01 9.1709055006504059e-02</leafValues></_>
    <_>
      <internalNodes>
        0 -1 6715 -331944187 1781857167 -352473820 -1560400806
        -1244321815 233070589 1905927012 -524591244</internalNodes>
      <leafValues>
        -1.2086836248636246e-01 1.0279787331819534e-01</leafValues></_>
    <_>
      <internalNodes>
        0 -1 5134 671491616 774279999 -891681248 -2006668296 2375441
        14711111 653919840 1148452881</internalNodes>
      <leafValues>
        -3.9115986227989197e-01 3.0460054054856300e-02</leafValues></_>
    <_>
      <internalNodes>
        0 -1 8522 1374954376 442355470 2084022173 -26829038 107517504
        -567654464 1511437533 50643969</internalNodes>
      <leafValues>
        -1.8928264081478119e-01 6.3597790896892548e-02</leafValues></_>
    <_>
      <internalNodes>
        0 -1 5990 538195205 537591565 -1361889242 852671441 1190146421
        1236552443 668975445 274296</internalNodes>
      <leafValues>
        -2.8902092576026917e-01 4.1716750711202621e-02</leafValues></_>
    <_>
      <internalNodes>
        0 -1 3664 -11535881 -1659191673 1190474739 -103286289 -892885057
        -1703393284 1124310971 -68177257</internalNodes>
      <leafValues>
        -4.4786170125007629e-02 2.8779280185699463e-01</leafValues></_>
    <_>
      <internalNodes>
        0 -1 3571 -732036110 1650737057 -1049614400 -1462044997
        1783908094 921283505 2008778813 1023767047</internalNodes>
      <leafValues>
        -1.3453835248947144e-01 9.1691382229328156e-02</leafValues></_>
    <_>
      <internalNodes>
        0 -1 7743 -1602349548 910751447 884880594 -1476722958 1777357877
        -1795875855 -135316128 -1578597332</internalNodes>
      <leafValues>
        -1.7718768119812012e-01 7.2070971131324768e-02</leafValues></_>
    <_>
      <internalNodes>
        0 -1 3001 -206831941 1610333568 -1241825359 1462069360
        2075332350 255713271 -272726054 -572523089</internalNodes>
      <leafValues>
        -4.8642590641975403e-02 2.5780695676803589e-01</leafValues></_>
    <_>
      <internalNodes>
        0 -1 582 -864034078 1516201841 79481761 -961550811 1203660896
        1635148735 -739059003 1292167050</internalNodes>
      <leafValues>
        -1.4052802324295044e-01 9.0638086199760437e-02</leafValues></_>
    <_>
      <internalNodes>
        0 -1 2811 1485030357 -1316189466 -957929331 1059951839
        -1530397779 -1947884044 -168197505 -1074707521</internalNodes>
      <leafValues>
        -7.4421331286430359e-02 1.7385263741016388e-01</leafValues></_>
    <_>
      <internalNodes>
        0 -1 5298 1332196695 -1919101075 1451212262 -416874546
        -123359837 -270307359 905534956 -858276832</internalNodes>
      <leafValues>
        -8.5263781249523163e-02 1.4393632113933563e-01</leafValues></_>
    <_>
      <internalNodes>
        0 -1 1985 551431968 92307296 -681336158 -1129431356 224943332
        207894985 -1313922172 548215964</internalNodes>
      <leafValues>
        -2.2106887400150299e-01 5.7611692696809769e-02</leafValues></_>
    <_>
      <internalNodes>
        0 -1 8232 -425708348 1995712367 2145299630 620065385 337988977
        399892415 -1280548264 -2113919204</internalNodes>
      <leafValues>
        -1.6473388671875000e-01 7.5042515993118286e-02</leafValues></_>
    <_>
      <internalNodes>
        0 -1 3734 1246269360 4992508 2109584571 -1827335311 1627957596
        -1076177237 1473338948 1143514882</internalNodes>
      <leafValues>
        -1.6910296678543091e-01 7.3479600250720978e-02</leafValues></_>
    <_>
      <internalNodes>
        0 -1 9248 141558596 583056829 -1458998586 608871204 835982964
        1301766509 -6549868 11821076</internalNodes>
      <leafValues>
        -3.7747702002525330e-01 3.2149773091077805e-02</leafValues></_>
    <_>
      <internalNodes>
        0 -1 1713 126559002 -1454539328 -119562637 1046960100 413413118
        -869753020 1168979120 1349443746</internalNodes>
      <leafValues>
        -1.4687949419021606e-01 8.4652230143547058e-02</leafValues></_>
    <_>
      <internalNodes>
        0 -1 1544 -25523933 -866177869 1001339803 850821366 1165358167
        1315274735 -1208637988 -504954898</internalNodes>
      <leafValues>
        -9.6490725874900818e-02 1.3194157183170319e-01</leafValues></_>
    <_>
      <internalNodes>
        0 -1 5122 715302688 185478604 -34167070 1912254124 93257167
        1748789913 935278064 74010940</internalNodes>
      <leafValues>
        -1.8195611238479614e-01 6.6582411527633667e-02</leafValues></_>
    <_>
      <internalNodes>
        0 -1 709 -610272269 318616370 -290196801 2102511459 -1421659670
        -1074633033 1953749482 -60303390</internalNodes>
      <leafValues>
        -6.9983996450901031e-02 1.7984360456466675e-01</leafValues></_>
    <_>
      <internalNodes>
        0 -1 2996 -831203819 -556298953 2012573232 1067109715
        -1977737251 -52097618 1056416699 -1450963920</internalNodes>
      <leafValues>
        -1.0730591416358948e-01 1.1685348302125931e-01</leafValues></_>
    <_>
      <internalNodes>
        0 -1 1040 -811587 -253903734 -5256398 -674174 -697307227
        -329257299 -1284528442 -406090586</internalNodes>
      <leafValues>
        -6.7365512251853943e-02 1.8913410604000092e-01</leafValues></_>
    <_>
      <internalNodes>
        0 -1 6483 1425991664 1461897093 1051686915 1977420687 2010443173
        -1697120265 -537395857 2127060843</internalNodes>
      <leafValues>
        -8.8850729167461395e-02 1.4319920539855957e-01</leafValues></_>
    <_>
      <internalNodes>
        0 -1 8276 -570237521 1932308333 -76475720 -205611340 1909878685
        1467328371 803168175 -1550292053</internalNodes>
      <leafValues>
        -8.5616208612918854e-02 1.4681839942932129e-01</leafValues></_>
    <_>
      <internalNodes>
        0 -1 490 -421378270 545320742 -50628438 615829938 174917253
        -1190781040 1998474900 544634801</internalNodes>
      <leafValues>
        -2.1405982971191406e-01 5.8154754340648651e-02</leafValues></_>
    <_>
      <internalNodes>
        0 -1 1200 1433369493 360686017 -1350794683 -1822588678 485236684
        -131775319 668311434 -550769185</internalNodes>
      <leafValues>
        -7.2672456502914429e-02 1.7384853959083557e-01</leafValues></_>
    <_>
      <internalNodes>
        0 -1 5445 1226050572 -1475301559 -493787128 1617362118 -20577199
        474370256 1232487972 270560</internalNodes>
      <leafValues>
        -3.4177583456039429e-01 3.7377636879682541e-02</leafValues></_>
    <_>
      <internalNodes>
        0 -1 5223 -958407045 1805335274 -1127850099 -1073741825
        -1093501021 -580977113 -413286161 -752629889</internalNodes>
      <leafValues>
        -5.2945237606763840e-02 2.5545993447303772e-01</leafValues></_>
    <_>
      <internalNodes>
        0 -1 4161 336331392 544518957 264703651 139501370 265766253
        -528743946 750460420 12600376</internalNodes>
      <leafValues>
        -2.5787729024887085e-01 5.0146073102951050e-02</leafValues></_>
    <_>
      <internalNodes>
        0 -1 8045 -1561719772 655894810 -1713560263 -1279503961
        -1114350243 -363889669 -440881987 -2084563200</internalNodes>
      <leafValues>
        -1.6046409308910370e-01 7.9580925405025482e-02</leafValues></_>
    <_>
      <internalNodes>
        0 -1 7967 1883744424 912600324 -1662590228 -2072330196
        2098478949 14663344 -1862775706 19142519</internalNodes>
      <leafValues>
        -1.9076588749885559e-01 6.6421672701835632e-02</leafValues></_>
    <_>
      <internalNodes>
        0 -1 1198 124742660 -803028370 2052795570 603680728 1037731599
        1300674501 -153618544 -257565004</internalNodes>
      <leafValues>
        -1.4146283268928528e-01 8.8376715779304504e-02</leafValues></_>
    <_>
      <internalNodes>
        0 -1 4840 1458971040 1010759281 -162395414 -1232014450
        1086988597 1411659717 1717937344 1772767323</internalNodes>
      <leafValues>
        -1.7082194983959198e-01 7.2358056902885437e-02</leafValues></_>
    <_>
      <internalNodes>
        0 -1 541 -2142887166 1797024416 1983112160 8757782 31729457
        1854624673 1405094434 548689472</internalNodes>
      <leafValues>
        -2.6766768097877502e-01 4.6478796750307083e-02</leafValues></_>
    <_>
      <internalNodes>
        0 -1 2101 1532751420 244209755 225671763 942946552 412147846
        958179454 -272642052 -402456378</internalNodes>
      <leafValues>
        -1.1658368259668350e-01 1.0744497179985046e-01</leafValues></_>
    <_>
      <internalNodes>
        0 -1 3872 209740800 104834455 136879850 622774356 813034708
        1587464424 187793982 16795136</internalNodes>
      <leafValues>
        -2.8219071030616760e-01 4.4691592454910278e-02</leafValues></_>
    <_>
      <internalNodes>
        0 -1 4595 -9504093 -1280362546 -1141006457 -227559495 803712499
        -1098219521 -698916942 -324032634</internalNodes>
      <leafValues>
        -6.9516137242317200e-02 1.8450327217578888e-01</leafValues></_>
    <_>
      <internalNodes>
        0 -1 8517 -18965347 -1300397218 -1892304129 -1276911025
        -1836288625 -1896948233 -196444629 -408166125</internalNodes>
      <leafValues>
        -7.1337170898914337e-02 1.7948873341083527e-01</leafValues></_>
    <_>
      <internalNodes>
        0 -1 6351 -1932669181 -15501429 -1124220947 2061651764
        1339829549 -268963971 -321033152 -2072379506</internalNodes>
      <leafValues>
        -9.3408524990081787e-02 1.3552817702293396e-01</leafValues></_></weakClassifiers></stage12>
</opencv_storage>
