<?xml version="1.0"?>
<opencv_storage>
<stage7>
  <maxWeakCount>100</maxWeakCount>
  <stageThreshold>-1.8218417167663574e+00</stageThreshold>
  <weakClassifiers>
    <_>
      <internalNodes>
        0 -1 2601 -2097177 -410634834 -673233936 -34605102 -942671906
        231717454 2011165618 -201326853</internalNodes>
      <leafValues>
        -4.1803920269012451e-01 -1.5053763054311275e-02</leafValues></_>
    <_>
      <internalNodes>
        0 -1 38 -1056513 -38554689 1274460501 1471502065 -857881123
        -327352710 -22552577 1442138007</internalNodes>
      <leafValues>
        -1.5643596649169922e-01 2.0341144502162933e-01</leafValues></_>
    <_>
      <internalNodes>
        0 -1 706 -92278025 -142620873 -202084965 -650903817 1344631138
        -581472431 1987556131 -788921</internalNodes>
      <leafValues>
        -9.0152435004711151e-02 2.7072787284851074e-01</leafValues></_>
    <_>
      <internalNodes>
        0 -1 40 -343228929 -854030 -268564993 -537401616 1726926591
        -5009451 1308229631 -167181</internalNodes>
      <leafValues>
        -7.0744708180427551e-02 3.1297308206558228e-01</leafValues></_>
    <_>
      <internalNodes>
        0 -1 7798 607190516 1016394549 995965375 -38533211 2002116085
        -36111364 1054879741 764412960</internalNodes>
      <leafValues>
        -2.1342767775058746e-01 9.2904001474380493e-02</leafValues></_>
    <_>
      <internalNodes>
        0 -1 3544 -867305490 -41093176 627044347 1441658875 -229347616
        -1085477220 1203238831 -543190069</internalNodes>
      <leafValues>
        -6.6278412938117981e-02 2.1842925250530243e-01</leafValues></_>
    <_>
      <internalNodes>
        0 -1 9943 -268441777 1900429071 -228187534 847249298 -50346674
        1333132066 -151060856 -227283077</internalNodes>
      <leafValues>
        -1.0333860665559769e-01 1.7489197850227356e-01</leafValues></_>
    <_>
      <internalNodes>
        0 -1 58 363989362 800307989 62164959 1031878289 1245978342
        946714431 -1409478741 661992295</internalNodes>
      <leafValues>
        -1.8441791832447052e-01 9.1217003762722015e-02</leafValues></_>
    <_>
      <internalNodes>
        0 -1 448 -1362172234 788594224 -1346321967 865200640 -1939283975
        -301187419 -724200245 -1152914537</internalNodes>
      <leafValues>
        -1.1435659974813461e-01 1.5328206121921539e-01</leafValues></_>
    <_>
      <internalNodes>
        0 -1 6830 83639156 -1866662993 1071061998 -1359693590 241490917
        -721621001 -1208078595 -1393810428</internalNodes>
      <leafValues>
        -1.9747447967529297e-01 8.5366785526275635e-02</leafValues></_>
    <_>
      <internalNodes>
        0 -1 1960 1425402422 415038858 142447477 -575875376 -1758141510
        1006546618 -981992976 -1997234864</internalNodes>
      <leafValues>
        -1.7239122092723846e-01 1.0125398635864258e-01</leafValues></_>
    <_>
      <internalNodes>
        0 -1 8016 1208763316 -1326423693 -1109039881 247545279
        -1189093559 -1956796869 1047866815 145294081</internalNodes>
      <leafValues>
        -1.7931367456912994e-01 8.4656223654747009e-02</leafValues></_>
    <_>
      <internalNodes>
        0 -1 744 -419454713 1707076143 -335564892 -1864225314 1710581703
        2104590195 -201661260 -470290985</internalNodes>
      <leafValues>
        -1.0942892730236053e-01 1.4485576748847961e-01</leafValues></_>
    <_>
      <internalNodes>
        0 -1 7771 -82381536 -166806218 -1083322756 1943244453
        -1703649795 2044753605 1819630953 -1146368477</internalNodes>
      <leafValues>
        -1.1954892426729202e-01 1.3056413829326630e-01</leafValues></_>
    <_>
      <internalNodes>
        0 -1 8479 547365940 918044465 -642245380 1034432154 240136181
        1299343217 2096441268 1047269136</internalNodes>
      <leafValues>
        -2.9608321189880371e-01 5.3131666034460068e-02</leafValues></_>
    <_>
      <internalNodes>
        0 -1 4060 -1482113115 1732964141 -1233702988 -1075063004
        -305530905 243589111 -1107331136 -2047893346</internalNodes>
      <leafValues>
        -1.1109972745180130e-01 1.3860243558883667e-01</leafValues></_>
    <_>
      <internalNodes>
        0 -1 2357 -83119119 -1685134974 -805834250 -573070366 1332658170
        248573918 303911146 -728762990</internalNodes>
      <leafValues>
        -8.0095976591110229e-02 1.8433779478073120e-01</leafValues></_>
    <_>
      <internalNodes>
        0 -1 4896 -1661689923 -1637966849 2145353407 872062847
        -1611610683 -9405997 -807047652 -1357892103</internalNodes>
      <leafValues>
        -1.1905841529369354e-01 1.1972519010305405e-01</leafValues></_>
    <_>
      <internalNodes>
        0 -1 718 -553660779 -794835755 1522007671 1662115229 -1041131721
        -880724201 -311168682 -68716553</internalNodes>
      <leafValues>
        -8.5459694266319275e-02 1.7428497970104218e-01</leafValues></_>
    <_>
      <internalNodes>
        0 -1 6708 1374911 -135006090 -968560833 -1082671953 -805351983
        -54593610 -570756761 -608992981</internalNodes>
      <leafValues>
        -7.7914722263813019e-02 1.8205599486827850e-01</leafValues></_>
    <_>
      <internalNodes>
        0 -1 3020 -1069509888 285752743 1868290675 1907372176 -550176594
        532587250 -9233416 752096942</internalNodes>
      <leafValues>
        -1.7508032917976379e-01 8.0493740737438202e-02</leafValues></_>
    <_>
      <internalNodes>
        0 -1 2207 -422172122 340827947 533909752 -1611340698 72706737
        -520995905 -789330740 -647544352</internalNodes>
      <leafValues>
        -1.3419298827648163e-01 1.0357770323753357e-01</leafValues></_>
    <_>
      <internalNodes>
        0 -1 9920 1644185106 2136614485 181681503 420486914 1588208120
        -882097716 507293432 167773279</internalNodes>
      <leafValues>
        -1.9517709314823151e-01 7.0371188223361969e-02</leafValues></_>
    <_>
      <internalNodes>
        0 -1 793 -1015888741 -151593761 2111354866 -525142622 -438938073
        -271550649 -1477278270 1635215159</internalNodes>
      <leafValues>
        -1.3889546692371368e-01 1.0248203575611115e-01</leafValues></_>
    <_>
      <internalNodes>
        0 -1 7770 -697467628 1342272 460271038 -2015697604 1156951536
        341948917 -989897400 -1326360000</internalNodes>
      <leafValues>
        -1.7218747735023499e-01 8.1033572554588318e-02</leafValues></_>
    <_>
      <internalNodes>
        0 -1 9316 -51114715 117420791 1016537026 -840026266 -164348089
        1831459711 -18989532 -1214628058</internalNodes>
      <leafValues>
        -1.3109861314296722e-01 1.0543937981128693e-01</leafValues></_>
    <_>
      <internalNodes>
        0 -1 1712 -942688349 -680526078 -673207632 -103819294 -402798613
        1232199629 -695209038 -134222913</internalNodes>
      <leafValues>
        -6.5071046352386475e-02 2.1731358766555786e-01</leafValues></_>
    <_>
      <internalNodes>
        0 -1 9899 -135229659 2116875743 -1102189628 746500090 2111618997
        1563949547 1021079444 543504324</internalNodes>
      <leafValues>
        -1.8154612183570862e-01 7.9427257180213928e-02</leafValues></_>
    <_>
      <internalNodes>
        0 -1 3296 -657148272 411343743 766548709 1051826407 1973779910
        -178143354 2029387697 1163201283</internalNodes>
      <leafValues>
        -1.5216164290904999e-01 8.9522592723369598e-02</leafValues></_>
    <_>
      <internalNodes>
        0 -1 1900 74190596 1421261563 1813953264 490224880 -1001969052
        1480113630 -648164238 1543788032</internalNodes>
      <leafValues>
        -2.7517586946487427e-01 5.0487253814935684e-02</leafValues></_>
    <_>
      <internalNodes>
        0 -1 2265 1627128093 -1082475729 -10998914 636381908 1742562805
        1877243693 -1080905784 -439062900</internalNodes>
      <leafValues>
        -1.3636703789234161e-01 1.0327357798814774e-01</leafValues></_>
    <_>
      <internalNodes>
        0 -1 606 1284432466 151942906 1658085140 723837154 1473574324
        1257291297 -778744665 1093104214</internalNodes>
      <leafValues>
        -1.8998964130878448e-01 7.2758562862873077e-02</leafValues></_>
    <_>
      <internalNodes>
        0 -1 3692 -1627516028 1920741047 458439077 1028574975 391448487
        -663478273 859647983 1823434318</internalNodes>
      <leafValues>
        -1.0800685733556747e-01 1.3180688023567200e-01</leafValues></_>
    <_>
      <internalNodes>
        0 -1 7392 583280437 616228661 1985753527 43390966 266685813
        -671237573 -3851588 205526528</internalNodes>
      <leafValues>
        -3.2651680707931519e-01 4.3957855552434921e-02</leafValues></_>
    <_>
      <internalNodes>
        0 -1 3790 -17236493 -688144677 1857258047 -1411783809 -491972785
        -1177174337 -201441475 -271586745</internalNodes>
      <leafValues>
        -7.2552911937236786e-02 1.9913433492183685e-01</leafValues></_>
    <_>
      <internalNodes>
        0 -1 8354 -931890832 -1158926408 -1679869194 925695600
        -1355196439 -587614764 -1889127452 -1431879900</internalNodes>
      <leafValues>
        -1.5368561446666718e-01 9.0610817074775696e-02</leafValues></_>
    <_>
      <internalNodes>
        0 -1 1329 1277102158 -1440619296 770203519 -554730736 1128556510
        -93057558 -53092513 -1079669838</internalNodes>
      <leafValues>
        -1.0524676740169525e-01 1.3354492187500000e-01</leafValues></_>
    <_>
      <internalNodes>
        0 -1 1240 -390618846 1340583918 1811718384 1400595046 1560229325
        141649903 -203009824 -169088006</internalNodes>
      <leafValues>
        -1.0291653126478195e-01 1.3957400619983673e-01</leafValues></_>
    <_>
      <internalNodes>
        0 -1 2889 1424942850 806796909 1436244260 753158687 81219537
        -121730308 1803008092 204736036</internalNodes>
      <leafValues>
        -1.7430341243743896e-01 7.9713568091392517e-02</leafValues></_>
    <_>
      <internalNodes>
        0 -1 3110 1235730243 887578579 1171017597 179142383 -575852681
        -1184309577 1299185129 -1603935797</internalNodes>
      <leafValues>
        -9.8717667162418365e-02 1.4720669388771057e-01</leafValues></_>
    <_>
      <internalNodes>
        0 -1 652 1492103155 444014239 -1084970220 666690474 391016048
        1559635455 -1275630920 1922388514</internalNodes>
      <leafValues>
        -1.4079380035400391e-01 9.5862507820129395e-02</leafValues></_>
    <_>
      <internalNodes>
        0 -1 9509 -17050603 1061109251 1924611118 2008283132 -502121793
        958266671 -1291959569 -399539653</internalNodes>
      <leafValues>
        -8.0269150435924530e-02 1.6947363317012787e-01</leafValues></_>
    <_>
      <internalNodes>
        0 -1 626 813674487 896087654 -4465745 -105794510 1619318203
        -1090648292 1990215929 -181160190</internalNodes>
      <leafValues>
        -8.5378259420394897e-02 1.5829938650131226e-01</leafValues></_>
    <_>
      <internalNodes>
        0 -1 2079 1223868936 173043488 1029274497 -159062356 1110471170
        -933881570 1062553872 402658964</internalNodes>
      <leafValues>
        -2.8026100993156433e-01 4.9556475132703781e-02</leafValues></_>
    <_>
      <internalNodes>
        0 -1 6727 117182816 -1531922025 1977591536 -1141333792
        -193447017 523610941 -1225127480 -1498673404</internalNodes>
      <leafValues>
        -1.7238017916679382e-01 7.9074211418628693e-02</leafValues></_>
    <_>
      <internalNodes>
        0 -1 3259 -72369777 2041511914 511291952 -1664306458 1306512317
        1180628765 -672881160 -989862930</internalNodes>
      <leafValues>
        -7.9214863479137421e-02 1.7059342563152313e-01</leafValues></_>
    <_>
      <internalNodes>
        0 -1 3049 -571691524 557366380 1606422487 29373946 1389176191
        1598272520 1237663676 1309480615</internalNodes>
      <leafValues>
        -1.3431395590305328e-01 9.9552363157272339e-02</leafValues></_>
    <_>
      <internalNodes>
        0 -1 9837 -2937759 2030893839 949817612 -219492305 -604019124
        1964075355 2096549288 808904526</internalNodes>
      <leafValues>
        -1.3745766878128052e-01 9.8065249621868134e-02</leafValues></_>
    <_>
      <internalNodes>
        0 -1 5379 -983631041 -615186443 -1077908077 1487191171
        1266275831 -25911379 -34752749 -395855389</internalNodes>
      <leafValues>
        -8.3272188901901245e-02 1.6636748611927032e-01</leafValues></_>
    <_>
      <internalNodes>
        0 -1 2957 -2098158588 540860183 764094986 560473114 -867152444
        510995820 -258983864 543167848</internalNodes>
      <leafValues>
        -2.4001131951808929e-01 5.8091137558221817e-02</leafValues></_>
    <_>
      <internalNodes>
        0 -1 8078 1711333154 1495427325 -425454382 1717084686 1294251780
        -2128045076 777985608 941652292</internalNodes>
      <leafValues>
        -2.1551494300365448e-01 6.3415691256523132e-02</leafValues></_>
    <_>
      <internalNodes>
        0 -1 1204 -404968671 1763889517 -640489806 -393342478 1194208069
        761563412 -275442460 -992479754</internalNodes>
      <leafValues>
        -1.7321671545505524e-01 7.7876195311546326e-02</leafValues></_>
    <_>
      <internalNodes>
        0 -1 6995 1322517509 -40599642 -557920395 913450734 -270689691
        2110895033 -147244368 135528824</internalNodes>
      <leafValues>
        -2.4198748171329498e-01 5.5798120796680450e-02</leafValues></_>
    <_>
      <internalNodes>
        0 -1 1680 804038514 1726414374 -145250526 1853273824 43953013
        669907934 1122309064 1224569361</internalNodes>
      <leafValues>
        -1.8167902529239655e-01 7.3170326650142670e-02</leafValues></_>
    <_>
      <internalNodes>
        0 -1 2970 -407964677 1562360102 -271885199 901052185 -1587626400
        -331953214 803097923 -838923058</internalNodes>
      <leafValues>
        -8.3951562643051147e-02 1.6027326881885529e-01</leafValues></_>
    <_>
      <internalNodes>
        0 -1 4729 -782441839 -1819906245 2095947501 -1108525354
        1905193111 -1142449158 -2055529175 -343419525</internalNodes>
      <leafValues>
        -7.8259862959384918e-02 1.7300054430961609e-01</leafValues></_>
    <_>
      <internalNodes>
        0 -1 2720 656641280 -2054885438 670173872 -1287340256 1207889044
        68041453 1708058324 1621435548</internalNodes>
      <leafValues>
        -1.7712813615798950e-01 7.6225869357585907e-02</leafValues></_>
    <_>
      <internalNodes>
        0 -1 9961 -226972868 1026641844 616657598 674544871 -581423736
        -1926017923 -1201234534 1219557666</internalNodes>
      <leafValues>
        -1.4587408304214478e-01 9.3865506350994110e-02</leafValues></_>
    <_>
      <internalNodes>
        0 -1 4037 241434656 -1977871827 1878342996 506204197 341800644
        -1443708611 1992980080 742981660</internalNodes>
      <leafValues>
        -2.7436661720275879e-01 5.0603095442056656e-02</leafValues></_>
    <_>
      <internalNodes>
        0 -1 1116 1940582933 1014361699 -233314241 1374649315 964263929
        -1125114201 -1146469480 -386937890</internalNodes>
      <leafValues>
        -8.1052467226982117e-02 1.7064169049263000e-01</leafValues></_>
    <_>
      <internalNodes>
        0 -1 7349 1766638995 4691751 -4168 -1309372498 -2063778313
        -89276441 919019805 -1943181542</internalNodes>
      <leafValues>
        -1.0842518508434296e-01 1.2431870400905609e-01</leafValues></_>
    <_>
      <internalNodes>
        0 -1 137 1082362160 -2011322970 726015152 -561474752 440988906
        -1939002592 80478352 146142866</internalNodes>
      <leafValues>
        -1.6453608870506287e-01 8.2442224025726318e-02</leafValues></_>
    <_>
      <internalNodes>
        0 -1 9094 212078084 234897207 1073675122 675159907 -1387956683
        1777792623 2132687904 545529348</internalNodes>
      <leafValues>
        -4.1968038678169250e-01 3.1356155872344971e-02</leafValues></_>
    <_>
      <internalNodes>
        0 -1 2830 897050503 871362443 872414922 897056338 1920297399
        -1107310595 -151548180 -1464836217</internalNodes>
      <leafValues>
        -1.0261051356792450e-01 1.3381463289260864e-01</leafValues></_>
    <_>
      <internalNodes>
        0 -1 740 -890066830 -251796107 -1124191637 -2019377653 97881890
        -1259872395 2013102040 2079844115</internalNodes>
      <leafValues>
        -1.1617410182952881e-01 1.1880256980657578e-01</leafValues></_>
    <_>
      <internalNodes>
        0 -1 6024 -120013375 1996431329 192785370 938340067 1583148887
        -134502739 -16998529 -1358156216</internalNodes>
      <leafValues>
        -9.4060406088829041e-02 1.4406229555606842e-01</leafValues></_>
    <_>
      <internalNodes>
        0 -1 1600 -209019473 696391330 -1675719022 -1765633312 3831503
        1278951303 1878980084 1364457394</internalNodes>
      <leafValues>
        -1.2099256366491318e-01 1.1309383809566498e-01</leafValues></_>
    <_>
      <internalNodes>
        0 -1 8929 251405572 545187701 1455727686 711606050 1438416652
        1329261557 -1082376444 50078260</internalNodes>
      <leafValues>
        -3.4185314178466797e-01 4.0223482996225357e-02</leafValues></_>
    <_>
      <internalNodes>
        0 -1 9955 -161707004 719832645 -1634333574 -789580930 1885853508
        -344106155 -122177996 1616052094</internalNodes>
      <leafValues>
        -1.5170381963253021e-01 9.1306202113628387e-02</leafValues></_>
    <_>
      <internalNodes>
        0 -1 6308 108322076 -2011187678 -1669416997 -1171603784
        1228915857 -9045293 662681556 1144044914</internalNodes>
      <leafValues>
        -1.7572693526744843e-01 7.8194402158260345e-02</leafValues></_>
    <_>
      <internalNodes>
        0 -1 507 -126448893 863941434 1481162224 634103635 1358187829
        1948737524 -571011006 1738229448</internalNodes>
      <leafValues>
        -1.4131321012973785e-01 9.9160097539424896e-02</leafValues></_>
    <_>
      <internalNodes>
        0 -1 1358 1270047206 1349217844 450820232 -1136731202
        -1067160781 1623079500 65303873 1016858924</internalNodes>
      <leafValues>
        -1.7214098572731018e-01 7.8665457665920258e-02</leafValues></_>
    <_>
      <internalNodes>
        0 -1 8696 134485044 235716434 -1101612332 -1126130670 -443608896
        884021237 1518016760 607134788</internalNodes>
      <leafValues>
        -4.1473799943923950e-01 3.2061237841844559e-02</leafValues></_>
    <_>
      <internalNodes>
        0 -1 9888 -289101460 1483669451 771321790 -227351268 737533429
        205422591 -461787484 -1511535110</internalNodes>
      <leafValues>
        -1.0592656582593918e-01 1.3065743446350098e-01</leafValues></_>
    <_>
      <internalNodes>
        0 -1 3637 670304000 237158242 -421583088 -2109713040 592272661
        1173508941 -1597758268 338702316</internalNodes>
      <leafValues>
        -3.0720821022987366e-01 4.4900916516780853e-02</leafValues></_>
    <_>
      <internalNodes>
        0 -1 481 -735854544 291681853 1239249397 1472942424 -9291363
        -1087125100 -453510508 -1540946894</internalNodes>
      <leafValues>
        -1.1261788755655289e-01 1.2129691988229752e-01</leafValues></_>
    <_>
      <internalNodes>
        0 -1 5575 77595648 809612401 391022361 394044832 -473161949
        -142754669 -1159851359 314842624</internalNodes>
      <leafValues>
        -2.5379249453544617e-01 5.3422570228576660e-02</leafValues></_>
    <_>
      <internalNodes>
        0 -1 3839 -106694149 1796191406 2011639473 2112856898 189004767
        -1966166033 1994900711 -301997109</internalNodes>
      <leafValues>
        -5.3867451846599579e-02 2.5697723031044006e-01</leafValues></_>
    <_>
      <internalNodes>
        0 -1 9681 -180126966 -315429594 2142863193 -399299068 792753106
        -1164400395 1548300733 -66846857</internalNodes>
      <leafValues>
        -8.4387153387069702e-02 1.6023492813110352e-01</leafValues></_>
    <_>
      <internalNodes>
        0 -1 2302 218634288 1386951568 416516625 498466880 580388104
        -1915137047 -1933230856 144737664</internalNodes>
      <leafValues>
        -2.5251278281211853e-01 5.3403820842504501e-02</leafValues></_>
    <_>
      <internalNodes>
        0 -1 406 -3240009 -1114395805 972181151 464645632 2109668825
        -1342671947 2125549049 -72616462</internalNodes>
      <leafValues>
        -7.7916078269481659e-02 1.6989967226982117e-01</leafValues></_>
    <_>
      <internalNodes>
        0 -1 4720 -172573947 -1402865692 -402682054 -37753482 396746668
        -372293649 -273158154 -940594530</internalNodes>
      <leafValues>
        -7.5409628450870514e-02 1.7858198285102844e-01</leafValues></_>
    <_>
      <internalNodes>
        0 -1 8472 1832009552 -29351915 2055977700 1045072418 940600917
        939801280 2034792017 201371552</internalNodes>
      <leafValues>
        -2.6233458518981934e-01 5.1438327878713608e-02</leafValues></_>
    <_>
      <internalNodes>
        0 -1 1576 1694011181 -1267253385 -16986154 -353227466 -437260363
        -1342423169 1958328036 -1259083798</internalNodes>
      <leafValues>
        -1.0780768096446991e-01 1.2435783445835114e-01</leafValues></_>
    <_>
      <internalNodes>
        0 -1 4957 245801380 1905201356 1725673658 -1867581564 -501137880
        236236287 -1217658579 540902533</internalNodes>
      <leafValues>
        -1.7963190376758575e-01 7.5417794287204742e-02</leafValues></_>
    <_>
      <internalNodes>
        0 -1 1093 -1226981488 914458167 -1830933254 518348695 1219183772
        -1232973081 1458484666 1208405954</internalNodes>
      <leafValues>
        -1.3872261345386505e-01 9.6892088651657104e-02</leafValues></_>
    <_>
      <internalNodes>
        0 -1 8823 908735032 515394486 643319728 -1669850445 1564269456
        -68203388 255118149 538974752</internalNodes>
      <leafValues>
        -3.1772121787071228e-01 4.3194022029638290e-02</leafValues></_>
    <_>
      <internalNodes>
        0 -1 3335 -1056411847 -523344130 -1645954893 2070579947
        -196739762 -1891860481 -56212337 -1221701443</internalNodes>
      <leafValues>
        -1.0299953073263168e-01 1.3243606686592102e-01</leafValues></_>
    <_>
      <internalNodes>
        0 -1 4789 -601915146 1968473637 1240540656 411302635 -226586932
        1069309419 -726521062 973439887</internalNodes>
      <leafValues>
        -1.1781630665063858e-01 1.1670952290296555e-01</leafValues></_>
    <_>
      <internalNodes>
        0 -1 8917 -184808284 1358772083 -84528130 1006578530 -2032844875
        1866169783 -184759172 -415615433</internalNodes>
      <leafValues>
        -1.1285672336816788e-01 1.1884405463933945e-01</leafValues></_>
    <_>
      <internalNodes>
        0 -1 7858 -209781515 -1485362955 -1812096625 523565038
        1982647991 -1398435997 1760251431 539224610</internalNodes>
      <leafValues>
        -1.1107181012630463e-01 1.2479269504547119e-01</leafValues></_>
    <_>
      <internalNodes>
        0 -1 494 374255260 69296800 1605155856 602995108 944073937
        -1091410766 1971445233 150175863</internalNodes>
      <leafValues>
        -1.6413994133472443e-01 8.2081846892833710e-02</leafValues></_>
    <_>
      <internalNodes>
        0 -1 9309 -174280035 733841201 901126318 -54286482 -1102282897
        -303866695 -262508230 322681863</internalNodes>
      <leafValues>
        -1.0568077862262726e-01 1.3136225938796997e-01</leafValues></_>
    <_>
      <internalNodes>
        0 -1 9989 321306221 1463058781 -1073828521 -72853124 240198495
        -1967678059 2113300412 -925388626</internalNodes>
      <leafValues>
        -9.7420386970043182e-02 1.3951563835144043e-01</leafValues></_>
    <_>
      <internalNodes>
        0 -1 6257 -2110209691 -578887835 -327967475 -1107477570 90441672
        1463255036 -17492035 -825684459</internalNodes>
      <leafValues>
        -1.0000430792570114e-01 1.3285711407661438e-01</leafValues></_>
    <_>
      <internalNodes>
        0 -1 5965 1693457213 981359377 666087381 -1829716042 -1512330020
        970514431 1857361012 880568488</internalNodes>
      <leafValues>
        -1.8903447687625885e-01 7.0559009909629822e-02</leafValues></_>
    <_>
      <internalNodes>
        0 -1 6674 -323096697 -80176459 -1155485761 -1078137305
        -311313025 -1796841993 -1745570827 -334513406</internalNodes>
      <leafValues>
        -7.8817710280418396e-02 1.7130720615386963e-01</leafValues></_>
    <_>
      <internalNodes>
        0 -1 9872 1680874548 520156016 393391579 -1188506401 1538536502
        -76634659 -320599818 1287966212</internalNodes>
      <leafValues>
        -2.0254847407341003e-01 6.5638422966003418e-02</leafValues></_>
    <_>
      <internalNodes>
        0 -1 9033 -1504235974 1512617789 1609227575 -538706258 -28524699
        -1283688474 -42676737 -1734094193</internalNodes>
      <leafValues>
        -9.1678701341152191e-02 1.5105928480625153e-01</leafValues></_>
    <_>
      <internalNodes>
        0 -1 3161 -477457626 1676212906 -1101535326 -707201232 335908046
        213708637 919507137 -208839073</internalNodes>
      <leafValues>
        -1.0255178809165955e-01 1.3439965248107910e-01</leafValues></_></weakClassifiers></stage7>
</opencv_storage>
