<?xml version="1.0"?>
<opencv_storage>
<cascade>
  <stageType>BOOST</stageType>
  <featureType>LBP</featureType>
  <height>30</height>
  <width>40</width>
  <stageParams>
    <boostType>GAB</boostType>
    <minHitRate>9.9900001287460327e-01</minHitRate>
    <maxFalseAlarm>4.0000000596046448e-01</maxFalseAlarm>
    <weightTrimRate>9.4999998807907104e-01</weightTrimRate>
    <maxDepth>1</maxDepth>
    <maxWeakCount>100</maxWeakCount></stageParams>
  <featureParams>
    <maxCatCount>256</maxCatCount>
    <featSize>1</featSize></featureParams>
  <stageNum>18</stageNum>
  <stages>
    <!-- stage 0 -->
    <_>
      <maxWeakCount>6</maxWeakCount>
      <stageThreshold>-1.7113125324249268e+00</stageThreshold>
      <weakClassifiers>
        <_>
          <internalNodes>
            0 -1 113 -704839683 -136973833 -774683137 -8400385
            -221579777 -67256183 -38013957 -50552644</internalNodes>
          <leafValues>
            -8.2534140348434448e-01 5.1092517375946045e-01</leafValues></_>
        <_>
          <internalNodes>
            0 -1 185 -855646209 -1929851652 -1359479044 -855838746
            -50332161 -1929585156 234860543 -855640897</internalNodes>
          <leafValues>
            -5.4615819454193115e-01 7.5088042020797729e-01</leafValues></_>
        <_>
          <internalNodes>
            0 -1 42 -549126164 -11415149 -750726225 -6845495 -258369078
            -74841972 1940110318 -1148648960</internalNodes>
          <leafValues>
            -6.0236936807632446e-01 5.9733635187149048e-01</leafValues></_>
        <_>
          <internalNodes>
            0 -1 52 -537067524 -33778916 -547908609 -530981 -1624704003
            -91649906 2076093247 -1984952064</internalNodes>
          <leafValues>
            -7.0262116193771362e-01 4.6974772214889526e-01</leafValues></_>
        <_>
          <internalNodes>
            0 -1 165 -17844241 654280701 -1202069541 -2064908321
            -787742979 9405947 -167784961 16252863</internalNodes>
          <leafValues>
            -7.7019280195236206e-01 4.1443163156509399e-01</leafValues></_>
        <_>
          <internalNodes>
            0 -1 89 -515850576 -44968555 -720095255 -2290916 671132349
            -1146906610 -1429672002 -1919417280</internalNodes>
          <leafValues>
            -6.0730618238449097e-01 5.3566461801528931e-01</leafValues></_></weakClassifiers></_>
    <!-- stage 1 -->
    <_>
      <maxWeakCount>8</maxWeakCount>
      <stageThreshold>-1.7044848203659058e+00</stageThreshold>
      <weakClassifiers>
        <_>
          <internalNodes>
            0 -1 26 -193 -4196417 -222051973 -2130517 -9471117
            -351846125 -673749195 -9207949</internalNodes>
          <leafValues>
            -7.1355062723159790e-01 5.3995436429977417e-01</leafValues></_>
        <_>
          <internalNodes>
            0 -1 38 290716671 299569663 -610937889 -1289905699
            1531411451 603898313 -22183937 14663418</internalNodes>
          <leafValues>
            -6.8617391586303711e-01 4.4864931702613831e-01</leafValues></_>
        <_>
          <internalNodes>
            0 -1 61 855650480 -4935427 419958269 -1085178915 159510763
            -1143265048 -1417106689 -1614279664</internalNodes>
          <leafValues>
            -5.8942687511444092e-01 5.7023537158966064e-01</leafValues></_>
        <_>
          <internalNodes>
            0 -1 130 -11141691 1968235277 -1290024273 1430618095
            -1139232019 -48586105 1319115 812485183</internalNodes>
          <leafValues>
            -6.0864347219467163e-01 4.7553393244743347e-01</leafValues></_>
        <_>
          <internalNodes>
            0 -1 51 -543621188 -4419695 -618931764 -2172521 -1333609731
            -1148671568 -829605715 -1674047324</internalNodes>
          <leafValues>
            -6.5119093656539917e-01 4.6410828828811646e-01</leafValues></_>
        <_>
          <internalNodes>
            0 -1 186 -58721155 14973172 1073676030 144505982 -587206913
            754827261 -839002372 -857740325</internalNodes>
          <leafValues>
            -5.5071586370468140e-01 5.6081748008728027e-01</leafValues></_>
        <_>
          <internalNodes>
            0 -1 0 -673732622 1234723223 -804052544 1070674525
            1620113854 -1562334687 839928436 468930611</internalNodes>
          <leafValues>
            -6.2249153852462769e-01 4.8969918489456177e-01</leafValues></_>
        <_>
          <internalNodes>
            0 -1 147 -17826284 1933701649 1644208708 1359272710
            1141615293 -1342175232 -2012552581 -2002912017</internalNodes>
          <leafValues>
            -5.3678721189498901e-01 5.2134031057357788e-01</leafValues></_></weakClassifiers></_>
    <!-- stage 2 -->
    <_>
      <maxWeakCount>7</maxWeakCount>
      <stageThreshold>-2.0948803424835205e+00</stageThreshold>
      <weakClassifiers>
        <_>
          <internalNodes>
            0 -1 31 -32897 -536870913 -67372737 -2359809 -558285
            -68463745 -143426029 -8913033</internalNodes>
          <leafValues>
            -7.0017433166503906e-01 4.7566372156143188e-01</leafValues></_>
        <_>
          <internalNodes>
            0 -1 178 -1 553516543 -1249902745 182443999 -203686917
            234615231 -538971393 83885563</internalNodes>
          <leafValues>
            -7.7340686321258545e-01 3.9843994379043579e-01</leafValues></_>
        <_>
          <internalNodes>
            0 -1 121 -2051 -101319756 -918368067 -170135377 -743965716
            -104873108 -963252497 -177084417</internalNodes>
          <leafValues>
            -5.2068209648132324e-01 5.7513070106506348e-01</leafValues></_>
        <_>
          <internalNodes>
            0 -1 98 482885557 -1074252833 -14696514 -6340643 -1073742337
            -67666209 -1141163009 -1073988632</internalNodes>
          <leafValues>
            -5.8036166429519653e-01 4.7545900940895081e-01</leafValues></_>
        <_>
          <internalNodes>
            0 -1 36 -185597977 -1002313341 -1323924637 1641267265
            1876121879 -859519197 1124131668 -243838109</internalNodes>
          <leafValues>
            -5.1713854074478149e-01 5.3742903470993042e-01</leafValues></_>
        <_>
          <internalNodes>
            0 -1 37 -17500713 -67112491 -683683393 -797282 2027802623
            -73541401 1536592623 -1116718336</internalNodes>
          <leafValues>
            -7.0142358541488647e-01 3.6980688571929932e-01</leafValues></_>
        <_>
          <internalNodes>
            0 -1 86 -959142091 -33996787 -255847555 -551691355
            1792027324 -1076328420 -1416610629 -1987049472</internalNodes>
          <leafValues>
            -5.4477059841156006e-01 5.2165758609771729e-01</leafValues></_></weakClassifiers></_>
    <!-- stage 3 -->
    <_>
      <maxWeakCount>9</maxWeakCount>
      <stageThreshold>-1.7720252275466919e+00</stageThreshold>
      <weakClassifiers>
        <_>
          <internalNodes>
            0 -1 193 -35654145 -1929655613 -496588677 -858260769
            -36177985 -391458145 -5243137 -922748161</internalNodes>
          <leafValues>
            -6.5656566619873047e-01 4.6856465935707092e-01</leafValues></_>
        <_>
          <internalNodes>
            0 -1 74 -134218770 -201346561 1268656859 -18257 2074078138
            -1174411010 2143010730 -7920758</internalNodes>
          <leafValues>
            -5.3592002391815186e-01 5.2303498983383179e-01</leafValues></_>
        <_>
          <internalNodes>
            0 -1 34 2113925119 -3023365 -49160833 -552001 339899175
            888880313 2132738871 1966422821</internalNodes>
          <leafValues>
            -7.1503084897994995e-01 3.6019533872604370e-01</leafValues></_>
        <_>
          <internalNodes>
            0 -1 96 -1810614696 -1107519491 -1848628484 -1212310307
            -1182220291 -1153721798 -342282497 -1128462164</internalNodes>
          <leafValues>
            -5.3310811519622803e-01 4.5842218399047852e-01</leafValues></_>
        <_>
          <internalNodes>
            0 -1 175 -570425409 -222630494 -1073742361 -252182929
            -150999073 1857716211 74874188 753923519</internalNodes>
          <leafValues>
            -4.2825207114219666e-01 5.8847910165786743e-01</leafValues></_>
        <_>
          <internalNodes>
            0 -1 3 -51007554 -2260652 278208924 1998037397 -652826116
            -89124240 -239751366 618741739</internalNodes>
          <leafValues>
            -6.2478989362716675e-01 3.8527688384056091e-01</leafValues></_>
        <_>
          <internalNodes>
            0 -1 77 335033341 -5405859 -980682307 -1074396193 -100795667
            -2252129 -74448899 -1470886488</internalNodes>
          <leafValues>
            -5.3637194633483887e-01 4.6396797895431519e-01</leafValues></_>
        <_>
          <internalNodes>
            0 -1 58 -322962457 -273683030 -201461584 -748341782
            -1698713975 1145999193 1962405968 -941623297</internalNodes>
          <leafValues>
            -4.3288311362266541e-01 6.0388714075088501e-01</leafValues></_>
        <_>
          <internalNodes>
            0 -1 167 -389 -180656091 -428163841 -1298205057 -545260540
            1996914437 1172305598 -429395969</internalNodes>
          <leafValues>
            -3.8592687249183655e-01 6.1215847730636597e-01</leafValues></_></weakClassifiers></_>
    <!-- stage 4 -->
    <_>
      <maxWeakCount>11</maxWeakCount>
      <stageThreshold>-2.2141273021697998e+00</stageThreshold>
      <weakClassifiers>
        <_>
          <internalNodes>
            0 -1 180 -236978193 1884340433 -1052092637 -866061053
            2022409707 973177073 760095 -856686593</internalNodes>
          <leafValues>
            -5.9583336114883423e-01 5.2340424060821533e-01</leafValues></_>
        <_>
          <internalNodes>
            0 -1 123 -100663809 -52868359 -1678534177 -1614939425
            -208953345 -1126324995 -71582465 -2130711364</internalNodes>
          <leafValues>
            -5.4839956760406494e-01 4.8036319017410278e-01</leafValues></_>
        <_>
          <internalNodes>
            0 -1 80 94385137 -33760835 487890941 -1110077099 -1162216707
            -1078423299 -1155055877 -1080031200</internalNodes>
          <leafValues>
            -4.9876070022583008e-01 4.9711114168167114e-01</leafValues></_>
        <_>
          <internalNodes>
            0 -1 5 -3672576 -1950097137 -1858766864 -435197015
            -578164303 1219469615 1880182784 -908594713</internalNodes>
          <leafValues>
            -6.0238790512084961e-01 4.2315965890884399e-01</leafValues></_>
        <_>
          <internalNodes>
            0 -1 104 -1562313739 -67125259 -268681217 -2228243 -71501923
            -1074266115 -332033 -1433925628</internalNodes>
          <leafValues>
            -4.7597533464431763e-01 5.2421754598617554e-01</leafValues></_>
        <_>
          <internalNodes>
            0 -1 27 -268435465 -537699561 -652479689 -15838893
            2058698359 -92410837 1501782902 1735620119</internalNodes>
          <leafValues>
            -6.0214442014694214e-01 4.0575167536735535e-01</leafValues></_>
        <_>
          <internalNodes>
            0 -1 159 -970267002 -193012006 -259861530 -1333604838
            1212366910 235645755 -121124817 -160225749</internalNodes>
          <leafValues>
            -5.8873701095581055e-01 4.0570738911628723e-01</leafValues></_>
        <_>
          <internalNodes>
            0 -1 9 -397087522 -101058081 -1006571754 1528867813 74773340
            -260046591 -2077111525 -101329323</internalNodes>
          <leafValues>
            -6.3424140214920044e-01 3.6935827136039734e-01</leafValues></_>
        <_>
          <internalNodes>
            0 -1 132 1059077981 -1118443019 -1685896133 -35761351
            2072582653 -8352919 -879494211 -1347156064</internalNodes>
          <leafValues>
            -5.0921374559402466e-01 4.8688104748725891e-01</leafValues></_>
        <_>
          <internalNodes>
            0 -1 145 1818162382 1909653967 1478320346 1347700316
            1653228104 575062903 -957931318 -357612225</internalNodes>
          <leafValues>
            -5.7015949487686157e-01 4.2227318882942200e-01</leafValues></_>
        <_>
          <internalNodes>
            0 -1 176 -65097608 585736 -1845276264 275757727 1515941695
            483053569 2081092460 846193071</internalNodes>
          <leafValues>
            -6.1257594823837280e-01 3.8218721747398376e-01</leafValues></_></weakClassifiers></_>
    <!-- stage 5 -->
    <_>
      <maxWeakCount>12</maxWeakCount>
      <stageThreshold>-1.8388583660125732e+00</stageThreshold>
      <weakClassifiers>
        <_>
          <internalNodes>
            0 -1 79 530068981 -539124739 1033445373 -1073769987
            -1145263361 -6256452 -1645625345 -1078196036</internalNodes>
          <leafValues>
            -6.3965570926666260e-01 3.2163742184638977e-01</leafValues></_>
        <_>
          <internalNodes>
            0 -1 177 -419434497 -1330594917 -1781045225 -162268173
            -392197121 -1131949291 -269756231 -1996759555</internalNodes>
          <leafValues>
            -5.4068702459335327e-01 4.2950642108917236e-01</leafValues></_>
        <_>
          <internalNodes>
            0 -1 181 -401 -192946825 -83902721 -1603604633 -276452
            -589498540 -17584966 -524288033</internalNodes>
          <leafValues>
            -4.1316574811935425e-01 5.5174082517623901e-01</leafValues></_>
        <_>
          <internalNodes>
            0 -1 140 1544312309 -207815683 -170942481 -205106181
            -273171971 -10491653 -1145197057 -1432609312</internalNodes>
          <leafValues>
            -5.0798398256301880e-01 4.4474878907203674e-01</leafValues></_>
        <_>
          <internalNodes>
            0 -1 39 -476578016 567787520 1976243186 1978659152
            -947651929 -1386233807 -486541325 368570451</internalNodes>
          <leafValues>
            -5.5541372299194336e-01 4.1262471675872803e-01</leafValues></_>
        <_>
          <internalNodes>
            0 -1 75 1828460508 1071534237 1301272319 -1107323332
            1687992821 -21316145 -1366419462 -1112796048</internalNodes>
          <leafValues>
            -6.2141120433807373e-01 3.5560446977615356e-01</leafValues></_>
        <_>
          <internalNodes>
            0 -1 31 -1835009 -4194305 -130 -278533 2004819793 -42500233
            -1082950027 -262281</internalNodes>
          <leafValues>
            -4.3815284967422485e-01 5.1981157064437866e-01</leafValues></_>
        <_>
          <internalNodes>
            0 -1 49 -706417700 1048511481 -774628816 -544368198
            -167648298 -543667815 -71624258 1047469898</internalNodes>
          <leafValues>
            -6.0707771778106689e-01 3.6330190300941467e-01</leafValues></_>
        <_>
          <internalNodes>
            0 -1 158 -570427080 -750071008 -805245918 1561911608
            -1462178675 -1195580620 -401939957 -1067662673</internalNodes>
          <leafValues>
            -6.5542727708816528e-01 3.4799396991729736e-01</leafValues></_>
        <_>
          <internalNodes>
            0 -1 114 2005664088 1903524121 -373206531 2141165559
            -223823434 -1616203565 1748548351 748688130</internalNodes>
          <leafValues>
            -5.9412556886672974e-01 3.7008467316627502e-01</leafValues></_>
        <_>
          <internalNodes>
            0 -1 162 -612368595 -11877285 -191475106 1885733083
            1599669768 1596345666 -1869962364 -229114270</internalNodes>
          <leafValues>
            -4.3731456995010376e-01 4.9240902066230774e-01</leafValues></_>
        <_>
          <internalNodes>
            0 -1 29 -779167756 -682290277 190186713 -10516129 562765029
            1967386255 -720734038 1892754149</internalNodes>
          <leafValues>
            -6.9561630487442017e-01 3.1963399052619934e-01</leafValues></_></weakClassifiers></_>
    <!-- stage 6 -->
    <_>
      <maxWeakCount>10</maxWeakCount>
      <stageThreshold>-1.6409947872161865e+00</stageThreshold>
      <weakClassifiers>
        <_>
          <internalNodes>
            0 -1 16 -8388617 -69754879 -1859922165 -706407087 -89210188
            -89476605 -472759578 1735857459</internalNodes>
          <leafValues>
            -6.5732485055923462e-01 2.4360188841819763e-01</leafValues></_>
        <_>
          <internalNodes>
            0 -1 57 -1050734 -989337588 -250141840 -134481437 -850399574
            168551114 1187508464 -744492142</internalNodes>
          <leafValues>
            -4.7744867205619812e-01 4.6517562866210938e-01</leafValues></_>
        <_>
          <internalNodes>
            0 -1 131 -606293003 -4349667 1427026655 -12084545 -38209283
            -1147432265 -69603345 -1931204492</internalNodes>
          <leafValues>
            -7.0988869667053223e-01 3.1409516930580139e-01</leafValues></_>
        <_>
          <internalNodes>
            0 -1 194 -1493711465 -1361180813 -1252570677 -1965111593
            -1460971365 -1473518717 -660678665 -889201665</internalNodes>
          <leafValues>
            -4.9834638833999634e-01 4.4605013728141785e-01</leafValues></_>
        <_>
          <internalNodes>
            0 -1 160 -237267413 -31495574 721342076 -263260433
            2053071872 -79528368 -319623688 -428867845</internalNodes>
          <leafValues>
            -4.2754843831062317e-01 5.0632458925247192e-01</leafValues></_>
        <_>
          <internalNodes>
            0 -1 110 588262708 -1311750443 -1655137811 -536897091
            79207389 -538363662 -1158849569 1073482496</internalNodes>
          <leafValues>
            -6.5971410274505615e-01 3.5101780295372009e-01</leafValues></_>
        <_>
          <internalNodes>
            0 -1 149 -832569348 1564754468 -1056484591 -1074436832
            -15797523 -1270853307 -132083746 13889103</internalNodes>
          <leafValues>
            -5.7156020402908325e-01 3.8542345166206360e-01</leafValues></_>
        <_>
          <internalNodes>
            0 -1 84 -716173864 1058911645 25166004 -176168453 1232468958
            -619174931 1001073295 -1767920741</internalNodes>
          <leafValues>
            -4.8517978191375732e-01 4.4635459780693054e-01</leafValues></_>
        <_>
          <internalNodes>
            0 -1 156 -800666034 1381882099 -870051777 1349664828
            -1600354230 1919631366 1348100334 -497558657</internalNodes>
          <leafValues>
            -5.0403445959091187e-01 4.0988689661026001e-01</leafValues></_>
        <_>
          <internalNodes>
            0 -1 47 -578891853 -1901191365 -1090648542 -1276381203
            -520212565 197664479 1979655107 -157815361</internalNodes>
          <leafValues>
            -3.9488044381141663e-01 5.4090458154678345e-01</leafValues></_></weakClassifiers></_>
    <!-- stage 7 -->
    <_>
      <maxWeakCount>11</maxWeakCount>
      <stageThreshold>-1.4199769496917725e+00</stageThreshold>
      <weakClassifiers>
        <_>
          <internalNodes>
            0 -1 164 -33555713 2105531491 -552746881 -178257985
            -338825233 1509637593 -282334273 1157627133</internalNodes>
          <leafValues>
            -7.0100140571594238e-01 1.6707415878772736e-01</leafValues></_>
        <_>
          <internalNodes>
            0 -1 66 1543288828 901671327 1024505759 2145096631 -73549091
            -70529825 -83118115 -1190394104</internalNodes>
          <leafValues>
            -6.0630673170089722e-01 3.4312227368354797e-01</leafValues></_>
        <_>
          <internalNodes>
            0 -1 25 -536873097 -2098241 -201093121 -16844561 1567712528
            -211038185 -404232332 -143464601</internalNodes>
          <leafValues>
            -4.6334576606750488e-01 4.3689215183258057e-01</leafValues></_>
        <_>
          <internalNodes>
            0 -1 85 -408637515 -639806023 -1957456897 -196267
            -2002220049 -1080314434 -1342636113 166265860</internalNodes>
          <leafValues>
            -4.7252982854843140e-01 4.2095655202865601e-01</leafValues></_>
        <_>
          <internalNodes>
            0 -1 119 744767452 -1627695655 -539373569 -100105
            -1125376259 -5441057 -1114784259 -1078457540</internalNodes>
          <leafValues>
            -5.5554479360580444e-01 3.7680858373641968e-01</leafValues></_>
        <_>
          <internalNodes>
            0 -1 187 -288883659 413410492 771702521 208519141 -184551425
            -1938883073 1291836500 -989862657</internalNodes>
          <leafValues>
            -4.0946158766746521e-01 5.0284898281097412e-01</leafValues></_>
        <_>
          <internalNodes>
            0 -1 35 -673186329 30261377 -1181400165 23266051 -1072119602
            2033277103 1600328153 1465340019</internalNodes>
          <leafValues>
            -5.1955002546310425e-01 4.0470990538597107e-01</leafValues></_>
        <_>
          <internalNodes>
            0 -1 161 -197738978 1068613764 709171980 810586203 135223557
            1764426146 -1421328289 1488941247</internalNodes>
          <leafValues>
            -5.8856296539306641e-01 3.3715614676475525e-01</leafValues></_>
        <_>
          <internalNodes>
            0 -1 76 -1327724163 -10947291 -781810945 -1081158659
            -745928196 -119575621 -1081529621 -1342693280</internalNodes>
          <leafValues>
            -5.7593327760696411e-01 3.2239443063735962e-01</leafValues></_>
        <_>
          <internalNodes>
            0 -1 48 -612565566 1490911254 1427603663 -276852674
            -119280070 -1943000630 2074721210 1055072203</internalNodes>
          <leafValues>
            -5.5536013841629028e-01 3.4748718142509460e-01</leafValues></_>
        <_>
          <internalNodes>
            0 -1 189 654220991 74773459 -1593224783 -1126257784 64189035
            -161492579 589758623 -1931481657</internalNodes>
          <leafValues>
            -4.5937734842300415e-01 4.2835673689842224e-01</leafValues></_></weakClassifiers></_>
    <!-- stage 8 -->
    <_>
      <maxWeakCount>12</maxWeakCount>
      <stageThreshold>-1.5768576860427856e+00</stageThreshold>
      <weakClassifiers>
        <_>
          <internalNodes>
            0 -1 30 -537395201 -67387045 -1750866957 -2894849 -81305994
            -1144799177 -76056745 -8915081</internalNodes>
          <leafValues>
            -6.2585031986236572e-01 2.3511904478073120e-01</leafValues></_>
        <_>
          <internalNodes>
            0 -1 105 -556270251 362798687 -1450113795 2132619547
            -1279084372 -55253812 539631788 683407786</internalNodes>
          <leafValues>
            -5.1551860570907593e-01 4.1076546907424927e-01</leafValues></_>
        <_>
          <internalNodes>
            0 -1 62 -1151737875 914331709 219646463 903681945
            -1190200321 2008516027 -1154753553 15847160</internalNodes>
          <leafValues>
            -6.1034959554672241e-01 3.0615732073783875e-01</leafValues></_>
        <_>
          <internalNodes>
            0 -1 93 2147460010 -173015041 2146778878 -138674445
            -13025285 -17221649 -1074315334 -1075598646</internalNodes>
          <leafValues>
            -4.3392440676689148e-01 4.6363726258277893e-01</leafValues></_>
        <_>
          <internalNodes>
            0 -1 81 655627605 -70069415 -642526789 -256261 -704776209
            -104870661 -348127233 -1680069368</internalNodes>
          <leafValues>
            -5.1332557201385498e-01 3.5601872205734253e-01</leafValues></_>
        <_>
          <internalNodes>
            0 -1 63 -269549917 1819193318 2012984944 -2063730782
            785377226 -2066944306 1205335954 -742393949</internalNodes>
          <leafValues>
            -3.8273763656616211e-01 4.9579384922981262e-01</leafValues></_>
        <_>
          <internalNodes>
            0 -1 172 -251665899 -798428240 -1744965859 -1732708932
            1616794653 -1124704897 -100762117 -629150681</internalNodes>
          <leafValues>
            -4.1501554846763611e-01 4.5444828271865845e-01</leafValues></_>
        <_>
          <internalNodes>
            0 -1 95 -415074816 -206513280 -1652109121 -274957314
            -759310601 -1142324606 1538169339 135542019</internalNodes>
          <leafValues>
            -6.4718616008758545e-01 2.7432063221931458e-01</leafValues></_>
        <_>
          <internalNodes>
            0 -1 128 -2030285483 -546036225 -128852485 -183829
            -204948483 -608655169 -1145380913 -1415046640</internalNodes>
          <leafValues>
            -4.4015109539031982e-01 3.9847561717033386e-01</leafValues></_>
        <_>
          <internalNodes>
            0 -1 45 -25171278 1829236714 -469768462 536602610 1711275471
            235274186 1475867568 -815794205</internalNodes>
          <leafValues>
            -3.9409467577934265e-01 4.6067109704017639e-01</leafValues></_>
        <_>
          <internalNodes>
            0 -1 142 217337841 756844372 -1022142926 -570467479
            932035311 -91540487 -2085371977 -1110164556</internalNodes>
          <leafValues>
            -5.2065050601959229e-01 3.7290245294570923e-01</leafValues></_>
        <_>
          <internalNodes>
            0 -1 183 -321126549 1277949071 1632817239 817615388
            -402410938 1879738001 1886382614 -1868565549</internalNodes>
          <leafValues>
            -4.3245363235473633e-01 4.4254982471466064e-01</leafValues></_></weakClassifiers></_>
    <!-- stage 9 -->
    <_>
      <maxWeakCount>11</maxWeakCount>
      <stageThreshold>-1.3599779605865479e+00</stageThreshold>
      <weakClassifiers>
        <_>
          <internalNodes>
            0 -1 22 -524297 -746602489 -1073037247 -1021845169
            -519968415 -846196607 -1072536783 -9175177</internalNodes>
          <leafValues>
            -5.2941179275512695e-01 4.2435997724533081e-01</leafValues></_>
        <_>
          <internalNodes>
            0 -1 108 504368240 -33778851 -1988362507 -712741 -1417376259
            -1078382085 229236479 -1074257888</internalNodes>
          <leafValues>
            -5.3737556934356689e-01 3.5025677084922791e-01</leafValues></_>
        <_>
          <internalNodes>
            0 -1 184 -138416321 826591573 -1522892243 811727810
            -796671374 785377071 1425878216 553645239</internalNodes>
          <leafValues>
            -4.7311854362487793e-01 3.8814723491668701e-01</leafValues></_>
        <_>
          <internalNodes>
            0 -1 2 -178523665 -161482893 -39850697 1095967553 1350602171
            -672873809 1989439167 1979176307</internalNodes>
          <leafValues>
            -4.5422053337097168e-01 4.1368508338928223e-01</leafValues></_>
        <_>
          <internalNodes>
            0 -1 168 -289739250 -303633081 2060511450 -532676476
            -1861285045 1869693975 2123790702 1734864759</internalNodes>
          <leafValues>
            -6.0426944494247437e-01 3.1513255834579468e-01</leafValues></_>
        <_>
          <internalNodes>
            0 -1 72 -340791669 -2102431830 -1308756398 1090174626
            -555762998 -1932759140 -706762797 -989987097</internalNodes>
          <leafValues>
            -4.1214880347251892e-01 4.3197998404502869e-01</leafValues></_>
        <_>
          <internalNodes>
            0 -1 69 1033635189 -1082629153 2098980347 -77736047
            -103235585 -4484593 -1073840147 -1095222896</internalNodes>
          <leafValues>
            -5.1572072505950928e-01 3.6126130819320679e-01</leafValues></_>
        <_>
          <internalNodes>
            0 -1 129 -616172264 1897629534 336823455 1031228763
            -1496254264 -1966438192 547547178 -1195673345</internalNodes>
          <leafValues>
            -4.3191725015640259e-01 4.4269752502441406e-01</leafValues></_>
        <_>
          <internalNodes>
            0 -1 83 2005512748 1387646711 -918054539 -549473937
            -525080108 -2084417 990609979 1939702411</internalNodes>
          <leafValues>
            -4.4039645791053772e-01 4.0545141696929932e-01</leafValues></_>
        <_>
          <internalNodes>
            0 -1 171 530476799 641988479 -668996101 -453381181
            1536915963 366696651 466568951 71298555</internalNodes>
          <leafValues>
            -6.6677629947662354e-01 2.7590048313140869e-01</leafValues></_>
        <_>
          <internalNodes>
            0 -1 18 1456904954 817206779 -733793825 -1116078146
            -497817278 -1156878148 1902334924 1849967884</internalNodes>
          <leafValues>
            -5.9075260162353516e-01 3.0086442828178406e-01</leafValues></_></weakClassifiers></_>
    <!-- stage 10 -->
    <_>
      <maxWeakCount>13</maxWeakCount>
      <stageThreshold>-1.4319195747375488e+00</stageThreshold>
      <weakClassifiers>
        <_>
          <internalNodes>
            0 -1 11 -1048609 -383794665 -2134718464 931579140 -707671921
            -1333753845 -947482928 -9306319</internalNodes>
          <leafValues>
            -6.5984570980072021e-01 1.8378140032291412e-01</leafValues></_>
        <_>
          <internalNodes>
            0 -1 102 1056757237 1067080023 -484707361 939048831
            -133538817 -1151351925 -886056737 -1342226509</internalNodes>
          <leafValues>
            -4.7787353396415710e-01 3.8771837949752808e-01</leafValues></_>
        <_>
          <internalNodes>
            0 -1 179 -117445065 -74575906 -727809921 944913570
            -1204032960 -232679352 -286281734 -535298545</internalNodes>
          <leafValues>
            -4.0627142786979675e-01 4.3675675988197327e-01</leafValues></_>
        <_>
          <internalNodes>
            0 -1 54 -294978606 -14935184 1406466423 1607943248
            1646459134 -5923919 1262010879 1241469041</internalNodes>
          <leafValues>
            -4.7424414753913879e-01 3.8706392049789429e-01</leafValues></_>
        <_>
          <internalNodes>
            0 -1 134 -160186859 1570077972 214614996 2111632711
            281556665 612997253 536939135 962457887</internalNodes>
          <leafValues>
            -5.0377815961837769e-01 3.6002531647682190e-01</leafValues></_>
        <_>
          <internalNodes>
            0 -1 32 -7110861 -6886593 -654232073 2130680284 1182498647
            1538721151 2068278087 1400340343</internalNodes>
          <leafValues>
            -6.3820570707321167e-01 2.3854020237922668e-01</leafValues></_>
        <_>
          <internalNodes>
            0 -1 87 877944149 -44019201 319799773 1608220667 2026028027
            -134520613 2002516927 -1946549595</internalNodes>
          <leafValues>
            -4.1248720884323120e-01 4.3924453854560852e-01</leafValues></_>
        <_>
          <internalNodes>
            0 -1 190 1694491069 82761274 -782515727 -1459689736
            -245993477 -2139111367 2022331380 -2067268452</internalNodes>
          <leafValues>
            -5.5555409193038940e-01 3.1673067808151245e-01</leafValues></_>
        <_>
          <internalNodes>
            0 -1 115 -1661190628 -40987745 -1790138371 -1076751114
            -1142277633 -474297721 -37016849 -1879307832</internalNodes>
          <leafValues>
            -5.3130102157592773e-01 3.3228164911270142e-01</leafValues></_>
        <_>
          <internalNodes>
            0 -1 59 -1343229965 -1410946194 871889553 66501905
            -805884694 248291326 -1006688845 -168820809</internalNodes>
          <leafValues>
            -4.1201901435852051e-01 4.5929387211799622e-01</leafValues></_>
        <_>
          <internalNodes>
            0 -1 143 259846133 -11042600 -1626308391 -143290152
            -611581960 -284642915 -1113121797 -106891212</internalNodes>
          <leafValues>
            -5.6874096393585205e-01 3.2953691482543945e-01</leafValues></_>
        <_>
          <internalNodes>
            0 -1 169 -361584074 1128702159 1745281278 -771058946
            1533955658 201692174 2012445439 -229703861</internalNodes>
          <leafValues>
            -5.0059688091278076e-01 3.8298299908638000e-01</leafValues></_>
        <_>
          <internalNodes>
            0 -1 24 -825041627 1574449424 -2147221197 -104516971
            -2117349945 1931769859 -365847913 258436087</internalNodes>
          <leafValues>
            -4.4814199209213257e-01 3.8955327868461609e-01</leafValues></_></weakClassifiers></_>
    <!-- stage 11 -->
    <_>
      <maxWeakCount>14</maxWeakCount>
      <stageThreshold>-1.3193747997283936e+00</stageThreshold>
      <weakClassifiers>
        <_>
          <internalNodes>
            0 -1 173 -137629745 -620629072 -1054784765 -150866128
            -1996241757 -100589440 101419467 -318911233</internalNodes>
          <leafValues>
            -6.0264903306961060e-01 2.3443983495235443e-01</leafValues></_>
        <_>
          <internalNodes>
            0 -1 127 -50479619 -76942887 -751595273 -2108643 -895897091
            -341202759 -1095501057 -1393235724</internalNodes>
          <leafValues>
            -5.6348025798797607e-01 3.0799260735511780e-01</leafValues></_>
        <_>
          <internalNodes>
            0 -1 19 -8389709 -290816156 -1744900172 -270340112
            -2072019225 -1485307979 2004170673 -145492109</internalNodes>
          <leafValues>
            -3.6159873008728027e-01 4.8535078763961792e-01</leafValues></_>
        <_>
          <internalNodes>
            0 -1 65 749737332 -1377992779 -1645710595 -1413713596
            -645985857 -325355 -1683243269 182135877</internalNodes>
          <leafValues>
            -5.6311738491058350e-01 2.8604027628898621e-01</leafValues></_>
        <_>
          <internalNodes>
            0 -1 41 -942934110 268403913 1354143600 552598415 -810029117
            1113230239 -792476288 1173869471</internalNodes>
          <leafValues>
            -5.5903196334838867e-01 2.9033324122428894e-01</leafValues></_>
        <_>
          <internalNodes>
            0 -1 40 -570625807 2111053620 -1208017046 -4917252
            1154797688 -202374534 1610481151 -14840065</internalNodes>
          <leafValues>
            -3.4334418177604675e-01 4.5324262976646423e-01</leafValues></_>
        <_>
          <internalNodes>
            0 -1 188 -1325679212 -1603530728 17992647 -1327623631
            -1073495397 -368340462 1430548708 -2063878923</internalNodes>
          <leafValues>
            -5.1895344257354736e-01 2.8985264897346497e-01</leafValues></_>
        <_>
          <internalNodes>
            0 -1 137 -128583857 -245581007 453581487 824306037
            -2146697076 -1085486751 677388362 808446299</internalNodes>
          <leafValues>
            -4.9366334080696106e-01 3.2475310564041138e-01</leafValues></_>
        <_>
          <internalNodes>
            0 -1 28 -254491841 -5274185 -787670701 1527682243 1385520638
            1905473914 1205702347 1934767923</internalNodes>
          <leafValues>
            -5.0504541397094727e-01 3.0420601367950439e-01</leafValues></_>
        <_>
          <internalNodes>
            0 -1 12 -271663208 -1113287717 1939377149 735955067
            1315895480 -1648146727 -930088769 1165432084</internalNodes>
          <leafValues>
            -6.3713598251342773e-01 2.2633759677410126e-01</leafValues></_>
        <_>
          <internalNodes>
            0 -1 155 -420490617 2138564502 -153619868 1920199871
            -765776122 1450696479 -704665089 -201605825</internalNodes>
          <leafValues>
            -3.7892922759056091e-01 4.4289001822471619e-01</leafValues></_>
        <_>
          <internalNodes>
            0 -1 116 997985628 491825621 1259229274 727434223 -69645571
            -73918451 2023827896 876553522</internalNodes>
          <leafValues>
            -6.3610041141510010e-01 2.7751529216766357e-01</leafValues></_>
        <_>
          <internalNodes>
            0 -1 194 -1125249025 -1898378165 -170915977 684639935
            848195615 -1806136306 -665434125 -847249921</internalNodes>
          <leafValues>
            -5.2935105562210083e-01 2.8802785277366638e-01</leafValues></_>
        <_>
          <internalNodes>
            0 -1 97 -723657564 -80083780 951269821 -256655050 1444495285
            -876508871 1503869371 -1081628919</internalNodes>
          <leafValues>
            -4.3759304285049438e-01 3.8925436139106750e-01</leafValues></_></weakClassifiers></_>
    <!-- stage 12 -->
    <_>
      <maxWeakCount>15</maxWeakCount>
      <stageThreshold>-1.6693483591079712e+00</stageThreshold>
      <weakClassifiers>
        <_>
          <internalNodes>
            0 -1 15 -151061537 -69887465 -268373609 -112081853
            -896865384 -356882171 -993204242 2002994791</internalNodes>
          <leafValues>
            -6.2833052873611450e-01 1.3698031008243561e-01</leafValues></_>
        <_>
          <internalNodes>
            0 -1 55 -3670041 1938700166 -74329125 1407124243 -359748102
            -1951753569 126431215 1140786599</internalNodes>
          <leafValues>
            -4.4640606641769409e-01 3.5065492987632751e-01</leafValues></_>
        <_>
          <internalNodes>
            0 -1 150 -19531018 684155014 -953962337 -249831593
            -1427639329 215690888 -592969985 79416572</internalNodes>
          <leafValues>
            -6.5147644281387329e-01 2.3149424791336060e-01</leafValues></_>
        <_>
          <internalNodes>
            0 -1 13 -50340865 -784219702 -1043488102 -75148622
            -893083426 1594403001 -356407060 -1788992</internalNodes>
          <leafValues>
            -5.2854913473129272e-01 2.8991314768791199e-01</leafValues></_>
        <_>
          <internalNodes>
            0 -1 170 -553652673 -21971082 -1326549313 1346102526
            -26223539 1577398028 -83890434 -10490129</internalNodes>
          <leafValues>
            -3.0339485406875610e-01 5.1016139984130859e-01</leafValues></_>
        <_>
          <internalNodes>
            0 -1 73 206583153 1034220863 -1860482565 -1617042639
            -1415747073 -7400803 -1986215937 -1627513496</internalNodes>
          <leafValues>
            -4.1589543223381042e-01 3.6779794096946716e-01</leafValues></_>
        <_>
          <internalNodes>
            0 -1 20 -1962975593 -1218549802 -804287500 -67973462
            1385326071 -262061819 1939034965 -789077261</internalNodes>
          <leafValues>
            -3.7241497635841370e-01 4.2557939887046814e-01</leafValues></_>
        <_>
          <internalNodes>
            0 -1 139 -3224099 1566428907 -251724161 1467715567
            -354533304 1776209790 -523054342 -83902821</internalNodes>
          <leafValues>
            -2.9032525420188904e-01 5.2824306488037109e-01</leafValues></_>
        <_>
          <internalNodes>
            0 -1 151 -63704220 -1419922310 244427078 -138808363
            -791676273 -20086285 -1385364244 -102004440</internalNodes>
          <leafValues>
            -3.9714196324348450e-01 4.0105351805686951e-01</leafValues></_>
        <_>
          <internalNodes>
            0 -1 109 172159273 1027234996 288608471 -36191779 2065162613
            -88489548 -1157190676 941754468</internalNodes>
          <leafValues>
            -4.8056456446647644e-01 3.2348066568374634e-01</leafValues></_>
        <_>
          <internalNodes>
            0 -1 174 -898630635 1343275441 -804716459 811758170
            -1933729792 1512698131 -422856642 -260604609</internalNodes>
          <leafValues>
            -4.7430673241615295e-01 3.3782306313514709e-01</leafValues></_>
        <_>
          <internalNodes>
            0 -1 136 1670938548 2073456990 -74868131 133186428 455625149
            1042481215 -1727971586 207564191</internalNodes>
          <leafValues>
            -5.5890679359436035e-01 2.8069326281547546e-01</leafValues></_>
        <_>
          <internalNodes>
            0 -1 99 -2032663632 1671025556 895287769 -1713399843
            1233670652 -68069447 982047487 679478276</internalNodes>
          <leafValues>
            -6.4853584766387939e-01 2.2329325973987579e-01</leafValues></_>
        <_>
          <internalNodes>
            0 -1 38 -1118568690 1888780307 -171877985 302637079
            1252682175 322873993 -376899329 1352133306</internalNodes>
          <leafValues>
            -6.8870681524276733e-01 2.2156374156475067e-01</leafValues></_>
        <_>
          <internalNodes>
            0 -1 94 -957562674 1693752127 -795306830 676731370
            1011501689 631804851 1525210928 -455228713</internalNodes>
          <leafValues>
            -5.5086177587509155e-01 2.7961161732673645e-01</leafValues></_></weakClassifiers></_>
    <!-- stage 13 -->
    <_>
      <maxWeakCount>14</maxWeakCount>
      <stageThreshold>-1.6428472995758057e+00</stageThreshold>
      <weakClassifiers>
        <_>
          <internalNodes>
            0 -1 122 -9437187 -757314659 -402569763 -1176806951
            1540345855 -157249858 -338859570 1405582149</internalNodes>
          <leafValues>
            -6.8190550804138184e-01 8.5001885890960693e-02</leafValues></_>
        <_>
          <internalNodes>
            0 -1 181 -16818385 -713302666 -83902467 1895542527
            -319215104 -564136068 -8704082 -117964929</internalNodes>
          <leafValues>
            -3.8713034987449646e-01 3.9999297261238098e-01</leafValues></_>
        <_>
          <internalNodes>
            0 -1 138 -2018763247 -1653069043 -982174211 -13048541
            -201771011 -4491298 -286738183 -1357381600</internalNodes>
          <leafValues>
            -4.5839980244636536e-01 3.4339928627014160e-01</leafValues></_>
        <_>
          <internalNodes>
            0 -1 50 -337848321 -235597409 822526686 -429639 -1583363105
            -1160992099 867054523 -270786816</internalNodes>
          <leafValues>
            -5.8892613649368286e-01 2.5088602304458618e-01</leafValues></_>
        <_>
          <internalNodes>
            0 -1 21 -788673 -1090519245 -589833 -8982544 1060290481
            -278814927 1064648533 -9183405</internalNodes>
          <leafValues>
            -2.4272437393665314e-01 6.0617870092391968e-01</leafValues></_>
        <_>
          <internalNodes>
            0 -1 56 -213909712 -2048265976 -773771055 -278031130
            -1449297669 -2145717630 322957536 -707798085</internalNodes>
          <leafValues>
            -3.7651613354682922e-01 4.0160217881202698e-01</leafValues></_>
        <_>
          <internalNodes>
            0 -1 103 -1165461707 2132394333 -83289609 -6435911
            -125208065 -67634885 -1173691717 -1398139128</internalNodes>
          <leafValues>
            -4.0844064950942993e-01 4.0468248724937439e-01</leafValues></_>
        <_>
          <internalNodes>
            0 -1 163 -130941163 -1174383716 1343291807 1033768464
            1946408092 674824485 -1000970049 -33816641</internalNodes>
          <leafValues>
            -3.9155495166778564e-01 3.9197766780853271e-01</leafValues></_>
        <_>
          <internalNodes>
            0 -1 191 796655359 -1929581059 -20481 -100798466 1040187383
            251658239 1307340797 -1929390881</internalNodes>
          <leafValues>
            -3.6064872145652771e-01 4.1625252366065979e-01</leafValues></_>
        <_>
          <internalNodes>
            0 -1 23 2130638814 -134218065 1879043737 1006092207
            1069398002 2145206006 1874323387 -75311321</internalNodes>
          <leafValues>
            -3.1383770704269409e-01 4.9326521158218384e-01</leafValues></_>
        <_>
          <internalNodes>
            0 -1 133 -774110188 1387746053 -1855327749 -19332335
            -644204039 -644037665 -645395481 782249504</internalNodes>
          <leafValues>
            -6.7643707990646362e-01 2.0996393263339996e-01</leafValues></_>
        <_>
          <internalNodes>
            0 -1 6 -741553698 -729288362 1269827852 650207029 1094251459
            -1336896686 1688379898 84202495</internalNodes>
          <leafValues>
            -5.0920248031616211e-01 2.8909105062484741e-01</leafValues></_>
        <_>
          <internalNodes>
            0 -1 120 -610806268 1611799056 562649878 1434276575
            -507170496 -340490014 438802 36398191</internalNodes>
          <leafValues>
            -6.2024855613708496e-01 2.3585693538188934e-01</leafValues></_>
        <_>
          <internalNodes>
            0 -1 112 295970724 -765656599 -1617835862 -1619557329
            529034153 -1668703603 -347495490 -1881405788</internalNodes>
          <leafValues>
            -5.6601923704147339e-01 2.6960971951484680e-01</leafValues></_></weakClassifiers></_>
    <!-- stage 14 -->
    <_>
      <maxWeakCount>13</maxWeakCount>
      <stageThreshold>-1.2541903257369995e+00</stageThreshold>
      <weakClassifiers>
        <_>
          <internalNodes>
            0 -1 7 -3156025 -1056767993 -1039759231 319013895 -938554673
            -2008526707 -1060454008 -525341</internalNodes>
          <leafValues>
            -4.8867160081863403e-01 4.7209081053733826e-01</leafValues></_>
        <_>
          <internalNodes>
            0 -1 182 -146800865 1964908578 -2118006394 947048531
            -802602849 -853213117 1276846188 551546623</internalNodes>
          <leafValues>
            -4.5959421992301941e-01 3.4525564312934875e-01</leafValues></_>
        <_>
          <internalNodes>
            0 -1 4 1959710630 -784018861 1358971380 2000950355 464030596
            -619855197 1540934920 -68035003</internalNodes>
          <leafValues>
            -5.2079045772552490e-01 3.0186095833778381e-01</leafValues></_>
        <_>
          <internalNodes>
            0 -1 70 -275780693 -1920507518 -490146889 -764161838
            -2105019834 -2134196084 107205328 -1042815293</internalNodes>
          <leafValues>
            -3.7804573774337769e-01 4.0868979692459106e-01</leafValues></_>
        <_>
          <internalNodes>
            0 -1 144 437522736 949515620 1561339157 -1250455292
            134693625 -1123823093 455944856 -1375796768</internalNodes>
          <leafValues>
            -4.7237282991409302e-01 3.5363060235977173e-01</leafValues></_>
        <_>
          <internalNodes>
            0 -1 91 2069116842 -1912045421 87365134 143393602 -560875273
            -1357179897 1996892980 193964679</internalNodes>
          <leafValues>
            -6.2757354974746704e-01 2.2661767899990082e-01</leafValues></_>
        <_>
          <internalNodes>
            0 -1 166 -218113281 2034202375 1082057471 -226598233
            -8397752 -146309301 -142608658 -154402838</internalNodes>
          <leafValues>
            -3.0422484874725342e-01 5.0872451066970825e-01</leafValues></_>
        <_>
          <internalNodes>
            0 -1 10 -581635611 -749146057 -276310740 -128776823
            136349897 467195778 2013886910 1289373952</internalNodes>
          <leafValues>
            -4.2803087830543518e-01 3.5142424702644348e-01</leafValues></_>
        <_>
          <internalNodes>
            0 -1 33 -1990459401 -657128259 -977200494 -1746413113
            -1723171981 -1683273644 1993026341 -69508778</internalNodes>
          <leafValues>
            -4.0614363551139832e-01 3.6939889192581177e-01</leafValues></_>
        <_>
          <internalNodes>
            0 -1 92 1428122542 -1634490979 1103290736 -117188415
            -1340222518 956871933 591210808 891790914</internalNodes>
          <leafValues>
            -5.9015446901321411e-01 2.5533887743949890e-01</leafValues></_>
        <_>
          <internalNodes>
            0 -1 157 -1033975243 -605135057 238070634 428932259
            1242303664 -294682649 -429319393 -551322545</internalNodes>
          <leafValues>
            -3.7364634871482849e-01 4.1104266047477722e-01</leafValues></_>
        <_>
          <internalNodes>
            0 -1 1 120243178 169002016 -1589450143 156438658 1117310187
            -274592608 1172742315 -15764751</internalNodes>
          <leafValues>
            -4.4502007961273193e-01 3.4665060043334961e-01</leafValues></_>
        <_>
          <internalNodes>
            0 -1 53 -1890660360 394989726 1434558770 -69353377
            -2117559361 -20408149 -1106302482 -356223488</internalNodes>
          <leafValues>
            -5.4721421003341675e-01 2.8966790437698364e-01</leafValues></_></weakClassifiers></_>
    <!-- stage 15 -->
    <_>
      <maxWeakCount>14</maxWeakCount>
      <stageThreshold>-1.2800290584564209e+00</stageThreshold>
      <weakClassifiers>
        <_>
          <internalNodes>
            0 -1 78 276996061 -1118254639 -1660693155 -1690078471
            -2138981393 -1165999688 -1929073957 737098424</internalNodes>
          <leafValues>
            -6.1941748857498169e-01 1.6851851344108582e-01</leafValues></_>
        <_>
          <internalNodes>
            0 -1 126 -251855874 -7172094 -1878834814 822296663 100756495
            -1140178816 -901304694 1466659342</internalNodes>
          <leafValues>
            -4.7567832469940186e-01 3.4513339400291443e-01</leafValues></_>
        <_>
          <internalNodes>
            0 -1 17 -436211721 -470814944 -1342832647 -705169744
            1961557900 -285786122 -280955433 -672669229</internalNodes>
          <leafValues>
            -2.8332659602165222e-01 6.0825520753860474e-01</leafValues></_>
        <_>
          <internalNodes>
            0 -1 179 -131144835 912192145 273846745 268862534 2013930056
            445251600 -1861300802 -130023797</internalNodes>
          <leafValues>
            -3.7251380085945129e-01 4.1493564844131470e-01</leafValues></_>
        <_>
          <internalNodes>
            0 -1 44 -680534496 156143647 1350664880 -189135162 218636504
            1352040644 1342292096 -788537149</internalNodes>
          <leafValues>
            -4.6889862418174744e-01 3.6702704429626465e-01</leafValues></_>
        <_>
          <internalNodes>
            0 -1 111 -346788363 788648613 -519819171 -1883438706
            994191881 -507314047 -401917701 1003712214</internalNodes>
          <leafValues>
            -4.0147668123245239e-01 3.8760972023010254e-01</leafValues></_>
        <_>
          <internalNodes>
            0 -1 146 -770836259 1260879951 -805289983 1040712708
            1109426723 -2009046935 340052107 -133916633</internalNodes>
          <leafValues>
            -4.6429976820945740e-01 3.4593862295150757e-01</leafValues></_>
        <_>
          <internalNodes>
            0 -1 67 32642000 856953129 353375675 970953235 1780130744
            -660930432 -786419015 -1987048196</internalNodes>
          <leafValues>
            -4.8727771639823914e-01 3.1733298301696777e-01</leafValues></_>
        <_>
          <internalNodes>
            0 -1 8 -762142558 -2130554866 -1543372791 495165567
            419463307 -1862105081 486736005 789827795</internalNodes>
          <leafValues>
            -4.6105733513832092e-01 3.5989511013031006e-01</leafValues></_>
        <_>
          <internalNodes>
            0 -1 141 -294551619 2100874685 -1073840132 -1087521
            2004845816 -906666506 -1619438096 -1228984433</internalNodes>
          <leafValues>
            -3.4456640481948853e-01 4.9001920223236084e-01</leafValues></_>
        <_>
          <internalNodes>
            0 -1 153 -134222129 -562059377 788413158 1383268255
            -1015612156 -413804800 -168500106 -176763126</internalNodes>
          <leafValues>
            -3.4835347533226013e-01 5.1036375761032104e-01</leafValues></_>
        <_>
          <internalNodes>
            0 -1 43 -1991765951 286425152 1426663764 320344329 151146725
            -92176253 1477079396 2139494659</internalNodes>
          <leafValues>
            -4.9735146760940552e-01 3.5760021209716797e-01</leafValues></_>
        <_>
          <internalNodes>
            0 -1 148 -822565685 -1560930889 -1090714001 1025452710
            918549906 -2038680233 889187998 -264279105</internalNodes>
          <leafValues>
            -3.8471972942352295e-01 4.3727326393127441e-01</leafValues></_>
        <_>
          <internalNodes>
            0 -1 192 563574957 -2110619581 1099112537 -299937600
            818505906 101842944 -1966915151 -1932558212</internalNodes>
          <leafValues>
            -5.3714734315872192e-01 3.3317404985427856e-01</leafValues></_></weakClassifiers></_>
    <!-- stage 16 -->
    <_>
      <maxWeakCount>11</maxWeakCount>
      <stageThreshold>-1.3898766040802002e+00</stageThreshold>
      <weakClassifiers>
        <_>
          <internalNodes>
            0 -1 14 -363675245 -716127213 285274121 -1325039101
            134420912 -486309888 -1073722149 -628416465</internalNodes>
          <leafValues>
            -5.4318809509277344e-01 4.7458952665328979e-01</leafValues></_>
        <_>
          <internalNodes>
            0 -1 117 -1823068111 -805093375 86043 -1274855296
            -2138916695 -2138535936 2013935821 -1191230529</internalNodes>
          <leafValues>
            -4.4800460338592529e-01 5.0849038362503052e-01</leafValues></_>
        <_>
          <internalNodes>
            0 -1 124 -1056780092 1411350595 -2063597555 2033123347
            1476397978 -963936128 134874154 170823647</internalNodes>
          <leafValues>
            -4.7845730185508728e-01 4.3588015437126160e-01</leafValues></_>
        <_>
          <internalNodes>
            0 -1 72 -1901594493 1118727800 -1308862889 1370209826
            81715808 79990659 -413340477 -775702041</internalNodes>
          <leafValues>
            -4.1268241405487061e-01 5.5637210607528687e-01</leafValues></_>
        <_>
          <internalNodes>
            0 -1 154 -196099518 1243071010 32896 -804028416 1237168
            -1198979064 -1442709502 2052016643</internalNodes>
          <leafValues>
            -5.0870680809020996e-01 4.1878825426101685e-01</leafValues></_>
        <_>
          <internalNodes>
            0 -1 82 1921180526 -1124794386 1878993563 -1745375283
            2104762367 1979461614 662111195 2144305611</internalNodes>
          <leafValues>
            -3.9244699478149414e-01 5.4552948474884033e-01</leafValues></_>
        <_>
          <internalNodes>
            0 -1 106 -532152316 -1073020895 -1068760824 1611764102
            -1593765726 -939491328 -1610569075 -2080404939</internalNodes>
          <leafValues>
            -5.2331823110580444e-01 4.4059523940086365e-01</leafValues></_>
        <_>
          <internalNodes>
            0 -1 107 -1209784596 1530408873 -151246280 464075428
            -1610825777 -976769043 -1208205328 -50223010</internalNodes>
          <leafValues>
            -4.3580400943756104e-01 5.1768159866333008e-01</leafValues></_>
        <_>
          <internalNodes>
            0 -1 90 -1021057182 249855932 1994669872 -332367052
            -1958858901 1047986171 -1290043422 -322318939</internalNodes>
          <leafValues>
            -4.6257174015045166e-01 5.1507091522216797e-01</leafValues></_>
        <_>
          <internalNodes>
            0 -1 46 -771435622 541067392 20560 303169552 -2144763776
            -2004877311 -1065197066 1265347178</internalNodes>
          <leafValues>
            -4.7647199034690857e-01 4.9131464958190918e-01</leafValues></_>
        <_>
          <internalNodes>
            0 -1 135 -1186992225 1662054919 687172671 485882471
            -2106426280 -922878240 1686323459 359573023</internalNodes>
          <leafValues>
            -4.8094674944877625e-01 5.5069875717163086e-01</leafValues></_></weakClassifiers></_>
    <!-- stage 17 -->
    <_>
      <maxWeakCount>10</maxWeakCount>
      <stageThreshold>-1.4186913967132568e+00</stageThreshold>
      <weakClassifiers>
        <_>
          <internalNodes>
            0 -1 125 -2147384973 -184025088 65636 289411392 -2146393927
            -1933508608 537010205 -1862187000</internalNodes>
          <leafValues>
            -6.1854857206344604e-01 5.6594556570053101e-01</leafValues></_>
        <_>
          <internalNodes>
            0 -1 64 308458133 -52740099 1023156149 368646891 -1745345616
            1071000260 -8589672 -1367332802</internalNodes>
          <leafValues>
            -4.6825283765792847e-01 6.6663020849227905e-01</leafValues></_>
        <_>
          <internalNodes>
            0 -1 101 -1541107915 -1120635596 1056927485 -125880073
            938786807 763114998 -663257373 -636795622</internalNodes>
          <leafValues>
            -3.8118511438369751e-01 8.0262869596481323e-01</leafValues></_>
        <_>
          <internalNodes>
            0 -1 71 449688717 1338785779 768393029 1326067442 -549035
            -1610743817 -545292475 -354750015</internalNodes>
          <leafValues>
            -4.0522551536560059e-01 7.0369893312454224e-01</leafValues></_>
        <_>
          <internalNodes>
            0 -1 60 -1627350493 -1393279235 2129084066 -348110888
            972469052 -1628110990 2101081868 1544558237</internalNodes>
          <leafValues>
            -5.1885014772415161e-01 5.9008669853210449e-01</leafValues></_>
        <_>
          <internalNodes>
            0 -1 152 1645440682 1648774724 1626869307 -917469120
            1080321111 1163230730 1078187073 -1743048778</internalNodes>
          <leafValues>
            -5.1351940631866455e-01 6.0267847776412964e-01</leafValues></_>
        <_>
          <internalNodes>
            0 -1 100 -1873965025 1694313453 -1354745937 -121327835
            796665376 504307550 -143229961 -1744502697</internalNodes>
          <leafValues>
            -3.9348557591438293e-01 8.0164492130279541e-01</leafValues></_>
        <_>
          <internalNodes>
            0 -1 68 -1646203876 1005584363 1861564595 661270196
            -134402195 -402821139 1845399535 -1429879485</internalNodes>
          <leafValues>
            -5.2491146326065063e-01 6.2856835126876831e-01</leafValues></_>
        <_>
          <internalNodes>
            0 -1 88 1504355020 -1124323340 1073688505 1005434276
            -143245565 -1611288705 1740080075 -1869702197</internalNodes>
          <leafValues>
            -4.3254810571670532e-01 7.3530870676040649e-01</leafValues></_>
        <_>
          <internalNodes>
            0 -1 118 1110466608 511590373 729558060 -1364541780
            -1619479745 -1937801740 -113482375 187386896</internalNodes>
          <leafValues>
            -5.6672531366348267e-01 6.4128524065017700e-01</leafValues></_></weakClassifiers></_></stages>
  <features>
    <_>
      <rect>
        0 0 4 4</rect></_>
    <_>
      <rect>
        0 0 6 1</rect></_>
    <_>
      <rect>
        0 0 7 2</rect></_>
    <_>
      <rect>
        0 0 13 4</rect></_>
    <_>
      <rect>
        0 1 4 7</rect></_>
    <_>
      <rect>
        0 2 3 2</rect></_>
    <_>
      <rect>
        0 2 8 2</rect></_>
    <_>
      <rect>
        0 3 2 9</rect></_>
    <_>
      <rect>
        0 4 2 3</rect></_>
    <_>
      <rect>
        0 4 5 5</rect></_>
    <_>
      <rect>
        0 4 10 2</rect></_>
    <_>
      <rect>
        0 5 2 8</rect></_>
    <_>
      <rect>
        0 5 10 5</rect></_>
    <_>
      <rect>
        0 6 4 8</rect></_>
    <_>
      <rect>
        0 7 4 1</rect></_>
    <_>
      <rect>
        0 8 2 4</rect></_>
    <_>
      <rect>
        0 9 1 4</rect></_>
    <_>
      <rect>
        0 10 1 2</rect></_>
    <_>
      <rect>
        0 10 12 2</rect></_>
    <_>
      <rect>
        0 11 1 1</rect></_>
    <_>
      <rect>
        0 12 1 1</rect></_>
    <_>
      <rect>
        0 12 1 5</rect></_>
    <_>
      <rect>
        0 12 1 6</rect></_>
    <_>
      <rect>
        0 12 12 2</rect></_>
    <_>
      <rect>
        0 14 7 3</rect></_>
    <_>
      <rect>
        0 24 1 1</rect></_>
    <_>
      <rect>
        0 24 1 2</rect></_>
    <_>
      <rect>
        0 24 2 2</rect></_>
    <_>
      <rect>
        0 24 3 2</rect></_>
    <_>
      <rect>
        0 24 13 2</rect></_>
    <_>
      <rect>
        0 26 1 1</rect></_>
    <_>
      <rect>
        0 27 1 1</rect></_>
    <_>
      <rect>
        0 27 2 1</rect></_>
    <_>
      <rect>
        0 27 5 1</rect></_>
    <_>
      <rect>
        0 27 8 1</rect></_>
    <_>
      <rect>
        1 0 5 3</rect></_>
    <_>
      <rect>
        1 1 4 2</rect></_>
    <_>
      <rect>
        1 20 6 3</rect></_>
    <_>
      <rect>
        1 27 13 1</rect></_>
    <_>
      <rect>
        2 0 3 2</rect></_>
    <_>
      <rect>
        2 1 5 5</rect></_>
    <_>
      <rect>
        2 3 2 1</rect></_>
    <_>
      <rect>
        2 9 11 3</rect></_>
    <_>
      <rect>
        2 18 9 1</rect></_>
    <_>
      <rect>
        3 2 2 1</rect></_>
    <_>
      <rect>
        3 4 1 1</rect></_>
    <_>
      <rect>
        3 5 1 1</rect></_>
    <_>
      <rect>
        3 6 1 1</rect></_>
    <_>
      <rect>
        3 11 12 3</rect></_>
    <_>
      <rect>
        3 12 11 4</rect></_>
    <_>
      <rect>
        3 18 4 4</rect></_>
    <_>
      <rect>
        3 21 11 2</rect></_>
    <_>
      <rect>
        3 22 6 2</rect></_>
    <_>
      <rect>
        3 23 4 2</rect></_>
    <_>
      <rect>
        4 0 4 1</rect></_>
    <_>
      <rect>
        4 1 2 3</rect></_>
    <_>
      <rect>
        4 2 1 1</rect></_>
    <_>
      <rect>
        4 3 1 1</rect></_>
    <_>
      <rect>
        4 4 1 1</rect></_>
    <_>
      <rect>
        4 5 1 1</rect></_>
    <_>
      <rect>
        4 5 8 2</rect></_>
    <_>
      <rect>
        4 8 10 1</rect></_>
    <_>
      <rect>
        4 26 12 1</rect></_>
    <_>
      <rect>
        5 3 1 1</rect></_>
    <_>
      <rect>
        5 7 9 1</rect></_>
    <_>
      <rect>
        5 8 4 1</rect></_>
    <_>
      <rect>
        5 9 10 2</rect></_>
    <_>
      <rect>
        5 10 7 1</rect></_>
    <_>
      <rect>
        5 16 8 2</rect></_>
    <_>
      <rect>
        5 20 2 1</rect></_>
    <_>
      <rect>
        6 2 1 1</rect></_>
    <_>
      <rect>
        6 2 9 5</rect></_>
    <_>
      <rect>
        6 3 1 1</rect></_>
    <_>
      <rect>
        6 9 4 1</rect></_>
    <_>
      <rect>
        6 11 9 3</rect></_>
    <_>
      <rect>
        6 20 3 1</rect></_>
    <_>
      <rect>
        6 21 6 2</rect></_>
    <_>
      <rect>
        6 22 3 1</rect></_>
    <_>
      <rect>
        7 7 6 1</rect></_>
    <_>
      <rect>
        7 7 7 1</rect></_>
    <_>
      <rect>
        7 8 7 1</rect></_>
    <_>
      <rect>
        7 9 2 1</rect></_>
    <_>
      <rect>
        7 11 8 2</rect></_>
    <_>
      <rect>
        7 11 9 2</rect></_>
    <_>
      <rect>
        7 15 9 2</rect></_>
    <_>
      <rect>
        8 0 5 1</rect></_>
    <_>
      <rect>
        8 0 7 1</rect></_>
    <_>
      <rect>
        8 10 3 1</rect></_>
    <_>
      <rect>
        8 11 8 2</rect></_>
    <_>
      <rect>
        9 0 5 1</rect></_>
    <_>
      <rect>
        9 2 2 1</rect></_>
    <_>
      <rect>
        9 3 8 2</rect></_>
    <_>
      <rect>
        9 11 7 3</rect></_>
    <_>
      <rect>
        9 13 7 2</rect></_>
    <_>
      <rect>
        10 3 3 1</rect></_>
    <_>
      <rect>
        10 5 10 4</rect></_>
    <_>
      <rect>
        10 7 8 1</rect></_>
    <_>
      <rect>
        10 12 9 2</rect></_>
    <_>
      <rect>
        11 9 2 1</rect></_>
    <_>
      <rect>
        12 0 5 1</rect></_>
    <_>
      <rect>
        12 1 5 1</rect></_>
    <_>
      <rect>
        12 12 9 2</rect></_>
    <_>
      <rect>
        12 13 3 3</rect></_>
    <_>
      <rect>
        13 0 2 1</rect></_>
    <_>
      <rect>
        13 0 3 1</rect></_>
    <_>
      <rect>
        13 0 9 1</rect></_>
    <_>
      <rect>
        13 2 2 1</rect></_>
    <_>
      <rect>
        13 6 5 1</rect></_>
    <_>
      <rect>
        13 8 7 1</rect></_>
    <_>
      <rect>
        13 23 8 1</rect></_>
    <_>
      <rect>
        14 9 5 1</rect></_>
    <_>
      <rect>
        14 17 3 1</rect></_>
    <_>
      <rect>
        14 21 4 1</rect></_>
    <_>
      <rect>
        15 18 8 4</rect></_>
    <_>
      <rect>
        16 0 5 1</rect></_>
    <_>
      <rect>
        16 7 2 1</rect></_>
    <_>
      <rect>
        16 13 4 3</rect></_>
    <_>
      <rect>
        16 14 5 2</rect></_>
    <_>
      <rect>
        16 18 7 1</rect></_>
    <_>
      <rect>
        17 19 2 1</rect></_>
    <_>
      <rect>
        19 0 6 2</rect></_>
    <_>
      <rect>
        19 0 7 10</rect></_>
    <_>
      <rect>
        19 10 7 3</rect></_>
    <_>
      <rect>
        19 24 7 2</rect></_>
    <_>
      <rect>
        20 0 5 1</rect></_>
    <_>
      <rect>
        20 4 6 1</rect></_>
    <_>
      <rect>
        20 12 6 3</rect></_>
    <_>
      <rect>
        20 23 5 2</rect></_>
    <_>
      <rect>
        21 0 2 1</rect></_>
    <_>
      <rect>
        21 0 6 1</rect></_>
    <_>
      <rect>
        21 0 6 3</rect></_>
    <_>
      <rect>
        21 20 5 3</rect></_>
    <_>
      <rect>
        21 21 5 1</rect></_>
    <_>
      <rect>
        22 0 2 1</rect></_>
    <_>
      <rect>
        22 0 6 4</rect></_>
    <_>
      <rect>
        23 0 5 2</rect></_>
    <_>
      <rect>
        23 15 5 2</rect></_>
    <_>
      <rect>
        24 0 5 3</rect></_>
    <_>
      <rect>
        24 10 4 1</rect></_>
    <_>
      <rect>
        25 0 4 1</rect></_>
    <_>
      <rect>
        25 10 2 1</rect></_>
    <_>
      <rect>
        26 5 3 2</rect></_>
    <_>
      <rect>
        26 20 3 1</rect></_>
    <_>
      <rect>
        27 17 3 3</rect></_>
    <_>
      <rect>
        27 18 4 1</rect></_>
    <_>
      <rect>
        28 0 4 2</rect></_>
    <_>
      <rect>
        28 0 4 8</rect></_>
    <_>
      <rect>
        28 1 4 7</rect></_>
    <_>
      <rect>
        28 2 4 3</rect></_>
    <_>
      <rect>
        28 5 4 5</rect></_>
    <_>
      <rect>
        28 24 4 2</rect></_>
    <_>
      <rect>
        28 26 3 1</rect></_>
    <_>
      <rect>
        29 1 3 2</rect></_>
    <_>
      <rect>
        29 3 1 1</rect></_>
    <_>
      <rect>
        30 0 2 2</rect></_>
    <_>
      <rect>
        30 2 2 1</rect></_>
    <_>
      <rect>
        31 0 2 2</rect></_>
    <_>
      <rect>
        31 0 3 3</rect></_>
    <_>
      <rect>
        31 0 3 9</rect></_>
    <_>
      <rect>
        31 2 3 2</rect></_>
    <_>
      <rect>
        31 3 1 1</rect></_>
    <_>
      <rect>
        31 3 3 3</rect></_>
    <_>
      <rect>
        31 4 1 1</rect></_>
    <_>
      <rect>
        31 6 3 2</rect></_>
    <_>
      <rect>
        31 24 3 2</rect></_>
    <_>
      <rect>
        31 27 3 1</rect></_>
    <_>
      <rect>
        32 3 1 1</rect></_>
    <_>
      <rect>
        32 4 1 1</rect></_>
    <_>
      <rect>
        32 4 2 1</rect></_>
    <_>
      <rect>
        33 3 1 1</rect></_>
    <_>
      <rect>
        33 4 1 1</rect></_>
    <_>
      <rect>
        33 27 2 1</rect></_>
    <_>
      <rect>
        34 6 2 2</rect></_>
    <_>
      <rect>
        34 6 2 8</rect></_>
    <_>
      <rect>
        34 9 2 1</rect></_>
    <_>
      <rect>
        34 9 2 4</rect></_>
    <_>
      <rect>
        34 12 2 3</rect></_>
    <_>
      <rect>
        34 21 2 3</rect></_>
    <_>
      <rect>
        34 27 2 1</rect></_>
    <_>
      <rect>
        37 10 1 1</rect></_>
    <_>
      <rect>
        37 10 1 6</rect></_>
    <_>
      <rect>
        37 11 1 1</rect></_>
    <_>
      <rect>
        37 11 1 2</rect></_>
    <_>
      <rect>
        37 12 1 1</rect></_>
    <_>
      <rect>
        37 12 1 2</rect></_>
    <_>
      <rect>
        37 12 1 6</rect></_>
    <_>
      <rect>
        37 14 1 4</rect></_>
    <_>
      <rect>
        37 16 1 3</rect></_>
    <_>
      <rect>
        37 19 1 2</rect></_>
    <_>
      <rect>
        37 22 1 2</rect></_>
    <_>
      <rect>
        37 23 1 1</rect></_>
    <_>
      <rect>
        37 23 1 2</rect></_>
    <_>
      <rect>
        37 24 1 1</rect></_>
    <_>
      <rect>
        37 25 1 1</rect></_>
    <_>
      <rect>
        37 27 1 1</rect></_></features></cascade>
</opencv_storage>
