<?xml version="1.0"?>
<opencv_storage>
<stage4>
  <maxWeakCount>11</maxWeakCount>
  <stageThreshold>-2.2141273021697998e+00</stageThreshold>
  <weakClassifiers>
    <_>
      <internalNodes>
        0 -1 37642 -236978193 1884340433 -1052092637 -866061053
        2022409707 973177073 760095 -856686593</internalNodes>
      <leafValues>
        -5.9583336114883423e-01 5.2340424060821533e-01</leafValues></_>
    <_>
      <internalNodes>
        0 -1 28543 -100663809 -52868359 -1678534177 -1614939425
        -208953345 -1126324995 -71582465 -2130711364</internalNodes>
      <leafValues>
        -5.4839956760406494e-01 4.8036319017410278e-01</leafValues></_>
    <_>
      <internalNodes>
        0 -1 12970 94385137 -33760835 487890941 -1110077099 -1162216707
        -1078423299 -1155055877 -1080031200</internalNodes>
      <leafValues>
        -4.9876070022583008e-01 4.9711114168167114e-01</leafValues></_>
    <_>
      <internalNodes>
        0 -1 266 -3672576 -1950097137 -1858766864 -435197015 -578164303
        1219469615 1880182784 -908594713</internalNodes>
      <leafValues>
        -6.0238790512084961e-01 4.2315965890884399e-01</leafValues></_>
    <_>
      <internalNodes>
        0 -1 20755 -1562313739 -67125259 -268681217 -2228243 -71501923
        -1074266115 -332033 -1433925628</internalNodes>
      <leafValues>
        -4.7597533464431763e-01 5.2421754598617554e-01</leafValues></_>
    <_>
      <internalNodes>
        0 -1 1823 -268435465 -537699561 -652479689 -15838893 2058698359
        -92410837 1501782902 1735620119</internalNodes>
      <leafValues>
        -6.0214442014694214e-01 4.0575167536735535e-01</leafValues></_>
    <_>
      <internalNodes>
        0 -1 36036 -970267002 -193012006 -259861530 -1333604838
        1212366910 235645755 -121124817 -160225749</internalNodes>
      <leafValues>
        -5.8873701095581055e-01 4.0570738911628723e-01</leafValues></_>
    <_>
      <internalNodes>
        0 -1 517 -397087522 -101058081 -1006571754 1528867813 74773340
        -260046591 -2077111525 -101329323</internalNodes>
      <leafValues>
        -6.3424140214920044e-01 3.6935827136039734e-01</leafValues></_>
    <_>
      <internalNodes>
        0 -1 30245 1059077981 -1118443019 -1685896133 -35761351
        2072582653 -8352919 -879494211 -1347156064</internalNodes>
      <leafValues>
        -5.0921374559402466e-01 4.8688104748725891e-01</leafValues></_>
    <_>
      <internalNodes>
        0 -1 34541 1818162382 1909653967 1478320346 1347700316
        1653228104 575062903 -957931318 -357612225</internalNodes>
      <leafValues>
        -5.7015949487686157e-01 4.2227318882942200e-01</leafValues></_>
    <_>
      <internalNodes>
        0 -1 37171 -65097608 585736 -1845276264 275757727 1515941695
        483053569 2081092460 846193071</internalNodes>
      <leafValues>
        -6.1257594823837280e-01 3.8218721747398376e-01</leafValues></_></weakClassifiers></stage4>
</opencv_storage>
