<?xml version="1.0"?>
<opencv_storage>
<stage14>
  <maxWeakCount>13</maxWeakCount>
  <stageThreshold>-1.2541903257369995e+00</stageThreshold>
  <weakClassifiers>
    <_>
      <internalNodes>
        0 -1 381 -3156025 -1056767993 -1039759231 319013895 -938554673
        -2008526707 -1060454008 -525341</internalNodes>
      <leafValues>
        -4.8867160081863403e-01 4.7209081053733826e-01</leafValues></_>
    <_>
      <internalNodes>
        0 -1 37644 -146800865 1964908578 -2118006394 947048531
        -802602849 -853213117 1276846188 551546623</internalNodes>
      <leafValues>
        -4.5959421992301941e-01 3.4525564312934875e-01</leafValues></_>
    <_>
      <internalNodes>
        0 -1 163 1959710630 -784018861 1358971380 2000950355 464030596
        -619855197 1540934920 -68035003</internalNodes>
      <leafValues>
        -5.2079045772552490e-01 3.0186095833778381e-01</leafValues></_>
    <_>
      <internalNodes>
        0 -1 10794 -275780693 -1920507518 -490146889 -764161838
        -2105019834 -2134196084 107205328 -1042815293</internalNodes>
      <leafValues>
        -3.7804573774337769e-01 4.0868979692459106e-01</leafValues></_>
    <_>
      <internalNodes>
        0 -1 34434 437522736 949515620 1561339157 -1250455292 134693625
        -1123823093 455944856 -1375796768</internalNodes>
      <leafValues>
        -4.7237282991409302e-01 3.5363060235977173e-01</leafValues></_>
    <_>
      <internalNodes>
        0 -1 15569 2069116842 -1912045421 87365134 143393602 -560875273
        -1357179897 1996892980 193964679</internalNodes>
      <leafValues>
        -6.2757354974746704e-01 2.2661767899990082e-01</leafValues></_>
    <_>
      <internalNodes>
        0 -1 36451 -218113281 2034202375 1082057471 -226598233 -8397752
        -146309301 -142608658 -154402838</internalNodes>
      <leafValues>
        -3.0422484874725342e-01 5.0872451066970825e-01</leafValues></_>
    <_>
      <internalNodes>
        0 -1 554 -581635611 -749146057 -276310740 -128776823 136349897
        467195778 2013886910 1289373952</internalNodes>
      <leafValues>
        -4.2803087830543518e-01 3.5142424702644348e-01</leafValues></_>
    <_>
      <internalNodes>
        0 -1 1876 -1990459401 -657128259 -977200494 -1746413113
        -1723171981 -1683273644 1993026341 -69508778</internalNodes>
      <leafValues>
        -4.0614363551139832e-01 3.6939889192581177e-01</leafValues></_>
    <_>
      <internalNodes>
        0 -1 16143 1428122542 -1634490979 1103290736 -117188415
        -1340222518 956871933 591210808 891790914</internalNodes>
      <leafValues>
        -5.9015446901321411e-01 2.5533887743949890e-01</leafValues></_>
    <_>
      <internalNodes>
        0 -1 35982 -1033975243 -605135057 238070634 428932259 1242303664
        -294682649 -429319393 -551322545</internalNodes>
      <leafValues>
        -3.7364634871482849e-01 4.1104266047477722e-01</leafValues></_>
    <_>
      <internalNodes>
        0 -1 50 120243178 169002016 -1589450143 156438658 1117310187
        -274592608 1172742315 -15764751</internalNodes>
      <leafValues>
        -4.4502007961273193e-01 3.4665060043334961e-01</leafValues></_>
    <_>
      <internalNodes>
        0 -1 7173 -1890660360 394989726 1434558770 -69353377 -2117559361
        -20408149 -1106302482 -356223488</internalNodes>
      <leafValues>
        -5.4721421003341675e-01 2.8966790437698364e-01</leafValues></_></weakClassifiers></stage14>
</opencv_storage>
