<?xml version="1.0"?>
<opencv_storage>
<stage0>
  <maxWeakCount>6</maxWeakCount>
  <stageThreshold>-1.7113125324249268e+00</stageThreshold>
  <weakClassifiers>
    <_>
      <internalNodes>
        0 -1 24215 -704839683 -136973833 -774683137 -8400385 -221579777
        -67256183 -38013957 -50552644</internalNodes>
      <leafValues>
        -8.2534140348434448e-01 5.1092517375946045e-01</leafValues></_>
    <_>
      <internalNodes>
        0 -1 37654 -855646209 -1929851652 -1359479044 -855838746
        -50332161 -1929585156 234860543 -855640897</internalNodes>
      <leafValues>
        -5.4615819454193115e-01 7.5088042020797729e-01</leafValues></_>
    <_>
      <internalNodes>
        0 -1 4742 -549126164 -11415149 -750726225 -6845495 -258369078
        -74841972 1940110318 -1148648960</internalNodes>
      <leafValues>
        -6.0236936807632446e-01 5.9733635187149048e-01</leafValues></_>
    <_>
      <internalNodes>
        0 -1 7153 -537067524 -33778916 -547908609 -530981 -1624704003
        -91649906 2076093247 -1984952064</internalNodes>
      <leafValues>
        -7.0262116193771362e-01 4.6974772214889526e-01</leafValues></_>
    <_>
      <internalNodes>
        0 -1 36394 -17844241 654280701 -1202069541 -2064908321
        -787742979 9405947 -167784961 16252863</internalNodes>
      <leafValues>
        -7.7019280195236206e-01 4.1443163156509399e-01</leafValues></_>
    <_>
      <internalNodes>
        0 -1 15265 -515850576 -44968555 -720095255 -2290916 671132349
        -1146906610 -1429672002 -1919417280</internalNodes>
      <leafValues>
        -6.0730618238449097e-01 5.3566461801528931e-01</leafValues></_></weakClassifiers></stage0>
</opencv_storage>
