<?xml version="1.0"?>
<opencv_storage>
<stage12>
  <maxWeakCount>15</maxWeakCount>
  <stageThreshold>-1.6693483591079712e+00</stageThreshold>
  <weakClassifiers>
    <_>
      <internalNodes>
        0 -1 894 -151061537 -69887465 -268373609 -112081853 -896865384
        -356882171 -993204242 2002994791</internalNodes>
      <leafValues>
        -6.2833052873611450e-01 1.3698031008243561e-01</leafValues></_>
    <_>
      <internalNodes>
        0 -1 7381 -3670041 1938700166 -74329125 1407124243 -359748102
        -1951753569 126431215 1140786599</internalNodes>
      <leafValues>
        -4.4640606641769409e-01 3.5065492987632751e-01</leafValues></_>
    <_>
      <internalNodes>
        0 -1 35077 -19531018 684155014 -953962337 -249831593 -1427639329
        215690888 -592969985 79416572</internalNodes>
      <leafValues>
        -6.5147644281387329e-01 2.3149424791336060e-01</leafValues></_>
    <_>
      <internalNodes>
        0 -1 720 -50340865 -784219702 -1043488102 -75148622 -893083426
        1594403001 -356407060 -1788992</internalNodes>
      <leafValues>
        -5.2854913473129272e-01 2.8991314768791199e-01</leafValues></_>
    <_>
      <internalNodes>
        0 -1 36759 -553652673 -21971082 -1326549313 1346102526 -26223539
        1577398028 -83890434 -10490129</internalNodes>
      <leafValues>
        -3.0339485406875610e-01 5.1016139984130859e-01</leafValues></_>
    <_>
      <internalNodes>
        0 -1 11431 206583153 1034220863 -1860482565 -1617042639
        -1415747073 -7400803 -1986215937 -1627513496</internalNodes>
      <leafValues>
        -4.1589543223381042e-01 3.6779794096946716e-01</leafValues></_>
    <_>
      <internalNodes>
        0 -1 1222 -1962975593 -1218549802 -804287500 -67973462
        1385326071 -262061819 1939034965 -789077261</internalNodes>
      <leafValues>
        -3.7241497635841370e-01 4.2557939887046814e-01</leafValues></_>
    <_>
      <internalNodes>
        0 -1 32655 -3224099 1566428907 -251724161 1467715567 -354533304
        1776209790 -523054342 -83902821</internalNodes>
      <leafValues>
        -2.9032525420188904e-01 5.2824306488037109e-01</leafValues></_>
    <_>
      <internalNodes>
        0 -1 35084 -63704220 -1419922310 244427078 -138808363 -791676273
        -20086285 -1385364244 -102004440</internalNodes>
      <leafValues>
        -3.9714196324348450e-01 4.0105351805686951e-01</leafValues></_>
    <_>
      <internalNodes>
        0 -1 21991 172159273 1027234996 288608471 -36191779 2065162613
        -88489548 -1157190676 941754468</internalNodes>
      <leafValues>
        -4.8056456446647644e-01 3.2348066568374634e-01</leafValues></_>
    <_>
      <internalNodes>
        0 -1 37132 -898630635 1343275441 -804716459 811758170
        -1933729792 1512698131 -422856642 -260604609</internalNodes>
      <leafValues>
        -4.7430673241615295e-01 3.3782306313514709e-01</leafValues></_>
    <_>
      <internalNodes>
        0 -1 31746 1670938548 2073456990 -74868131 133186428 455625149
        1042481215 -1727971586 207564191</internalNodes>
      <leafValues>
        -5.5890679359436035e-01 2.8069326281547546e-01</leafValues></_>
    <_>
      <internalNodes>
        0 -1 19470 -2032663632 1671025556 895287769 -1713399843
        1233670652 -68069447 982047487 679478276</internalNodes>
      <leafValues>
        -6.4853584766387939e-01 2.2329325973987579e-01</leafValues></_>
    <_>
      <internalNodes>
        0 -1 3769 -1118568690 1888780307 -171877985 302637079 1252682175
        322873993 -376899329 1352133306</internalNodes>
      <leafValues>
        -6.8870681524276733e-01 2.2156374156475067e-01</leafValues></_>
    <_>
      <internalNodes>
        0 -1 16973 -957562674 1693752127 -795306830 676731370 1011501689
        631804851 1525210928 -455228713</internalNodes>
      <leafValues>
        -5.5086177587509155e-01 2.7961161732673645e-01</leafValues></_></weakClassifiers></stage12>
</opencv_storage>
