<?xml version="1.0"?>
<opencv_storage>
<stage13>
  <maxWeakCount>14</maxWeakCount>
  <stageThreshold>-1.6428472995758057e+00</stageThreshold>
  <weakClassifiers>
    <_>
      <internalNodes>
        0 -1 28162 -9437187 -757314659 -402569763 -1176806951 1540345855
        -157249858 -338859570 1405582149</internalNodes>
      <leafValues>
        -6.8190550804138184e-01 8.5001885890960693e-02</leafValues></_>
    <_>
      <internalNodes>
        0 -1 37643 -16818385 -713302666 -83902467 1895542527 -319215104
        -564136068 -8704082 -117964929</internalNodes>
      <leafValues>
        -3.8713034987449646e-01 3.9999297261238098e-01</leafValues></_>
    <_>
      <internalNodes>
        0 -1 32328 -2018763247 -1653069043 -982174211 -13048541
        -201771011 -4491298 -286738183 -1357381600</internalNodes>
      <leafValues>
        -4.5839980244636536e-01 3.4339928627014160e-01</leafValues></_>
    <_>
      <internalNodes>
        0 -1 7001 -337848321 -235597409 822526686 -429639 -1583363105
        -1160992099 867054523 -270786816</internalNodes>
      <leafValues>
        -5.8892613649368286e-01 2.5088602304458618e-01</leafValues></_>
    <_>
      <internalNodes>
        0 -1 1226 -788673 -1090519245 -589833 -8982544 1060290481
        -278814927 1064648533 -9183405</internalNodes>
      <leafValues>
        -2.4272437393665314e-01 6.0617870092391968e-01</leafValues></_>
    <_>
      <internalNodes>
        0 -1 7478 -213909712 -2048265976 -773771055 -278031130
        -1449297669 -2145717630 322957536 -707798085</internalNodes>
      <leafValues>
        -3.7651613354682922e-01 4.0160217881202698e-01</leafValues></_>
    <_>
      <internalNodes>
        0 -1 20745 -1165461707 2132394333 -83289609 -6435911 -125208065
        -67634885 -1173691717 -1398139128</internalNodes>
      <leafValues>
        -4.0844064950942993e-01 4.0468248724937439e-01</leafValues></_>
    <_>
      <internalNodes>
        0 -1 36136 -130941163 -1174383716 1343291807 1033768464
        1946408092 674824485 -1000970049 -33816641</internalNodes>
      <leafValues>
        -3.9155495166778564e-01 3.9197766780853271e-01</leafValues></_>
    <_>
      <internalNodes>
        0 -1 37694 796655359 -1929581059 -20481 -100798466 1040187383
        251658239 1307340797 -1929390881</internalNodes>
      <leafValues>
        -3.6064872145652771e-01 4.1625252366065979e-01</leafValues></_>
    <_>
      <internalNodes>
        0 -1 1289 2130638814 -134218065 1879043737 1006092207 1069398002
        2145206006 1874323387 -75311321</internalNodes>
      <leafValues>
        -3.1383770704269409e-01 4.9326521158218384e-01</leafValues></_>
    <_>
      <internalNodes>
        0 -1 30315 -774110188 1387746053 -1855327749 -19332335
        -644204039 -644037665 -645395481 782249504</internalNodes>
      <leafValues>
        -6.7643707990646362e-01 2.0996393263339996e-01</leafValues></_>
    <_>
      <internalNodes>
        0 -1 311 -741553698 -729288362 1269827852 650207029 1094251459
        -1336896686 1688379898 84202495</internalNodes>
      <leafValues>
        -5.0920248031616211e-01 2.8909105062484741e-01</leafValues></_>
    <_>
      <internalNodes>
        0 -1 27601 -610806268 1611799056 562649878 1434276575 -507170496
        -340490014 438802 36398191</internalNodes>
      <leafValues>
        -6.2024855613708496e-01 2.3585693538188934e-01</leafValues></_>
    <_>
      <internalNodes>
        0 -1 23113 295970724 -765656599 -1617835862 -1619557329
        529034153 -1668703603 -347495490 -1881405788</internalNodes>
      <leafValues>
        -5.6601923704147339e-01 2.6960971951484680e-01</leafValues></_></weakClassifiers></stage13>
</opencv_storage>
