<?xml version="1.0"?>
<opencv_storage>
<stage6>
  <maxWeakCount>10</maxWeakCount>
  <stageThreshold>-1.6409947872161865e+00</stageThreshold>
  <weakClassifiers>
    <_>
      <internalNodes>
        0 -1 978 -8388617 -69754879 -1859922165 -706407087 -89210188
        -89476605 -472759578 1735857459</internalNodes>
      <leafValues>
        -6.5732485055923462e-01 2.4360188841819763e-01</leafValues></_>
    <_>
      <internalNodes>
        0 -1 7586 -1050734 -989337588 -250141840 -134481437 -850399574
        168551114 1187508464 -744492142</internalNodes>
      <leafValues>
        -4.7744867205619812e-01 4.6517562866210938e-01</leafValues></_>
    <_>
      <internalNodes>
        0 -1 30229 -606293003 -4349667 1427026655 -12084545 -38209283
        -1147432265 -69603345 -1931204492</internalNodes>
      <leafValues>
        -7.0988869667053223e-01 3.1409516930580139e-01</leafValues></_>
    <_>
      <internalNodes>
        0 -1 37699 -1493711465 -1361180813 -1252570677 -1965111593
        -1460971365 -1473518717 -660678665 -889201665</internalNodes>
      <leafValues>
        -4.9834638833999634e-01 4.4605013728141785e-01</leafValues></_>
    <_>
      <internalNodes>
        0 -1 36044 -237267413 -31495574 721342076 -263260433 2053071872
        -79528368 -319623688 -428867845</internalNodes>
      <leafValues>
        -4.2754843831062317e-01 5.0632458925247192e-01</leafValues></_>
    <_>
      <internalNodes>
        0 -1 22668 588262708 -1311750443 -1655137811 -536897091 79207389
        -538363662 -1158849569 1073482496</internalNodes>
      <leafValues>
        -6.5971410274505615e-01 3.5101780295372009e-01</leafValues></_>
    <_>
      <internalNodes>
        0 -1 34718 -832569348 1564754468 -1056484591 -1074436832
        -15797523 -1270853307 -132083746 13889103</internalNodes>
      <leafValues>
        -5.7156020402908325e-01 3.8542345166206360e-01</leafValues></_>
    <_>
      <internalNodes>
        0 -1 13431 -716173864 1058911645 25166004 -176168453 1232468958
        -619174931 1001073295 -1767920741</internalNodes>
      <leafValues>
        -4.8517978191375732e-01 4.4635459780693054e-01</leafValues></_>
    <_>
      <internalNodes>
        0 -1 35971 -800666034 1381882099 -870051777 1349664828
        -1600354230 1919631366 1348100334 -497558657</internalNodes>
      <leafValues>
        -5.0403445959091187e-01 4.0988689661026001e-01</leafValues></_>
    <_>
      <internalNodes>
        0 -1 6146 -578891853 -1901191365 -1090648542 -1276381203
        -520212565 197664479 1979655107 -157815361</internalNodes>
      <leafValues>
        -3.9488044381141663e-01 5.4090458154678345e-01</leafValues></_></weakClassifiers></stage6>
</opencv_storage>
