<?xml version="1.0"?>
<opencv_storage>
<stage9>
  <maxWeakCount>38</maxWeakCount>
  <stageThreshold>-1.4834507703781128e+00</stageThreshold>
  <weakClassifiers>
    <_>
      <internalNodes>
        0 -1 1096 -135271646 -875852026 -402713310 -134237312 1442481071
        160055213 -253550464 -167772257</internalNodes>
      <leafValues>
        -4.8492357134819031e-01 -2.2052586078643799e-02</leafValues></_>
    <_>
      <internalNodes>
        0 -1 9976 -67109441 -665719803 -387253095 -1005519113 -843080195
        -1936179743 -1001531908 -803472181</internalNodes>
      <leafValues>
        -1.9103157520294189e-01 2.9129815101623535e-01</leafValues></_>
    <_>
      <internalNodes>
        0 -1 761 -335546369 1069514741 -49157 -1212467267 -1140951041
        1073708919 2013216377 1836283763</internalNodes>
      <leafValues>
        -2.0722174644470215e-01 2.3847611248493195e-01</leafValues></_>
    <_>
      <internalNodes>
        0 -1 24 -303367173 -135077136 -176181641 -537419646 1724903423
        -537351 -402658305 -36365</internalNodes>
      <leafValues>
        -1.0545629262924194e-01 3.8527435064315796e-01</leafValues></_>
    <_>
      <internalNodes>
        0 -1 780 1625194486 -572196874 -688799759 1072766963 1746173948
        -3114012 1994489855 -42699978</internalNodes>
      <leafValues>
        -2.0312230288982391e-01 1.9507688283920288e-01</leafValues></_>
    <_>
      <internalNodes>
        0 -1 6644 -254282544 886342700 610780733 1025365959 -1308641602
        -1175013424 544944814 9429227</internalNodes>
      <leafValues>
        -1.8759268522262573e-01 2.1032184362411499e-01</leafValues></_>
    <_>
      <internalNodes>
        0 -1 2853 -1108557890 -69232131 -1319151685 -532493 -1073824833
        -1073797702 -1224806405 180918186</internalNodes>
      <leafValues>
        -2.2117285430431366e-01 1.7817017436027527e-01</leafValues></_>
    <_>
      <internalNodes>
        0 -1 713 -631963691 -4530177 1845147635 -9310281 1917910932
        -82509845 -1074317517 -8952713</internalNodes>
      <leafValues>
        -1.6068805754184723e-01 2.4507915973663330e-01</leafValues></_>
    <_>
      <internalNodes>
        0 -1 7861 -26738944 -11257260 -1336484960 -302648522 1820262071
        -32657013 -1331584590 -248384522</internalNodes>
      <leafValues>
        -2.2708909213542938e-01 1.6680245101451874e-01</leafValues></_>
    <_>
      <internalNodes>
        0 -1 4752 -864491019 -602398753 1066741755 -15061126 -2022408195
        -860084385 -1145054258 -1342494710</internalNodes>
      <leafValues>
        -1.3672669231891632e-01 2.5411128997802734e-01</leafValues></_>
    <_>
      <internalNodes>
        0 -1 9693 -1417519376 867261801 -1350917998 658439933 196033197
        1071596537 533433855 1887431789</internalNodes>
      <leafValues>
        -2.6293948292732239e-01 1.3509218394756317e-01</leafValues></_>
    <_>
      <internalNodes>
        0 -1 561 -474029089 -583547087 -84172868 2117267107 72619190
        1536415473 -265128410 -227281113</internalNodes>
      <leafValues>
        -1.6003906726837158e-01 2.3131763935089111e-01</leafValues></_>
    <_>
      <internalNodes>
        0 -1 9076 -1141105572 -10526884 -1745159425 450458301 1827581887
        -6619155 -1220887553 -803691520</internalNodes>
      <leafValues>
        -2.2768156230449677e-01 1.5772998332977295e-01</leafValues></_>
    <_>
      <internalNodes>
        0 -1 6983 -664535692 363911804 -57233705 905946199 -354845507
        1020037495 -1208144673 141240347</internalNodes>
      <leafValues>
        -2.1556687355041504e-01 1.5653924643993378e-01</leafValues></_>
    <_>
      <internalNodes>
        0 -1 3161 -269550429 -345592178 268341810 -542160160 -1349600626
        -1915965462 -973634314 -402656881</internalNodes>
      <leafValues>
        -1.0533337295055389e-01 2.9889252781867981e-01</leafValues></_>
    <_>
      <internalNodes>
        0 -1 6745 619722532 -1086571537 -537509953 -1078314312
        -1191278084 -822214691 1040164316 -1902115808</internalNodes>
      <leafValues>
        -3.0123454332351685e-01 1.1180002242326736e-01</leafValues></_>
    <_>
      <internalNodes>
        0 -1 9960 -356587504 282610960 922150545 816508713 -1988902912
        -331743874 -391239288 -2138318198</internalNodes>
      <leafValues>
        -2.1119789779186249e-01 1.5585340559482574e-01</leafValues></_>
    <_>
      <internalNodes>
        0 -1 2295 2108643319 -10350678 -18006082 -1078323654 -6537731
        -1922746449 2147434495 -51683848</internalNodes>
      <leafValues>
        -1.6390120983123779e-01 2.0534323155879974e-01</leafValues></_>
    <_>
      <internalNodes>
        0 -1 754 1086382288 -107022405 -1152009219 -42670597 554766005
        -606693473 1064778043 1276445746</internalNodes>
      <leafValues>
        -2.5558128952980042e-01 1.2175185978412628e-01</leafValues></_>
    <_>
      <internalNodes>
        0 -1 8817 -186131363 1534703685 -1997924326 825582794 -800930750
        -1190009852 -830445918 -100402609</internalNodes>
      <leafValues>
        -1.3989712297916412e-01 2.3084613680839539e-01</leafValues></_>
    <_>
      <internalNodes>
        0 -1 74 -1039937549 -541915374 662770737 1594883936 1317779695
        -46618873 1617232383 -58198398</internalNodes>
      <leafValues>
        -1.2871228158473969e-01 2.5547665357589722e-01</leafValues></_>
    <_>
      <internalNodes>
        0 -1 1133 -223562303 -1731136797 -1621615693 1068463011
        1558011846 413805306 2147057576 416088645</internalNodes>
      <leafValues>
        -1.9992372393608093e-01 1.6350102424621582e-01</leafValues></_>
    <_>
      <internalNodes>
        0 -1 6774 -43799592 -1978389532 103322072 -1434657094 2139451900
        1036853629 -1739780 149236972</internalNodes>
      <leafValues>
        -4.2317938804626465e-01 8.1312961876392365e-02</leafValues></_>
    <_>
      <internalNodes>
        0 -1 2397 880557104 878357747 -279605845 -1941853395 -549382236
        633645996 -607376934 248507214</internalNodes>
      <leafValues>
        -2.2863639891147614e-01 1.3756953179836273e-01</leafValues></_>
    <_>
      <internalNodes>
        0 -1 9269 -1520685985 -543420763 -1497907973 1918950402
        -1217027073 -2828064 -1099194373 1342180885</internalNodes>
      <leafValues>
        -2.6589301228523254e-01 1.1247447133064270e-01</leafValues></_>
    <_>
      <internalNodes>
        0 -1 3634 -47133460 887390207 -1344327873 334475007 -441057289
        -34228301 -8528149 -1469350093</internalNodes>
      <leafValues>
        -1.3597555458545685e-01 2.3411086201667786e-01</leafValues></_>
    <_>
      <internalNodes>
        0 -1 5154 1652009632 -1875886511 -1348653328 517529174
        2026780861 -296961452 -1792655464 303720479</internalNodes>
      <leafValues>
        -2.6937937736511230e-01 1.1254057288169861e-01</leafValues></_>
    <_>
      <internalNodes>
        0 -1 9415 -19869264 -243258026 -1509112834 900656346 -378856996
        -1886330919 1761489150 271969291</internalNodes>
      <leafValues>
        -1.8557541072368622e-01 1.7351345717906952e-01</leafValues></_>
    <_>
      <internalNodes>
        0 -1 728 -23980521 -604841131 2146951039 -97337893 1550081138
        -604800137 -1543758780 -959293357</internalNodes>
      <leafValues>
        -2.2651149332523346e-01 1.4574882388114929e-01</leafValues></_>
    <_>
      <internalNodes>
        0 -1 6931 248577908 -55263332 -1722287363 -1112097213
        -1577302019 -27262981 -1112260611 -1118305276</internalNodes>
      <leafValues>
        -2.3641893267631531e-01 1.3618995249271393e-01</leafValues></_>
    <_>
      <internalNodes>
        0 -1 242 -1943369552 1541071956 2050083093 -1914378223 683445496
        -541373656 1231028425 -805846957</internalNodes>
      <leafValues>
        -1.9664222002029419e-01 1.5725357830524445e-01</leafValues></_>
    <_>
      <internalNodes>
        0 -1 3093 -353372381 -50348059 -827605019 -1158706201 -26837261
        -1314833 -16780041 -565987186</internalNodes>
      <leafValues>
        -9.8320856690406799e-02 3.1031122803688049e-01</leafValues></_>
    <_>
      <internalNodes>
        0 -1 7967 1511288832 -1825003154 -1433002121 -1884716410
        -174121669 -1139491850 614742698 68550439</internalNodes>
      <leafValues>
        -2.5466209650039673e-01 1.2097329646348953e-01</leafValues></_>
    <_>
      <internalNodes>
        0 -1 9730 -126095738 -471430360 -1192054134 -1301026240
        -211431922 1298542434 -154927110 -235410462</internalNodes>
      <leafValues>
        -1.4803756773471832e-01 2.1962730586528778e-01</leafValues></_>
    <_>
      <internalNodes>
        0 -1 6953 -1592602916 7369852 -1366067599 -1225066778 -644547651
        -1077937189 -268599299 405130755</internalNodes>
      <leafValues>
        -2.5294402241706848e-01 1.2636585533618927e-01</leafValues></_>
    <_>
      <internalNodes>
        0 -1 9699 720862071 793737374 -1370014094 677160407 198578676
        252991749 733752560 95941725</internalNodes>
      <leafValues>
        -3.2025498151779175e-01 1.0274014621973038e-01</leafValues></_>
    <_>
      <internalNodes>
        0 -1 7920 -1082354251 -209883 -1342365699 -8471044 -1090994177
        -537007105 -1075047283 -1346688973</internalNodes>
      <leafValues>
        -1.4008191227912903e-01 2.3892325162887573e-01</leafValues></_>
    <_>
      <internalNodes>
        0 -1 9481 -1363538820 998195069 -1156658466 871886573 -166020379
        -35443 -83904329 1896415300</internalNodes>
      <leafValues>
        -2.5758361816406250e-01 1.2527860701084137e-01</leafValues></_></weakClassifiers></stage9>
</opencv_storage>
