<?xml version="1.0"?>
<opencv_storage>
<stage15>
  <maxWeakCount>51</maxWeakCount>
  <stageThreshold>-1.3823298215866089e+00</stageThreshold>
  <weakClassifiers>
    <_>
      <internalNodes>
        0 -1 5605 -138413121 -8661569 -1215835717 -11329 -72364613
        -339754561 -536886337 -4458705</internalNodes>
      <leafValues>
        -4.0209621191024780e-01 3.1109324097633362e-01</leafValues></_>
    <_>
      <internalNodes>
        0 -1 777 -286265364 -361049733 -189120720 936327427 1086930829
        1964976191 1463673532 1206273159</internalNodes>
      <leafValues>
        -2.4252668023109436e-01 1.4861555397510529e-01</leafValues></_>
    <_>
      <internalNodes>
        0 -1 7825 -56107939 -113797473 -1191215297 -584975834 1750559884
        -276890568 1679206634 -525336865</internalNodes>
      <leafValues>
        -1.4977692067623138e-01 2.3954474925994873e-01</leafValues></_>
    <_>
      <internalNodes>
        0 -1 9723 -84422650 2000014877 -1596005784 1348660862 -615297788
        1849777991 -118764850 -232266642</internalNodes>
      <leafValues>
        -1.7556428909301758e-01 1.7428554594516754e-01</leafValues></_>
    <_>
      <internalNodes>
        0 -1 442 -739003469 252805771 -268520577 -938365406 733586648
        1201336311 -1497930624 1985164243</internalNodes>
      <leafValues>
        -1.4956299960613251e-01 1.9418805837631226e-01</leafValues></_>
    <_>
      <internalNodes>
        0 -1 8796 1056926788 -1177698462 784706806 1037017817 967912700
        758770089 -1093009156 -1713641748</internalNodes>
      <leafValues>
        -1.7446354031562805e-01 1.7164973914623260e-01</leafValues></_>
    <_>
      <internalNodes>
        0 -1 9999 -1713373185 -1342440457 -1947273985 636829435
        266328063 -286566402 -25481985 -2066022753</internalNodes>
      <leafValues>
        -1.4699387550354004e-01 1.9458034634590149e-01</leafValues></_>
    <_>
      <internalNodes>
        0 -1 6358 -349254988 823701437 -1565181777 930747254 -352730627
        -1271480839 86453501 -1963303665</internalNodes>
      <leafValues>
        -1.6642485558986664e-01 1.6751429438591003e-01</leafValues></_>
    <_>
      <internalNodes>
        0 -1 5468 -13916652 269522500 -578301601 194986815 -79647247
        -1981850375 -231678659 137380893</internalNodes>
      <leafValues>
        -2.5273901224136353e-01 1.1106134951114655e-01</leafValues></_>
    <_>
      <internalNodes>
        0 -1 2805 -587231027 -1283457779 -796429735 -1411852579
        -1178416898 -638401059 -1712909793 183371147</internalNodes>
      <leafValues>
        -1.7049597203731537e-01 1.6546268761157990e-01</leafValues></_>
    <_>
      <internalNodes>
        0 -1 1688 922782178 -235104834 -644570091 -452089628 1625375039
        -2067843121 2001552331 245170535</internalNodes>
      <leafValues>
        -1.9843646883964539e-01 1.4068317413330078e-01</leafValues></_>
    <_>
      <internalNodes>
        0 -1 794 -600875009 -294417 -772656974 -1623507302 -1027334302
        1663263887 1581989433 -68718029</internalNodes>
      <leafValues>
        -1.6384853422641754e-01 1.7217259109020233e-01</leafValues></_>
    <_>
      <internalNodes>
        0 -1 1430 278412207 -539301368 1359566079 -156697128 -543443534
        -12807551 516719490 8437904</internalNodes>
      <leafValues>
        -2.9250818490982056e-01 8.6045488715171814e-02</leafValues></_>
    <_>
      <internalNodes>
        0 -1 2867 -1250956057 -704726153 756560661 -807535667 821374695
        -156221827 -1125665409 -1562385113</internalNodes>
      <leafValues>
        -8.5821390151977539e-02 2.9341122508049011e-01</leafValues></_>
    <_>
      <internalNodes>
        0 -1 9956 -496502953 -167845016 704601463 -49682512 -447572791
        -1124553094 582904062 -118489425</internalNodes>
      <leafValues>
        -1.0657463967800140e-01 2.7194291353225708e-01</leafValues></_>
    <_>
      <internalNodes>
        0 -1 927 -1955661068 -1447245100 -2142935203 -1402967488
        327794884 -680705088 2137364452 135275268</internalNodes>
      <leafValues>
        -4.6269521117210388e-01 6.4947344362735748e-02</leafValues></_>
    <_>
      <internalNodes>
        0 -1 1713 -880045133 -41208958 1954390481 480081249 -557006854
        1037767962 382277081 1370486451</internalNodes>
      <leafValues>
        -1.2824708223342896e-01 2.1613974869251251e-01</leafValues></_>
    <_>
      <internalNodes>
        0 -1 698 1383122336 -722017361 219516319 2080170171 376468465
        -167693565 -654181569 531724387</internalNodes>
      <leafValues>
        -1.8320554494857788e-01 1.3974106311798096e-01</leafValues></_>
    <_>
      <internalNodes>
        0 -1 4213 -1955013251 -604195441 459063770 -1133199975
        -262669562 -1109738559 -472566979 -1373623116</internalNodes>
      <leafValues>
        -2.0727586746215820e-01 1.3323125243186951e-01</leafValues></_>
    <_>
      <internalNodes>
        0 -1 8865 -1028690951 -614354284 -1544517898 -9021322
        -2140993358 -277840015 -1497844322 -1694814657</internalNodes>
      <leafValues>
        -1.3954319059848785e-01 1.8890392780303955e-01</leafValues></_>
    <_>
      <internalNodes>
        0 -1 1062 2095775458 -548290581 1755906150 556862402 1553617529
        955282355 2126599001 1356289883</internalNodes>
      <leafValues>
        -1.9971445202827454e-01 1.2868389487266541e-01</leafValues></_>
    <_>
      <internalNodes>
        0 -1 5060 2129695472 -1092554744 -1361498147 1027518061
        -46883643 -1342393958 -87508529 -322067132</internalNodes>
      <leafValues>
        -1.7563520371913910e-01 1.5019953250885010e-01</leafValues></_>
    <_>
      <internalNodes>
        0 -1 2541 -525801208 1430045579 1028911600 -1179096505
        -929796752 -933825538 -843657033 -2079570878</internalNodes>
      <leafValues>
        -2.5595471262931824e-01 1.0517592728137970e-01</leafValues></_>
    <_>
      <internalNodes>
        0 -1 9075 -1892407804 1952287357 -1440274232 675145461 713395605
        -1654295047 1993084153 536890880</internalNodes>
      <leafValues>
        -3.6749270558357239e-01 6.4881071448326111e-02</leafValues></_>
    <_>
      <internalNodes>
        0 -1 4020 1182791631 -665490200 -407515337 812617451 -302909961
        -146915395 -483137558 -209761461</internalNodes>
      <leafValues>
        -9.2377424240112305e-02 2.8752693533897400e-01</leafValues></_>
    <_>
      <internalNodes>
        0 -1 2356 -340787311 -878253310 -1220113757 -208414816 189750509
        -1881350149 -1025534479 -991959645</internalNodes>
      <leafValues>
        -1.2624715268611908e-01 2.1839317679405212e-01</leafValues></_>
    <_>
      <internalNodes>
        0 -1 524 -539918995 -749465376 -666287593 1561399763 -107973648
        -616545556 -721061127 1786014978</internalNodes>
      <leafValues>
        -2.2878187894821167e-01 1.2478390336036682e-01</leafValues></_>
    <_>
      <internalNodes>
        0 -1 9993 -942008987 -1941753163 -779223425 -1606374618
        -913049609 1822399175 2108925396 -533465804</internalNodes>
      <leafValues>
        -2.1625459194183350e-01 1.2110094726085663e-01</leafValues></_>
    <_>
      <internalNodes>
        0 -1 3693 201874804 795756005 -1214441059 966145464 1837969137
        2075085309 561987281 1461611593</internalNodes>
      <leafValues>
        -3.2304999232292175e-01 8.1564567983150482e-02</leafValues></_>
    <_>
      <internalNodes>
        0 -1 826 2032316592 -1575179056 1709687124 723531952 1988671730
        -762658 2034818469 426183089</internalNodes>
      <leafValues>
        -2.4909140169620514e-01 1.0981860011816025e-01</leafValues></_>
    <_>
      <internalNodes>
        0 -1 9569 1515071120 194025764 404910706 542924448 1088493996
        -1376726895 -1809259346 1351636998</internalNodes>
      <leafValues>
        -2.8411009907722473e-01 9.2863395810127258e-02</leafValues></_>
    <_>
      <internalNodes>
        0 -1 9843 -227089009 1057388452 673608376 -1151817488 -526701552
        1575845735 -998296918 -232534218</internalNodes>
      <leafValues>
        -1.4466707408428192e-01 1.8702380359172821e-01</leafValues></_>
    <_>
      <internalNodes>
        0 -1 7892 -293061228 -207326373 -1176266951 -1447417295
        -542237219 -308576347 1974090700 -1309008194</internalNodes>
      <leafValues>
        -1.6736774146556854e-01 1.5575069189071655e-01</leafValues></_>
    <_>
      <internalNodes>
        0 -1 2933 949632530 226837015 134686174 996468047 1437550757
        -217408950 -1957711211 1356867392</internalNodes>
      <leafValues>
        -3.4951096773147583e-01 7.9228647053241730e-02</leafValues></_>
    <_>
      <internalNodes>
        0 -1 9181 2005384696 1572781685 -2001861892 -1073758622
        201922044 1343910689 -1541005618 107309257</internalNodes>
      <leafValues>
        -1.9016893208026886e-01 1.3297703862190247e-01</leafValues></_>
    <_>
      <internalNodes>
        0 -1 7382 -1095209100 -219891132 -116659740 -1077198393
        -1780628776 -1034625533 2061635576 322240801</internalNodes>
      <leafValues>
        -2.3225714266300201e-01 1.1141930520534515e-01</leafValues></_>
    <_>
      <internalNodes>
        0 -1 7016 -111934091 -211354397 -1095123041 -1519545072
        2054467263 1575867893 1822866926 -1425265878</internalNodes>
      <leafValues>
        -1.3334615528583527e-01 1.9407364726066589e-01</leafValues></_>
    <_>
      <internalNodes>
        0 -1 9647 -1359229059 -71307781 804142590 2019781869 -343945595
        -67408009 1841774461 1913884171</internalNodes>
      <leafValues>
        -1.2271855771541595e-01 2.1239787340164185e-01</leafValues></_>
    <_>
      <internalNodes>
        0 -1 9448 -662913675 1592815357 1610399195 -1152450708
        -995925571 -574718081 887881980 -857073441</internalNodes>
      <leafValues>
        -1.3547343015670776e-01 1.9556672871112823e-01</leafValues></_>
    <_>
      <internalNodes>
        0 -1 784 -961065219 562320742 -674931844 2136872350 -142968705
        1587940462 639841124 -748171739</internalNodes>
      <leafValues>
        -1.9189296662807465e-01 1.3456000387668610e-01</leafValues></_>
    <_>
      <internalNodes>
        0 -1 8960 -25214320 1731650310 -536852284 591683467 -559209736
        1321540257 286142812 -1868060889</internalNodes>
      <leafValues>
        -1.9056779146194458e-01 1.3664212822914124e-01</leafValues></_>
    <_>
      <internalNodes>
        0 -1 240 -63232600 1236174691 -1229246798 -638588494 246374287
        -1462554628 1350502900 -1530926258</internalNodes>
      <leafValues>
        -1.5283848345279694e-01 1.7097279429435730e-01</leafValues></_>
    <_>
      <internalNodes>
        0 -1 975 1548730339 2027945583 -805437455 -1840267675
        -1126699705 -84432273 -570437901 -77615105</internalNodes>
      <leafValues>
        -6.1580330133438110e-02 4.4635590910911560e-01</leafValues></_>
    <_>
      <internalNodes>
        0 -1 352 -1934982956 -1659853568 959799957 -1526187724 -56753155
        -284679604 -579514219 761558994</internalNodes>
      <leafValues>
        -2.5260719656944275e-01 1.1129482090473175e-01</leafValues></_>
    <_>
      <internalNodes>
        0 -1 756 -728068742 -1711234703 -1742657089 -1449633513
        1926501301 1037643969 2073065785 269754631</internalNodes>
      <leafValues>
        -2.5831225514411926e-01 1.0381355881690979e-01</leafValues></_>
    <_>
      <internalNodes>
        0 -1 7372 704913268 2065195036 236831181 905619821 -876837315
        -841922736 2091929596 19929104</internalNodes>
      <leafValues>
        -5.2771168947219849e-01 5.0965078175067902e-02</leafValues></_>
    <_>
      <internalNodes>
        0 -1 6185 -1599330492 -1124583593 -1890093221 -1298611226
        352161679 1594228669 1405684908 -1392561660</internalNodes>
      <leafValues>
        -2.1465663611888885e-01 1.2072180956602097e-01</leafValues></_>
    <_>
      <internalNodes>
        0 -1 6335 1281787956 1093071398 998933788 -782960804 1287881301
        -1939350667 27068021 -2077227763</internalNodes>
      <leafValues>
        -2.4232719838619232e-01 1.0690367221832275e-01</leafValues></_>
    <_>
      <internalNodes>
        0 -1 8734 426557204 688438593 674225652 338699108 958934756
        2043860759 1038707781 403702132</internalNodes>
      <leafValues>
        -4.1802194714546204e-01 5.9739381074905396e-02</leafValues></_>
    <_>
      <internalNodes>
        0 -1 9090 -608177033 -20084211 -1931690273 1442828021
        -1111572746 1040186879 -1375762689 -54526889</internalNodes>
      <leafValues>
        -8.5583932697772980e-02 3.2808142900466919e-01</leafValues></_>
    <_>
      <internalNodes>
        0 -1 143 -997529723 1487184514 298072474 -1624445390 1582612441
        -556770290 1287981560 1708122679</internalNodes>
      <leafValues>
        -1.6722686588764191e-01 1.5390108525753021e-01</leafValues></_></weakClassifiers></stage15>
</opencv_storage>
