<?xml version="1.0"?>
<opencv_storage>
<stage14>
  <maxWeakCount>51</maxWeakCount>
  <stageThreshold>-1.4116274118423462e+00</stageThreshold>
  <weakClassifiers>
    <_>
      <internalNodes>
        0 -1 192 -607130633 -549721344 -567392511 -78645326 -11812929
        -1080366684 1963132625 -82837589</internalNodes>
      <leafValues>
        -4.4123256206512451e-01 -2.1708607673645020e-02</leafValues></_>
    <_>
      <internalNodes>
        0 -1 594 -772612225 -1619881937 -784284808 2098344371 1481696004
        -101563055 -580595595 -362561449</internalNodes>
      <leafValues>
        -1.9552963972091675e-01 1.9092920422554016e-01</leafValues></_>
    <_>
      <internalNodes>
        0 -1 9994 -281350145 -1124436169 -50166082 -1358959916 668465919
        801100798 -323769123 83084349</internalNodes>
      <leafValues>
        -2.1821828186511993e-01 1.5627054870128632e-01</leafValues></_>
    <_>
      <internalNodes>
        0 -1 6536 -543969677 -879624592 655423847 -6029979 -1739215745
        -2296592 142668092 16828187</internalNodes>
      <leafValues>
        -1.9281917810440063e-01 1.6184888780117035e-01</leafValues></_>
    <_>
      <internalNodes>
        0 -1 6461 -1896478699 -197844941 712977919 -1078232323
        -1661454403 -177344897 -587382915 -1408761855</internalNodes>
      <leafValues>
        -1.7063468694686890e-01 1.8011257052421570e-01</leafValues></_>
    <_>
      <internalNodes>
        0 -1 1527 2061220563 288597106 2138521599 1566228223 1442256347
        -1611513922 -134758917 -1092700434</internalNodes>
      <leafValues>
        -1.2777261435985565e-01 2.3321330547332764e-01</leafValues></_>
    <_>
      <internalNodes>
        0 -1 96 -452280590 -138758174 1600604327 -373660032 1918183
        1458928127 2012695819 1140807235</internalNodes>
      <leafValues>
        -2.0273254811763763e-01 1.3840563595294952e-01</leafValues></_>
    <_>
      <internalNodes>
        0 -1 2985 216472704 902881188 -1131800900 -1214776429 1684550628
        953419605 908175979 5583360</internalNodes>
      <leafValues>
        -3.5374882817268372e-01 7.9739853739738464e-02</leafValues></_>
    <_>
      <internalNodes>
        0 -1 9360 -696261268 -2132705 -1976169292 819457415 1023154508
        794127169 -501072706 -94120161</internalNodes>
      <leafValues>
        -1.4272685348987579e-01 2.0624023675918579e-01</leafValues></_>
    <_>
      <internalNodes>
        0 -1 5705 537980837 -1331250791 2096360439 1513077181 -169885747
        -856170499 1004916619 -768947953</internalNodes>
      <leafValues>
        -1.5627014636993408e-01 1.7755410075187683e-01</leafValues></_>
    <_>
      <internalNodes>
        0 -1 4058 -9446418 292850124 -742825485 282494151 -73010684
        -548167211 -41593744 -788419804</internalNodes>
      <leafValues>
        -2.3131914436817169e-01 1.2031950056552887e-01</leafValues></_>
    <_>
      <internalNodes>
        0 -1 796 1425768439 -69665077 -645955856 -1174781955 -808091912
        -86999161 -117477513 -95715530</internalNodes>
      <leafValues>
        -1.6066789627075195e-01 1.6708816587924957e-01</leafValues></_>
    <_>
      <internalNodes>
        0 -1 898 -131934558 -793593027 -1618227596 1429224369 2121020158
        481317546 -1342935042 300204021</internalNodes>
      <leafValues>
        -2.3353488743305206e-01 1.1856878548860550e-01</leafValues></_>
    <_>
      <internalNodes>
        0 -1 8918 -627507760 -1855974532 -1929709837 -1243440406
        -1133568100 -1389527108 716586746 -1356726453</internalNodes>
      <leafValues>
        -1.6932608187198639e-01 1.6202779114246368e-01</leafValues></_>
    <_>
      <internalNodes>
        0 -1 9965 -424483052 805344106 1793501330 -1330074446
        -2134261516 766474800 110609452 -1330643369</internalNodes>
      <leafValues>
        -1.7480146884918213e-01 1.5072898566722870e-01</leafValues></_>
    <_>
      <internalNodes>
        0 -1 9509 -763888549 2071922335 775638051 521377250 1082540174
        -11805882 -567314225 -76546197</internalNodes>
      <leafValues>
        -9.3349419534206390e-02 2.7801710367202759e-01</leafValues></_>
    <_>
      <internalNodes>
        0 -1 8128 1053828948 1032073725 986971135 -143556916 -1393803291
        -569581201 -1388762371 135012180</internalNodes>
      <leafValues>
        -3.6728054285049438e-01 7.2089776396751404e-02</leafValues></_>
    <_>
      <internalNodes>
        0 -1 2369 141474088 497698928 1836107773 1290535924 -809960656
        -356619806 -332072527 1289784784</internalNodes>
      <leafValues>
        -3.8508993387222290e-01 6.6820673644542694e-02</leafValues></_>
    <_>
      <internalNodes>
        0 -1 6975 753669236 -403436332 1118795871 2041470005 -1833345027
        1224113656 1938057468 16777480</internalNodes>
      <leafValues>
        -4.8204326629638672e-01 5.0761491060256958e-02</leafValues></_>
    <_>
      <internalNodes>
        0 -1 9017 -624059681 -979558607 -17826177 414134201 -184697379
        -567918593 1860545535 -233625065</internalNodes>
      <leafValues>
        -1.0374587029218674e-01 2.5859910249710083e-01</leafValues></_>
    <_>
      <internalNodes>
        0 -1 1508 1705905928 2044663035 -1763954819 896538421 1419637952
        -819158515 878614144 1082164352</internalNodes>
      <leafValues>
        -3.0256658792495728e-01 8.7342105805873871e-02</leafValues></_>
    <_>
      <internalNodes>
        0 -1 411 -656092190 -204049546 -1877238236 45636031 -525138480
        2029941234 2027272159 1625248066</internalNodes>
      <leafValues>
        -1.9897255301475525e-01 1.3072980940341949e-01</leafValues></_>
    <_>
      <internalNodes>
        0 -1 827 -2069323616 -94324699 -607667379 1416903269 -873617498
        -1141925368 -618036319 165483151</internalNodes>
      <leafValues>
        -2.1814984083175659e-01 1.2161699682474136e-01</leafValues></_>
    <_>
      <internalNodes>
        0 -1 8793 -1135084276 861392682 -1426080008 -201851267
        -1342432052 348237112 -1704219138 -572664310</internalNodes>
      <leafValues>
        -1.4971823990345001e-01 1.7748023569583893e-01</leafValues></_>
    <_>
      <internalNodes>
        0 -1 9898 247348853 667873883 -1372363692 38169672 251542101
        1878744435 -1886647044 4376760</internalNodes>
      <leafValues>
        -3.6545100808143616e-01 7.4645943939685822e-02</leafValues></_>
    <_>
      <internalNodes>
        0 -1 707 -404431925 598708985 1237042551 -1072249861 -1053777113
        1746103647 1892977088 590828407</internalNodes>
      <leafValues>
        -2.0239222049713135e-01 1.2435209006071091e-01</leafValues></_>
    <_>
      <internalNodes>
        0 -1 832 -913786990 -1112343120 -384756149 -1380897152 357431095
        904244953 1337773915 226453269</internalNodes>
      <leafValues>
        -1.8145759403705597e-01 1.3754814863204956e-01</leafValues></_>
    <_>
      <internalNodes>
        0 -1 9933 2062539831 -6181323 -1095340681 2131841043 983340458
        -1451325191 -360055623 -903633249</internalNodes>
      <leafValues>
        -9.3001633882522583e-02 2.6938715577125549e-01</leafValues></_>
    <_>
      <internalNodes>
        0 -1 4640 1148202260 946896187 -1948041249 -1139372482 956108756
        -1678316545 871701038 1600391717</internalNodes>
      <leafValues>
        -2.3009905219078064e-01 1.0818135738372803e-01</leafValues></_>
    <_>
      <internalNodes>
        0 -1 2222 63307776 -1619097766 1463800083 -1150130373
        -1491680416 -1169056270 2008291091 -2067790832</internalNodes>
      <leafValues>
        -2.8161498904228210e-01 8.7507508695125580e-02</leafValues></_>
    <_>
      <internalNodes>
        0 -1 2012 1074783214 1544347520 1540999444 -1932859185 276166744
        -1175080596 -2784169 -865005238</internalNodes>
      <leafValues>
        -2.0578776299953461e-01 1.2525089085102081e-01</leafValues></_>
    <_>
      <internalNodes>
        0 -1 3073 -667898928 666744779 -1180792429 1039776800 1994262197
        973041341 -1996546939 9301300</internalNodes>
      <leafValues>
        -2.2412084043025970e-01 1.1324637383222580e-01</leafValues></_>
    <_>
      <internalNodes>
        0 -1 2286 -907051531 788413823 -43043015 532585514 -68200993
        1627291133 1157519204 -436545076</internalNodes>
      <leafValues>
        -1.5457266569137573e-01 1.6662244498729706e-01</leafValues></_>
    <_>
      <internalNodes>
        0 -1 1860 -97876048 389032336 1038447925 866721124 1143836141
        993332645 1656714425 -303052653</internalNodes>
      <leafValues>
        -1.3306114077568054e-01 1.8302726745605469e-01</leafValues></_>
    <_>
      <internalNodes>
        0 -1 9382 -120367948 -10065628 -1996092673 263913086 -775745360
        -314749852 -258880562 -1728591830</internalNodes>
      <leafValues>
        -1.6839341819286346e-01 1.4907507598400116e-01</leafValues></_>
    <_>
      <internalNodes>
        0 -1 6870 12594772 535978830 767827406 799288426 1945052500
        1169965047 -1225586204 685512120</internalNodes>
      <leafValues>
        -3.9172950387001038e-01 6.7745067179203033e-02</leafValues></_>
    <_>
      <internalNodes>
        0 -1 3101 -931664093 -419957086 1793572095 -1396490515
        2111831745 2113912807 -1579683914 -1173881270</internalNodes>
      <leafValues>
        -1.1256272345781326e-01 2.3688679933547974e-01</leafValues></_>
    <_>
      <internalNodes>
        0 -1 9878 -269419232 -782340 2118007113 -1120522252 -1369995331
        2107619149 1953920037 -1326486470</internalNodes>
      <leafValues>
        -1.5067569911479950e-01 1.6987338662147522e-01</leafValues></_>
    <_>
      <internalNodes>
        0 -1 1291 1517997590 -1615300876 1701512480 427423408 1928352196
        1593066229 -147806080 4456464</internalNodes>
      <leafValues>
        -3.3686491847038269e-01 8.1139273941516876e-02</leafValues></_>
    <_>
      <internalNodes>
        0 -1 9731 -153121574 2064184148 838371071 -1389314571
        -1708047216 -1151709771 -1183803734 -289409737</internalNodes>
      <leafValues>
        -1.2589955329895020e-01 2.0601668953895569e-01</leafValues></_>
    <_>
      <internalNodes>
        0 -1 9476 -1129251067 686869744 -16947736 -1465811739
        -1024413219 1609554492 838180861 739528464</internalNodes>
      <leafValues>
        -3.0829703807830811e-01 8.7091989815235138e-02</leafValues></_>
    <_>
      <internalNodes>
        0 -1 9288 -22227420 -243800261 -1376145425 1945890221 -777023539
        -704811137 -1665423617 -267670005</internalNodes>
      <leafValues>
        -1.1258007586002350e-01 2.4226734042167664e-01</leafValues></_>
    <_>
      <internalNodes>
        0 -1 2949 1456777920 -1867080136 -1856913539 -1185193589
        -242894236 1979022262 1388309451 1485956887</internalNodes>
      <leafValues>
        -1.7755153775215149e-01 1.5152284502983093e-01</leafValues></_>
    <_>
      <internalNodes>
        0 -1 5721 -1436270596 -1687393355 997981077 -1498778627
        1049423856 -1697408515 -1144182531 -1464898031</internalNodes>
      <leafValues>
        -1.7721320688724518e-01 1.4882926642894745e-01</leafValues></_>
    <_>
      <internalNodes>
        0 -1 9692 -1092096948 -1853888901 -1477514068 1936682733
        -1342710068 997079030 -512283139 -1062285969</internalNodes>
      <leafValues>
        -1.4689724147319794e-01 1.7218458652496338e-01</leafValues></_>
    <_>
      <internalNodes>
        0 -1 9298 770183125 935866555 260734717 624344284 441859437
        482012942 172631756 168302448</internalNodes>
      <leafValues>
        -4.2762795090675354e-01 6.2762565910816193e-02</leafValues></_>
    <_>
      <internalNodes>
        0 -1 2294 -324601859 1941471230 -554221808 -38294758 -560670071
        1531281374 -268742369 -67242037</internalNodes>
      <leafValues>
        -8.6815297603607178e-02 3.1168767809867859e-01</leafValues></_>
    <_>
      <internalNodes>
        0 -1 7225 638098492 -1259930769 -1094120073 759329638 353206713
        -1848740551 -1610663526 19406343</internalNodes>
      <leafValues>
        -2.2031623125076294e-01 1.1341883987188339e-01</leafValues></_>
    <_>
      <internalNodes>
        0 -1 916 106630400 1050738661 189195749 436685679 -654154794
        1424873383 -505564956 -2009050304</internalNodes>
      <leafValues>
        -2.6632627844810486e-01 9.7253337502479553e-02</leafValues></_>
    <_>
      <internalNodes>
        0 -1 991 -1013999598 1762851810 -358939790 -792996631 124694476
        224492412 1909573041 -158075193</internalNodes>
      <leafValues>
        -1.7148390412330627e-01 1.4590401947498322e-01</leafValues></_>
    <_>
      <internalNodes>
        0 -1 8680 611321716 33569752 -1484474956 -152529614 -1962146604
        -19768500 -554486531 67128388</internalNodes>
      <leafValues>
        -4.0801483392715454e-01 6.2435787171125412e-02</leafValues></_></weakClassifiers></stage14>
</opencv_storage>
