<?xml version="1.0"?>
<opencv_storage>
<stage2>
  <maxWeakCount>17</maxWeakCount>
  <stageThreshold>-1.5488746166229248e+00</stageThreshold>
  <weakClassifiers>
    <_>
      <internalNodes>
        0 -1 1599 1073184767 939524095 -1073758209 1073741823 2142207999
        1073708031 -1073774593 1073708287</internalNodes>
      <leafValues>
        -6.0052514076232910e-01 1.3095057010650635e-01</leafValues></_>
    <_>
      <internalNodes>
        0 -1 9993 -268435457 -1392508929 -71303682 -1593901058 -524353
        -51642369 -3 -520093697</internalNodes>
      <leafValues>
        -2.9875373840332031e-01 4.6693107485771179e-01</leafValues></_>
    <_>
      <internalNodes>
        0 -1 744 -1 -1 -138412033 -329733 -1614476 -17301633 -565900
        -134742169</internalNodes>
      <leafValues>
        -2.2156804800033569e-01 4.6593061089515686e-01</leafValues></_>
    <_>
      <internalNodes>
        0 -1 754 67142140 1073674239 -37782017 -135174 823144373
        -3784713 2146926527 2131756068</internalNodes>
      <leafValues>
        -3.8967534899711609e-01 2.6579666137695312e-01</leafValues></_>
    <_>
      <internalNodes>
        0 -1 498 -65665 -983105 2134046546 -28247250 -973820675
        -44037001 -134877449 1410364775</internalNodes>
      <leafValues>
        -3.5182136297225952e-01 2.2992493212223053e-01</leafValues></_>
    <_>
      <internalNodes>
        0 -1 6980 202387824 1073577077 1073725431 536428276 -1359071747
        -1073790977 1073626621 754726964</internalNodes>
      <leafValues>
        -5.9375458955764771e-01 1.3480897247791290e-01</leafValues></_>
    <_>
      <internalNodes>
        0 -1 9723 -20004346 -657155570 -532770590 -520950102 1265585988
        1681935188 -730436862 -529007773</internalNodes>
      <leafValues>
        -2.9117628931999207e-01 2.7205380797386169e-01</leafValues></_>
    <_>
      <internalNodes>
        0 -1 34 -899484768 -751571533 -1583094475 500236449 1147160984
        2111191012 1875992255 323028819</internalNodes>
      <leafValues>
        -3.3831140398979187e-01 2.1899090707302094e-01</leafValues></_>
    <_>
      <internalNodes>
        0 -1 7343 -593969227 -50548739 -18433 -34259467 -147459 -1246785
        -1074544643 -1178855392</internalNodes>
      <leafValues>
        -2.5911471247673035e-01 2.7538302540779114e-01</leafValues></_>
    <_>
      <internalNodes>
        0 -1 9606 -321127312 -598676724 -867013528 817111264 -523377572
        -61543387 -53675732 545761899</internalNodes>
      <leafValues>
        -3.6933451890945435e-01 1.9722795486450195e-01</leafValues></_>
    <_>
      <internalNodes>
        0 -1 792 2146656255 2147432415 -273727489 -4243607 2134342963
        -282755 -35215 -2654953</internalNodes>
      <leafValues>
        -2.2018556296825409e-01 3.2312577962875366e-01</leafValues></_>
    <_>
      <internalNodes>
        0 -1 6954 1007173344 280830156 -1728316673 1015016660 -571506949
        485441527 -67110401 79504564</internalNodes>
      <leafValues>
        -4.9918526411056519e-01 1.3186363875865936e-01</leafValues></_>
    <_>
      <internalNodes>
        0 -1 9985 -299044891 613480436 -16777520 -1431638033 -35197001
        162987893 -52718431 -1594884105</internalNodes>
      <leafValues>
        -2.4959886074066162e-01 2.6319104433059692e-01</leafValues></_>
    <_>
      <internalNodes>
        0 -1 5983 875577016 757926921 -1227358536 -1123027691 -122408963
        -1124114946 -182083 671623204</internalNodes>
      <leafValues>
        -3.9189422130584717e-01 1.6636891663074493e-01</leafValues></_>
    <_>
      <internalNodes>
        0 -1 6822 -178913420 -793708484 -926877430 -118948262 -673120828
        -55248388 -302232124 2457186</internalNodes>
      <leafValues>
        -4.2110630869865417e-01 1.5047547221183777e-01</leafValues></_>
    <_>
      <internalNodes>
        0 -1 1859 -969953374 145651874 1475846304 -180506646 1190004575
        77627331 -2081226059 -438306894</internalNodes>
      <leafValues>
        -2.3557393252849579e-01 2.5896126031875610e-01</leafValues></_>
    <_>
      <internalNodes>
        0 -1 3670 472927920 1870429431 -277528612 1039286268 -268949511
        1929263103 -643090 212870432</internalNodes>
      <leafValues>
        -5.3993946313858032e-01 1.0691203176975250e-01</leafValues></_></weakClassifiers></stage2>
</opencv_storage>
