<?xml version="1.0"?>
<opencv_storage>
<stage12>
  <maxWeakCount>43</maxWeakCount>
  <stageThreshold>-1.4185811281204224e+00</stageThreshold>
  <weakClassifiers>
    <_>
      <internalNodes>
        0 -1 3736 -703594681 -4197441 -54147121 -691050961 -4214849
        -2099217 -537926741 -1165024370</internalNodes>
      <leafValues>
        -4.4780820608139038e-01 9.4308219850063324e-03</leafValues></_>
    <_>
      <internalNodes>
        0 -1 9998 -1375797761 796192470 -1545740042 752147962 123432949
        1072101823 -1916074754 1085997051</internalNodes>
      <leafValues>
        -3.0813381075859070e-01 1.2374242395162582e-01</leafValues></_>
    <_>
      <internalNodes>
        0 -1 1810 -175112286 132296674 -1681980496 -101729582 1120910540
        210616142 1710698992 -993003794</internalNodes>
      <leafValues>
        -1.9318139553070068e-01 2.0752918720245361e-01</leafValues></_>
    <_>
      <internalNodes>
        0 -1 9675 -18649253 1932480124 -4627 1006087806 -272417
        -75500312 -21565441 1879176757</internalNodes>
      <leafValues>
        -1.7842309176921844e-01 2.0122599601745605e-01</leafValues></_>
    <_>
      <internalNodes>
        0 -1 2495 -2169858 -454230533 -1881065601 533474462 183930596
        -1697906738 -1151642024 524782302</internalNodes>
      <leafValues>
        -1.8216036260128021e-01 1.9811414182186127e-01</leafValues></_>
    <_>
      <internalNodes>
        0 -1 744 -838935075 -8390793 -751632930 -110431558 -280609676
        2028169469 -371833744 -495499945</internalNodes>
      <leafValues>
        -1.8569865822792053e-01 1.8056826293468475e-01</leafValues></_>
    <_>
      <internalNodes>
        0 -1 4294 488644061 997998361 1810840573 1073361724 2146992125
        1870618484 863321785 1067129112</internalNodes>
      <leafValues>
        -3.5085245966911316e-01 9.8223201930522919e-02</leafValues></_>
    <_>
      <internalNodes>
        0 -1 9961 -255597226 -1738225556 -1296321066 284211254
        -999521740 -1684965454 2507884 808436491</internalNodes>
      <leafValues>
        -2.1716479957103729e-01 1.4820410311222076e-01</leafValues></_>
    <_>
      <internalNodes>
        0 -1 8158 -15413868 -256631019 1656974079 380748165 553721849
        -51216897 -473088007 -1205859552</internalNodes>
      <leafValues>
        -2.3754408955574036e-01 1.3319946825504303e-01</leafValues></_>
    <_>
      <internalNodes>
        0 -1 1135 1616246692 1356196684 -1660198935 1524169187
        -2000358448 1342499300 -858666171 1543779072</internalNodes>
      <leafValues>
        -3.3609750866889954e-01 9.8533011972904205e-02</leafValues></_>
    <_>
      <internalNodes>
        0 -1 7824 -543163043 -50913 -302170689 2011168367 -118489604
        -1141786433 -1159157074 -1161844065</internalNodes>
      <leafValues>
        -9.3383580446243286e-02 3.5263076424598694e-01</leafValues></_>
    <_>
      <internalNodes>
        0 -1 2268 -1123145300 1073176025 2044539579 -1080086021
        -201681185 535261615 -18474545 -842989656</internalNodes>
      <leafValues>
        -1.9848872721195221e-01 1.5825052559375763e-01</leafValues></_>
    <_>
      <internalNodes>
        0 -1 1591 1553530818 1053146241 -1085817091 920124656 2087474845
        -1089502673 -273418289 849724391</internalNodes>
      <leafValues>
        -1.9507063925266266e-01 1.6376818716526031e-01</leafValues></_>
    <_>
      <internalNodes>
        0 -1 2883 -126060684 1582576029 -451727425 267728761 -963864075
        -34618411 1740646667 -1884289984</internalNodes>
      <leafValues>
        -2.0764094591140747e-01 1.4229556918144226e-01</leafValues></_>
    <_>
      <internalNodes>
        0 -1 9935 619653256 -8707168 -804003021 -1083608268 983567802
        -224397183 1218501615 1140965441</internalNodes>
      <leafValues>
        -1.9433256983757019e-01 1.5025572478771210e-01</leafValues></_>
    <_>
      <internalNodes>
        0 -1 7993 2121792370 -365822028 1759832528 -267344690 -230688777
        -1717388329 -132383776 816938736</internalNodes>
      <leafValues>
        -2.5930756330490112e-01 1.1384020745754242e-01</leafValues></_>
    <_>
      <internalNodes>
        0 -1 8477 -1247767524 2020623641 -1403375905 436176591 167772141
        -168149115 -1124845315 -1190630647</internalNodes>
      <leafValues>
        -1.8377664685249329e-01 1.6801951825618744e-01</leafValues></_>
    <_>
      <internalNodes>
        0 -1 678 1195618012 -1933675833 -355566753 569570287 1397077428
        -2077894427 -145245248 1692870403</internalNodes>
      <leafValues>
        -2.3941083252429962e-01 1.2273953855037689e-01</leafValues></_>
    <_>
      <internalNodes>
        0 -1 4613 1146679223 -216662873 3368179 965471215 -310419457
        -18036737 -67308161 -604012369</internalNodes>
      <leafValues>
        -9.7778052091598511e-02 2.9476279020309448e-01</leafValues></_>
    <_>
      <internalNodes>
        0 -1 145 -77146766 1560283363 426866841 1597874541 -2064333428
        1756976637 211416793 -303323149</internalNodes>
      <leafValues>
        -1.4666497707366943e-01 1.9767874479293823e-01</leafValues></_>
    <_>
      <internalNodes>
        0 -1 6487 1055661424 -36143309 1332566512 -1130268304
        -1526898714 875322879 -1184880008 671098704</internalNodes>
      <leafValues>
        -3.6003115773200989e-01 8.3585016429424286e-02</leafValues></_>
    <_>
      <internalNodes>
        0 -1 4318 -2142206768 -1670608377 1610257533 1400382106
        -373890083 -1078118217 -403206995 180631968</internalNodes>
      <leafValues>
        -3.1025418639183044e-01 8.2748129963874817e-02</leafValues></_>
    <_>
      <internalNodes>
        0 -1 9516 -91766720 858156807 -21033390 304283230 -228864436
        905935697 -257496386 -224140481</internalNodes>
      <leafValues>
        -1.5179823338985443e-01 1.9168609380722046e-01</leafValues></_>
    <_>
      <internalNodes>
        0 -1 536 -989892461 -126200273 -74970880 580169312 -146749967
        -642487375 -1269598222 880010483</internalNodes>
      <leafValues>
        -2.0769849419593811e-01 1.3798770308494568e-01</leafValues></_>
    <_>
      <internalNodes>
        0 -1 9499 -1250468644 -1890615519 -2041733386 393730557
        -1362110996 216655118 525271708 -1652630401</internalNodes>
      <leafValues>
        -1.8003949522972107e-01 1.5972073376178741e-01</leafValues></_>
    <_>
      <internalNodes>
        0 -1 375 46569374 1957871551 1067334562 270576551 1225080177
        -1126692979 2009216824 648242028</internalNodes>
      <leafValues>
        -2.6459184288978577e-01 1.0494632273912430e-01</leafValues></_>
    <_>
      <internalNodes>
        0 -1 9988 -870636051 9975248 -140548274 79979170 -489207553
        350739391 -1062760972 -2130968761</internalNodes>
      <leafValues>
        -2.1428897976875305e-01 1.3819535076618195e-01</leafValues></_>
    <_>
      <internalNodes>
        0 -1 2953 -1373348064 1581814204 -172154575 -1153814237
        -2017669121 -1748963585 1625498259 -2113666928</internalNodes>
      <leafValues>
        -2.5729566812515259e-01 1.2068333476781845e-01</leafValues></_>
    <_>
      <internalNodes>
        0 -1 3524 -1166365811 -589941852 -740386725 2062614369
        -1667329391 -277895021 -1779268095 -2013265776</internalNodes>
      <leafValues>
        -3.1518405675888062e-01 9.0528115630149841e-02</leafValues></_>
    <_>
      <internalNodes>
        0 -1 3049 -592533263 1857857075 -1109381667 -72878941 1547468027
        2095948839 749037615 240639667</internalNodes>
      <leafValues>
        -1.5454888343811035e-01 1.8311238288879395e-01</leafValues></_>
    <_>
      <internalNodes>
        0 -1 766 797994990 -722412075 1280988402 -2097157 46155498
        -177178030 -236029957 -805878745</internalNodes>
      <leafValues>
        -1.6868416965007782e-01 1.6913834214210510e-01</leafValues></_>
    <_>
      <internalNodes>
        0 -1 8152 764165941 -832791731 -916262497 -1266253975
        -1095220399 -1082376645 -249995955 1010045752</internalNodes>
      <leafValues>
        -3.7204262614250183e-01 7.8823812305927277e-02</leafValues></_>
    <_>
      <internalNodes>
        0 -1 56 -698185936 -6666305 -1717261915 -270762703 -2130924097
        1304919807 2113744301 1340948270</internalNodes>
      <leafValues>
        -1.5358613431453705e-01 1.8653142452239990e-01</leafValues></_>
    <_>
      <internalNodes>
        0 -1 1144 -215038720 894184327 -313639887 -1282762456 249636092
        1240169982 -185259904 -1047533662</internalNodes>
      <leafValues>
        -1.6658440232276917e-01 1.7249244451522827e-01</leafValues></_>
    <_>
      <internalNodes>
        0 -1 7148 6295332 422881244 -1074062475 -1145953300 612109788
        -1922245655 200805757 604244228</internalNodes>
      <leafValues>
        -4.5158082246780396e-01 5.8720529079437256e-02</leafValues></_>
    <_>
      <internalNodes>
        0 -1 4391 -152656060 -165615996 637906420 -47281193 1725439247
        2111404924 211596785 -1979685001</internalNodes>
      <leafValues>
        -2.0165202021598816e-01 1.4042784273624420e-01</leafValues></_>
    <_>
      <internalNodes>
        0 -1 913 -94333806 1553659313 1568939938 84193283 -1629682956
        604311230 -508815905 1464176471</internalNodes>
      <leafValues>
        -2.2477820515632629e-01 1.3006046414375305e-01</leafValues></_>
    <_>
      <internalNodes>
        0 -1 8691 -474224112 -231687360 1822954942 -1511421316
        -899858433 -1686953230 1907390142 -1978144238</internalNodes>
      <leafValues>
        -1.6632500290870667e-01 1.6729393601417542e-01</leafValues></_>
    <_>
      <internalNodes>
        0 -1 792 -634159177 1068658143 -445464577 1038917502 -42304425
        -210323457 -310743233 -815039653</internalNodes>
      <leafValues>
        -1.4713186025619507e-01 1.8541218340396881e-01</leafValues></_>
    <_>
      <internalNodes>
        0 -1 9262 279719549 -1967904104 555553499 1785361136 2018322820
        -466040446 821897852 1879051781</internalNodes>
      <leafValues>
        -3.2477024197578430e-01 8.4718048572540283e-02</leafValues></_>
    <_>
      <internalNodes>
        0 -1 206 -547307878 -1745689977 -57277422 -407926160 518045145
        888302312 -1377553688 1810885637</internalNodes>
      <leafValues>
        -1.8434216082096100e-01 1.5178030729293823e-01</leafValues></_>
    <_>
      <internalNodes>
        0 -1 9982 -1020402044 615046976 -492898992 -1468466112
        -2110741584 -1552063727 218071216 15947587</internalNodes>
      <leafValues>
        -2.6454931497573853e-01 1.0580695420503616e-01</leafValues></_>
    <_>
      <internalNodes>
        0 -1 2559 -1485530749 -1920930004 1878994800 2077177120
        -1496272979 179089391 -202100752 -2135949421</internalNodes>
      <leafValues>
        -1.5915851294994354e-01 1.7291179299354553e-01</leafValues></_></weakClassifiers></stage12>
</opencv_storage>
