<?xml version="1.0"?>
<opencv_storage>
<stage5>
  <maxWeakCount>26</maxWeakCount>
  <stageThreshold>-1.4953874349594116e+00</stageThreshold>
  <weakClassifiers>
    <_>
      <internalNodes>
        0 -1 9983 -134217745 -924518191 -530581025 -326443065 -856692243
        -856729313 -654314087 -990904585</internalNodes>
      <leafValues>
        -5.1426088809967041e-01 9.5264829695224762e-02</leafValues></_>
    <_>
      <internalNodes>
        0 -1 761 -1 1073709047 -4227077 -41959425 -40961 -1073774721
        -32769 -819337</internalNodes>
      <leafValues>
        -2.0954176783561707e-01 4.4714513421058655e-01</leafValues></_>
    <_>
      <internalNodes>
        0 -1 1810 -34603101 -953745534 -537025678 -605298846 1156560357
        202207182 -403197472 -436210713</internalNodes>
      <leafValues>
        -1.7723728716373444e-01 3.4588673710823059e-01</leafValues></_>
    <_>
      <internalNodes>
        0 -1 4234 13639156 1576818173 -1073758209 -2478146 -288047107
        -2105409 -33800257 -1892670720</internalNodes>
      <leafValues>
        -3.0367505550384521e-01 2.0302395522594452e-01</leafValues></_>
    <_>
      <internalNodes>
        0 -1 9999 201326591 668990975 181384447 -1426179341 268327935
        2010906619 -61474 -1902117377</internalNodes>
      <leafValues>
        -2.3548404872417450e-01 2.3536600172519684e-01</leafValues></_>
    <_>
      <internalNodes>
        0 -1 770 755017712 -549782185 -16130181 2134409699 676331767
        -1757765 1063205819 993067778</internalNodes>
      <leafValues>
        -2.7930092811584473e-01 2.1997091174125671e-01</leafValues></_>
    <_>
      <internalNodes>
        0 -1 656 -84740233 -357124305 -427897232 -1305284766 1953789301
        1986346545 -139052267 -143427773</internalNodes>
      <leafValues>
        -2.4398367106914520e-01 2.5085705518722534e-01</leafValues></_>
    <_>
      <internalNodes>
        0 -1 5241 -959405804 -80110083 -590172225 1027455807 -588203553
        -16990209 -684208897 -1413807445</internalNodes>
      <leafValues>
        -1.9676588475704193e-01 2.8691184520721436e-01</leafValues></_>
    <_>
      <internalNodes>
        0 -1 4940 -170412772 1565987615 1072992189 1068864351 -637731396
        -1124075586 -1467434834 -1472205121</internalNodes>
      <leafValues>
        -1.6266484558582306e-01 3.1889027357101440e-01</leafValues></_>
    <_>
      <internalNodes>
        0 -1 93 -1057033326 -4732366 14138288 1307703282 -856629836
        -37830322 -447352837 -728382317</internalNodes>
      <leafValues>
        -2.2856590151786804e-01 2.1066972613334656e-01</leafValues></_>
    <_>
      <internalNodes>
        0 -1 7396 487863157 1572018645 -1082181633 1071083511 905715711
        1070817015 1870596607 991959592</internalNodes>
      <leafValues>
        -4.3886855244636536e-01 1.1544879525899887e-01</leafValues></_>
    <_>
      <internalNodes>
        0 -1 9636 -65017180 807446598 -1399411655 609414850 -118839148
        -1138628971 1751842820 2616011</internalNodes>
      <leafValues>
        -3.2860803604125977e-01 1.4120523631572723e-01</leafValues></_>
    <_>
      <internalNodes>
        0 -1 6413 -1355513995 -36405387 511688191 -70802 -1703886851
        -67250203 -269631747 -1359212700</internalNodes>
      <leafValues>
        -2.5057643651962280e-01 1.8915529549121857e-01</leafValues></_>
    <_>
      <internalNodes>
        0 -1 9737 -160133618 1042986771 448563712 -1293248314 2128298500
        2087800065 -727774522 -256915505</internalNodes>
      <leafValues>
        -2.1042734384536743e-01 2.1467027068138123e-01</leafValues></_>
    <_>
      <internalNodes>
        0 -1 8171 -1998982056 297556084 -1978954511 429784828
        -1376813059 1040023487 -1116733441 4502564</internalNodes>
      <leafValues>
        -3.7903940677642822e-01 1.1625058203935623e-01</leafValues></_>
    <_>
      <internalNodes>
        0 -1 794 -152141833 -4014227 -34980048 -8700000 -61702291
        1936817535 -537182277 -8438925</internalNodes>
      <leafValues>
        -1.8085832893848419e-01 2.4837245047092438e-01</leafValues></_>
    <_>
      <internalNodes>
        0 -1 9954 -547120006 -571349764 -268505097 364748477 768546044
        -1090724623 754544124 202624075</internalNodes>
      <leafValues>
        -1.8626585602760315e-01 2.4429015815258026e-01</leafValues></_>
    <_>
      <internalNodes>
        0 -1 5728 7644052 -761610521 1005888501 -1477893206 -1360625724
        -1342180101 -475388808 673972768</internalNodes>
      <leafValues>
        -3.6294698715209961e-01 1.1779481172561646e-01</leafValues></_>
    <_>
      <internalNodes>
        0 -1 520 -921178186 -320429199 -292574640 -357516252 1086409940
        1843714990 1885746960 -141099002</internalNodes>
      <leafValues>
        -2.3163206875324249e-01 1.9053666293621063e-01</leafValues></_>
    <_>
      <internalNodes>
        0 -1 8907 -972572620 1802783524 687096156 2020649586 -392050664
        -1473742535 -395007234 1077132543</internalNodes>
      <leafValues>
        -2.7170610427856445e-01 1.5350285172462463e-01</leafValues></_>
    <_>
      <internalNodes>
        0 -1 7368 -1486047724 -1225195539 603171583 937703861 -17449995
        -16777849 1965980649 136840192</internalNodes>
      <leafValues>
        -3.4158530831336975e-01 1.2003652006387711e-01</leafValues></_>
    <_>
      <internalNodes>
        0 -1 1583 1583349680 886072635 -1359200833 -1074006021
        1837200895 -570492070 2104438763 813110787</internalNodes>
      <leafValues>
        -2.2402800619602203e-01 1.8264850974082947e-01</leafValues></_>
    <_>
      <internalNodes>
        0 -1 50 -1038028158 289517563 871665412 659555120 1219845528
        903951781 -71291202 273755431</internalNodes>
      <leafValues>
        -3.3428993821144104e-01 1.2136438488960266e-01</leafValues></_>
    <_>
      <internalNodes>
        0 -1 6185 -1574653996 -8898703 -1493450886 -1229154356
        -2131157548 1030519647 -1771032588 -1498938240</internalNodes>
      <leafValues>
        -2.9309469461441040e-01 1.4209991693496704e-01</leafValues></_>
    <_>
      <internalNodes>
        0 -1 705 -52462533 -1074528449 -819913 -13533195 1568291287
        -537100426 1877888252 -533473993</internalNodes>
      <leafValues>
        -1.5194323658943176e-01 2.7680853009223938e-01</leafValues></_>
    <_>
      <internalNodes>
        0 -1 2913 -549162588 -1730393202 1044192189 -1778717953
        2146802613 -1192101644 -6820481 679215108</internalNodes>
      <leafValues>
        -2.3236775398254395e-01 1.8281339108943939e-01</leafValues></_></weakClassifiers></stage5>
</opencv_storage>
