<?xml version="1.0"?>
<opencv_storage>
<stage10>
  <maxWeakCount>39</maxWeakCount>
  <stageThreshold>-1.4202527999877930e+00</stageThreshold>
  <weakClassifiers>
    <_>
      <internalNodes>
        0 -1 25 -14491661 -5052958 -1652904325 -772689278 -926232577
        -69755461 -269504513 2011690871</internalNodes>
      <leafValues>
        -4.8633694648742676e-01 -4.5897968113422394e-02</leafValues></_>
    <_>
      <internalNodes>
        0 -1 9991 -51646993 -2078212306 -95423254 -332804106 -312488981
        -389021797 -184554303 -461899949</internalNodes>
      <leafValues>
        -2.3688615858554840e-01 2.1121101081371307e-01</leafValues></_>
    <_>
      <internalNodes>
        0 -1 776 -268476417 1870626687 -67412161 1997946810 -906527881
        913796471 28537717 -210241677</internalNodes>
      <leafValues>
        -2.1097300946712494e-01 2.1838271617889404e-01</leafValues></_>
    <_>
      <internalNodes>
        0 -1 8499 964689917 -1076068537 -1344918274 805218775
        -1128285699 -1075578369 -1160175108 -1370512202</internalNodes>
      <leafValues>
        -1.9854134321212769e-01 2.0320588350296021e-01</leafValues></_>
    <_>
      <internalNodes>
        0 -1 3440 5560196 892643245 1035808445 1039960467 489977300
        -1074496595 1940062607 -1960508920</internalNodes>
      <leafValues>
        -1.7779405415058136e-01 2.2236886620521545e-01</leafValues></_>
    <_>
      <internalNodes>
        0 -1 1761 -592445461 -878527094 -68214864 -740035726 1591129598
        205557706 1425527011 -672140881</internalNodes>
      <leafValues>
        -1.2858161330223083e-01 3.0781707167625427e-01</leafValues></_>
    <_>
      <internalNodes>
        0 -1 9743 -21517176 857284591 -1497893128 -1841629668 -581677492
        1012199264 -461984546 -146801909</internalNodes>
      <leafValues>
        -1.8831989169120789e-01 2.0056167244911194e-01</leafValues></_>
    <_>
      <internalNodes>
        0 -1 8176 -1131378628 301545273 -1130033923 -1078777875
        -1997260803 -1107296257 -1093554437 -2012992480</internalNodes>
      <leafValues>
        -2.4139051139354706e-01 1.6695119440555573e-01</leafValues></_>
    <_>
      <internalNodes>
        0 -1 78 1587999282 524319520 -241947875 2144642336 -822565382
        -1158509429 1156631039 -552516207</internalNodes>
      <leafValues>
        -2.6406574249267578e-01 1.2228059023618698e-01</leafValues></_>
    <_>
      <internalNodes>
        0 -1 2277 1583656096 831711410 -1161871500 -172026719 1885421493
        1035297750 -1161806913 675807232</internalNodes>
      <leafValues>
        -2.8816533088684082e-01 1.2228620052337646e-01</leafValues></_>
    <_>
      <internalNodes>
        0 -1 7456 -36701155 386628907 1421606845 938203929 -27283780
        855596991 -1327056710 -1560282485</internalNodes>
      <leafValues>
        -1.4166788756847382e-01 2.3884703218936920e-01</leafValues></_>
    <_>
      <internalNodes>
        0 -1 9583 -657457900 -680478716 1687182431 -785321466 -861305720
        -930575136 -733959940 139766863</internalNodes>
      <leafValues>
        -2.5996342301368713e-01 1.2918403744697571e-01</leafValues></_>
    <_>
      <internalNodes>
        0 -1 2294 1151500240 -102097922 483794834 -1750715766 -543286850
        1810333407 -557892808 -13690054</internalNodes>
      <leafValues>
        -2.2039465606212616e-01 1.3939763605594635e-01</leafValues></_>
    <_>
      <internalNodes>
        0 -1 662 -857419819 -613005697 -50367683 1072261883 -1537910912
        -327844601 -168677809 790050455</internalNodes>
      <leafValues>
        -1.5651164948940277e-01 2.0304176211357117e-01</leafValues></_>
    <_>
      <internalNodes>
        0 -1 7352 609237268 805059581 -1682843713 -1258508419
        -1501806627 -1082654985 1031058397 136325924</internalNodes>
      <leafValues>
        -5.2432024478912354e-01 5.7122889906167984e-02</leafValues></_>
    <_>
      <internalNodes>
        0 -1 560 -423696605 -487267414 -1426649858 -228315318 24382629
        1951804230 1687563428 -453557533</internalNodes>
      <leafValues>
        -1.9081446528434753e-01 1.6460300981998444e-01</leafValues></_>
    <_>
      <internalNodes>
        0 -1 1509 724701620 1073577973 -913957605 -1370210 535805950
        -1409369649 1894458813 109085704</internalNodes>
      <leafValues>
        -3.0658331513404846e-01 9.8785147070884705e-02</leafValues></_>
    <_>
      <internalNodes>
        0 -1 1381 -808517866 -64161075 2046572971 -329994429 -772737328
        -70249484 -412034401 -1743304717</internalNodes>
      <leafValues>
        -1.7784112691879272e-01 1.7294587194919586e-01</leafValues></_>
    <_>
      <internalNodes>
        0 -1 2181 989111960 -216487269 -513410717 -113486997 -1461794928
        -894268672 -268828972 -2139094912</internalNodes>
      <leafValues>
        -3.0031895637512207e-01 1.0500366985797882e-01</leafValues></_>
    <_>
      <internalNodes>
        0 -1 37 -991963214 1106461675 -1192052427 1224038389 -1986085684
        -93536550 -1178087629 1161946050</internalNodes>
      <leafValues>
        -2.1798603236675262e-01 1.3438390195369720e-01</leafValues></_>
    <_>
      <internalNodes>
        0 -1 9717 -579616622 2134334334 -1228117135 460504706 -833551214
        1819430425 -1762471270 -227020069</internalNodes>
      <leafValues>
        -1.2128996104001999e-01 2.4943603575229645e-01</leafValues></_>
    <_>
      <internalNodes>
        0 -1 8020 170147189 -1516382463 -83894274 903606266 -1344954635
        -1921568779 1073090493 653270020</internalNodes>
      <leafValues>
        -3.0887645483016968e-01 9.8625525832176208e-02</leafValues></_>
    <_>
      <internalNodes>
        0 -1 775 1986234576 583784132 755506781 903344759 1649426928
        -336804631 2061402011 1961325286</internalNodes>
      <leafValues>
        -2.4779532849788666e-01 1.1644512414932251e-01</leafValues></_>
    <_>
      <internalNodes>
        0 -1 9019 -218176007 -1530824454 -705300743 82435193 1597205500
        218285669 1903500880 539226371</internalNodes>
      <leafValues>
        -2.3911659419536591e-01 1.2003079056739807e-01</leafValues></_>
    <_>
      <internalNodes>
        0 -1 7780 740824948 2008853485 -1283658596 1339097076 1183308788
        1470692215 401439228 136320272</internalNodes>
      <leafValues>
        -5.6093567609786987e-01 5.6428983807563782e-02</leafValues></_>
    <_>
      <internalNodes>
        0 -1 5878 16034596 846231287 805112766 1068136154 1644074165
        -1401882633 -1934161796 741605920</internalNodes>
      <leafValues>
        -3.3508497476577759e-01 8.1715174019336700e-02</leafValues></_>
    <_>
      <internalNodes>
        0 -1 400 -270292773 -1624183760 -1342904647 -274630382
        1279304840 -1442286084 1079112649 2138301155</internalNodes>
      <leafValues>
        -1.4654912054538727e-01 1.9960243999958038e-01</leafValues></_>
    <_>
      <internalNodes>
        0 -1 7541 1416075268 818020138 244759178 940257346 -170033772
        74756369 817389228 268795451</internalNodes>
      <leafValues>
        -3.0875316262245178e-01 8.9110419154167175e-02</leafValues></_>
    <_>
      <internalNodes>
        0 -1 6516 -933222876 645271333 -1078154452 -1431493559
        -982222610 1962434157 411573838 109840922</internalNodes>
      <leafValues>
        -2.9233834147453308e-01 9.8563179373741150e-02</leafValues></_>
    <_>
      <internalNodes>
        0 -1 5136 -2080067823 1458997823 -1939999013 1941809375
        -254942247 -1493452873 -2274061 -1993702112</internalNodes>
      <leafValues>
        -2.0134523510932922e-01 1.4164717495441437e-01</leafValues></_>
    <_>
      <internalNodes>
        0 -1 1562 -954016338 -538021889 -956355806 -550094222 -941205521
        1803255679 1711265467 -439368317</internalNodes>
      <leafValues>
        -1.1825705319643021e-01 2.3925478756427765e-01</leafValues></_>
    <_>
      <internalNodes>
        0 -1 9669 -897588132 1723233659 1073725165 2138040685
        -1136730380 1033815655 410189805 1880352833</internalNodes>
      <leafValues>
        -1.6738221049308777e-01 1.7063993215560913e-01</leafValues></_>
    <_>
      <internalNodes>
        0 -1 6954 748815554 99682510 613577151 751159918 -1611170081
        394259143 -1416800009 135099620</internalNodes>
      <leafValues>
        -3.9251479506492615e-01 7.1701526641845703e-02</leafValues></_>
    <_>
      <internalNodes>
        0 -1 7364 240393336 -1277286403 966316375 803979255 -1084362243
        -650119426 664288893 433325156</internalNodes>
      <leafValues>
        -4.3855309486389160e-01 6.1268758028745651e-02</leafValues></_>
    <_>
      <internalNodes>
        0 -1 190 465018687 2143114582 -1078329345 2133949811 -1372004358
        -1074102435 -566886945 -539886205</internalNodes>
      <leafValues>
        -1.0232608765363693e-01 2.9277300834655762e-01</leafValues></_>
    <_>
      <internalNodes>
        0 -1 628 -310841696 -747033108 -1034732280 1375006208 -253725851
        1039600597 -1284334416 1655788802</internalNodes>
      <leafValues>
        -2.6092550158500671e-01 1.1351217329502106e-01</leafValues></_>
    <_>
      <internalNodes>
        0 -1 5398 241981749 -235122700 1487093723 1190672223 -822837519
        -608509961 -85116420 -1943403915</internalNodes>
      <leafValues>
        -1.9683697819709778e-01 1.4625480771064758e-01</leafValues></_>
    <_>
      <internalNodes>
        0 -1 808 -419236957 1420014016 535338736 -1583472542 114746859
        246577026 33507739 -725625977</internalNodes>
      <leafValues>
        -1.3948018848896027e-01 2.0294710993766785e-01</leafValues></_>
    <_>
      <internalNodes>
        0 -1 1859 -978415712 2114068066 -2016271824 917810994 1315454453
        216021239 41886624 -956353353</internalNodes>
      <leafValues>
        -1.9228990375995636e-01 1.4996586740016937e-01</leafValues></_></weakClassifiers></stage10>
</opencv_storage>
